{"learner":{"attributes":{"best_iteration":"3","best_score":"0.24714435157028694"},"feature_names":[],"feature_types":[],"gradient_booster":{"model":{"cats":{"enc":[],"feature_segments":[],"sorted_idx":[]},"gbtree_model_param":{"num_parallel_tree":"1","num_trees":"54"},"iteration_indptr":[0,1,2,3,4,5,6,7,8,9,10,11,12,13,14,15,16,17,18,19,20,21,22,23,24,25,26,27,28,29,30,31,32,33,34,35,36,37,38,39,40,41,42,43,44,45,46,47,48,49,50,51,52,53,54],"tree_info":[0,0,0,0,0,0,0,0,0,0,0,0,0,0,0,0,0,0,0,0,0,0,0,0,0,0,0,0,0,0,0,0,0,0,0,0,0,0,0,0,0,0,0,0,0,0,0,0,0,0,0,0,0,0],"trees":[{"base_weights":[-2.9278067E-3,-8.014033E-2,1.3978662E-1,-1.4691502E-1,-3.3570703E-2,8.650425E-2,2.4230906E-1,-1.7712483E-1,-9.72107E-2,-5.19867E-2,8.451132E-2,6.0634416E-2,2.2403614E-1,1.7431074E-1,3.2876277E-1,-9.685348E-2,-2.0294143E-1,-1.6543326E-1,-6.226695E-2,5.668678E-2,-6.668799E-2,9.195421E-3,1.3449036E-1,2.1564032E-1,4.7324363E-2,4.31267E-2,2.5766608E-1,4.1637015E-1,1.5478982E-1,5.0767297E-1,3.1005076E-1,-1.6393276E-3,-6.8111625E-3,2.6314985E-3,-6.300297E-3,-5.610938E-3,2.7498408E-4,-2.8358526E-3,1.4953276E-3,3.9526116E-4,8.1024505E-3,-2.5802297E-3,-5.0385523E-4,-1.5516196E-3,5.164234E-3,7.3775854E-3,2.8306034E-3,-0E0,7.76746E-3,2.9649206E-3,7.4751076E-4,-8.1823026E-5,7.5554177E-3,4.2737788E-3,9.144864E-3,5.7615913E-3,1.8173972E-2,3.8723636E-3,1.0348828E-2,8.273316E-3,1.8921336E-2,8.362427E-3,1.2618717E-2],"categories":[],"categories_nodes":[],"categories_segments":[],"categories_sizes":[],"default_left":[0,0,0,0,0,0,0,0,0,0,0,0,0,0,0,0,0,0,0,0,0,0,0,0,0,0,0,0,0,0,0,0,0,0,0,0,0,0,0,0,0,0,0,0,0,0,0,0,0,0,0,0,0,0,0,0,0,0,0,0,0,0,0],"id":0,"left_children":[1,3,5,7,9,11,13,15,17,19,21,23,25,27,29,31,33,35,37,39,41,43,45,47,49,51,53,55,57,59,61,-1,-1,-1,-1,-1,-1,-1,-1,-1,-1,-1,-1,-1,-1,-1,-1,-1,-1,-1,-1,-1,-1,-1,-1,-1,-1,-1,-1,-1,-1,-1,-1],"loss_changes":[1.6361789E2,2.9797146E1,2.8091415E1,5.6264496E0,1.2355347E1,1.1920395E1,9.81295E0,4.724716E0,3.3542871E0,7.8989096E0,2.7201648E0,5.7050333E0,2.9467964E0,4.0435505E0,1.4533463E0,3.0338569E0,3.9345703E0,2.070405E0,3.7152023E0,5.102458E0,4.091486E0,3.2537045E0,1.6241035E0,1.9036455E0,2.9661555E0,1.1243968E0,1.9007988E0,1.9401188E0,4.013376E0,5.984764E-1,1.521843E0,0E0,0E0,0E0,0E0,0E0,0E0,0E0,0E0,0E0,0E0,0E0,0E0,0E0,0E0,0E0,0E0,0E0,0E0,0E0,0E0,0E0,0E0,0E0,0E0,0E0,0E0,0E0,0E0,0E0,0E0,0E0,0E0],"parents":[2147483647,0,0,1,1,2,2,3,3,4,4,5,5,6,6,7,7,8,8,9,9,10,10,11,11,12,12,13,13,14,14,15,15,16,16,17,17,18,18,19,19,20,20,21,21,22,22,23,23,24,24,25,25,26,26,27,27,28,28,29,29,30,30],"right_children":[2,4,6,8,10,12,14,16,18,20,22,24,26,28,30,32,34,36,38,40,42,44,46,48,50,52,54,56,58,60,62,-1,-1,-1,-1,-1,-1,-1,-1,-1,-1,-1,-1,-1,-1,-1,-1,-1,-1,-1,-1,-1,-1,-1,-1,-1,-1,-1,-1,-1,-1,-1,-1],"split_conditions":[1.7005548E-1,-4.760738E-1,7.228925E-1,1.658234E-1,7.862334E-1,1.0159316E0,1.3169688E0,-5.734574E-1,-3.95689E-1,-1.0692539E0,-2.2600448E-1,-1.5881882E0,-2.4331664E-1,-2.4514935E0,-3.2967486E0,-2.2472076E-2,-1.2800449E0,6.90797E-1,-2.7251384E-1,4.3292154E-2,2.891106E-1,1.4253143E0,-1.0979083E0,-5.4671794E-1,-4.2655095E-1,2.2030456E0,6.839828E-1,-1.6317458E-1,1.8420405E0,-2.5908217E-1,1.251262E0,-1.6393276E-3,-6.8111625E-3,2.6314985E-3,-6.300297E-3,-5.610938E-3,2.7498408E-4,-2.8358526E-3,1.4953276E-3,3.9526116E-4,8.1024505E-3,-2.5802297E-3,-5.0385523E-4,-1.5516196E-3,5.164234E-3,7.3775854E-3,2.8306034E-3,-0E0,7.76746E-3,2.9649206E-3,7.4751076E-4,-8.1823026E-5,7.5554177E-3,4.2737788E-3,9.144864E-3,5.7615913E-3,1.8173972E-2,3.8723636E-3,1.0348828E-2,8.273316E-3,1.8921336E-2,8.362427E-3,1.2618717E-2],"split_indices":[2,27,27,9,4,29,2,1,29,52,51,4,27,81,9,48,18,56,28,33,29,80,19,64,48,14,2,55,55,59,14,0,0,0,0,0,0,0,0,0,0,0,0,0,0,0,0,0,0,0,0,0,0,0,0,0,0,0,0,0,0,0,0],"split_type":[0,0,0,0,0,0,0,0,0,0,0,0,0,0,0,0,0,0,0,0,0,0,0,0,0,0,0,0,0,0,0,0,0,0,0,0,0,0,0,0,0,0,0,0,0,0,0,0,0,0,0,0,0,0,0,0,0,0,0,0,0,0,0],"sum_hessian":[1.4849628E4,9.641298E3,5.20833E3,3.9507136E3,5.690584E3,3.4360222E3,1.7723076E3,2.4415295E3,1.5091841E3,4.931118E3,7.5946594E2,2.900575E3,5.354472E2,1.0018909E3,7.704166E2,6.058875E2,1.835642E3,4.989572E2,1.0102268E3,5.7880414E2,4.352314E3,3.1186996E2,4.4759598E2,2.2102562E2,2.6795493E3,8.931026E1,4.4613693E2,6.7910835E1,9.339801E2,6.2938835E1,7.0747784E2,4.654864E2,1.4040112E2,3.968028E1,1.7959618E3,4.490006E2,4.9956596E1,7.91652E2,2.1857486E2,4.864302E2,9.237392E1,3.1219368E3,1.2303773E3,2.2353223E2,8.833774E1,1.0921677E2,3.383792E2,3.992559E1,1.8110002E2,7.967231E2,1.8828264E3,7.091386E1,1.83964E1,1.3808182E2,3.080551E2,3.5353184E1,3.2557648E1,8.303352E2,1.0364491E2,2.6882498E1,3.605634E1,5.639185E2,1.4355928E2],"tree_param":{"num_deleted":"0","num_feature":"86","num_nodes":"63","size_leaf_vector":"1"}},{"base_weights":[1.0280584E-3,-1.9065428E-1,1.4109053E-1,-2.3547496E-1,-8.602906E-2,8.987788E-2,2.5408113E-1,-2.8694814E-1,-1.9081895E-1,-1.2540117E-1,4.8055172E-2,-6.615346E-2,1.0655938E-1,4.4654256E-1,2.2811244E-1,-3.0824402E-1,-2.3444057E-1,-2.0129792E-1,-7.4771247E-3,-1.4880961E-1,-1.9830042E-2,-1.6003711E-2,2.4816728E-1,-1.2785116E-1,-1.0152099E-2,5.2603573E-2,1.3585134E-1,5.714936E-1,3.228373E-1,1.270044E-1,2.4994121E-1,-9.456965E-3,-5.490149E-3,-4.1380115E-3,-7.5122407E-3,9.728515E-6,-6.2369164E-3,-1.920347E-3,2.0925407E-3,-1.5898746E-3,-5.05142E-3,6.536824E-3,-1.0858233E-3,2.957228E-3,-3.196064E-3,-4.634814E-4,1.2591285E-2,-4.1940226E-3,2.687895E-3,8.471619E-3,-9.3338016E-4,1.1924322E-3,8.661288E-3,3.4071272E-3,5.9418636E-3,-0E0,1.7720718E-2,1.3767965E-2,1.7351588E-3,8.940131E-3,2.09E-3,4.6489513E-3,8.366058E-3],"categories":[],"categories_nodes":[],"categories_segments":[],"categories_sizes":[],"default_left":[0,0,0,0,0,0,0,0,0,0,0,0,0,0,0,0,0,0,0,0,0,0,0,0,0,0,0,0,0,0,0,0,0,0,0,0,0,0,0,0,0,0,0,0,0,0,0,0,0,0,0,0,0,0,0,0,0,0,0,0,0,0,0],"id":1,"left_children":[1,3,5,7,9,11,13,15,17,19,21,23,25,27,29,31,33,35,37,39,41,43,45,47,49,51,53,55,57,59,61,-1,-1,-1,-1,-1,-1,-1,-1,-1,-1,-1,-1,-1,-1,-1,-1,-1,-1,-1,-1,-1,-1,-1,-1,-1,-1,-1,-1,-1,-1,-1,-1],"loss_changes":[9.428119E2,6.915454E1,1.1704764E2,2.3250061E1,2.3612507E1,3.642753E1,3.0721283E1,4.6836243E0,1.0488159E1,8.353111E0,1.3149948E1,4.5071425E0,1.9760529E1,1.0252228E1,1.187384E1,2.3596802E0,1.7120132E0,7.210434E0,1.3494382E0,5.042034E0,2.3094954E0,7.9225044E0,1.1637381E1,1.7157927E0,4.15544E0,1.3185459E1,1.0972473E1,3.8786774E0,1.3242493E1,9.423992E0,1.2059021E1,0E0,0E0,0E0,0E0,0E0,0E0,0E0,0E0,0E0,0E0,0E0,0E0,0E0,0E0,0E0,0E0,0E0,0E0,0E0,0E0,0E0,0E0,0E0,0E0,0E0,0E0,0E0,0E0,0E0,0E0,0E0,0E0],"parents":[2147483647,0,0,1,1,2,2,3,3,4,4,5,5,6,6,7,7,8,8,9,9,10,10,11,11,12,12,13,13,14,14,15,15,16,16,17,17,18,18,19,19,20,20,21,21,22,22,23,23,24,24,25,25,26,26,27,27,28,28,29,29,30,30],"right_children":[2,4,6,8,10,12,14,16,18,20,22,24,26,28,30,32,34,36,38,40,42,44,46,48,50,52,54,56,58,60,62,-1,-1,-1,-1,-1,-1,-1,-1,-1,-1,-1,-1,-1,-1,-1,-1,-1,-1,-1,-1,-1,-1,-1,-1,-1,-1,-1,-1,-1,-1,-1,-1],"split_conditions":[5.0868E-1,2.59073E-1,2.3080206E0,7.418236E-1,1.4188548E0,-1.6282143E-1,-2.0799031E-2,1.8122727E-2,1.2460304E0,6.5675294E-1,7.146966E-1,9.3758386E-1,1.596035E0,-1.0125127E0,-5.6741774E-1,8.034261E-1,-3.1251688E-2,-1.4816692E0,6.138645E-1,-1.3710797E0,-1.2140894E0,-2.4442157E-1,3.1318545E-4,1.8082142E0,-1.3854657E0,3.053548E0,1.8138239E0,-2.0805442E0,-1.0773544E0,-8.322071E-1,1.679408E-1,-9.456965E-3,-5.490149E-3,-4.1380115E-3,-7.5122407E-3,9.728515E-6,-6.2369164E-3,-1.920347E-3,2.0925407E-3,-1.5898746E-3,-5.05142E-3,6.536824E-3,-1.0858233E-3,2.957228E-3,-3.196064E-3,-4.634814E-4,1.2591285E-2,-4.1940226E-3,2.687895E-3,8.471619E-3,-9.3338016E-4,1.1924322E-3,8.661288E-3,3.4071272E-3,5.9418636E-3,-0E0,1.7720718E-2,1.3767965E-2,1.7351588E-3,8.940131E-3,2.09E-3,4.6489513E-3,8.366058E-3],"split_indices":[2,27,85,85,52,27,83,29,9,4,44,2,85,66,44,9,16,4,34,80,9,59,82,9,60,4,80,36,18,57,24,0,0,0,0,0,0,0,0,0,0,0,0,0,0,0,0,0,0,0,0,0,0,0,0,0,0,0,0,0,0,0,0],"split_type":[0,0,0,0,0,0,0,0,0,0,0,0,0,0,0,0,0,0,0,0,0,0,0,0,0,0,0,0,0,0,0,0,0,0,0,0,0,0,0,0,0,0,0,0,0,0,0,0,0,0,0,0,0,0,0,0,0,0,0,0,0,0,0],"sum_hessian":[3.5115145E4,1.4822275E4,2.0292871E4,1.0368448E4,4.453827E3,1.3972376E4,6.3204946E3,4.8011323E3,5.567316E3,3.4487375E3,1.00508984E3,1.3431614E3,1.2629214E4,7.430012E2,5.5774937E3,3.3952932E3,1.405839E3,5.2609727E3,3.063433E2,2.814404E3,6.343334E2,7.589738E2,2.4611604E2,6.293608E2,7.1380066E2,4.457755E3,8.171459E3,3.6201608E2,3.8098517E2,1.00089984E3,4.5765938E3,3.2054165E3,1.8987663E2,2.112081E2,1.1946309E3,1.6199692E2,5.0989756E3,1.8454189E2,1.21801414E2,4.87291E2,2.327113E3,3.533109E1,5.990023E2,3.3004355E2,4.2893027E2,9.5439804E1,1.5067624E2,6.0161273E2,2.7748016E1,4.2867046E1,6.709336E2,4.2337993E3,2.239557E2,6.0326333E3,2.1388257E3,1.2159644E1,3.4985645E2,2.4825305E2,1.3273212E2,2.448478E2,7.5605206E2,1.0795223E3,3.4970713E3],"tree_param":{"num_deleted":"0","num_feature":"86","num_nodes":"63","size_leaf_vector":"1"}},{"base_weights":[1.610532E-3,-2.0610009E-1,1.6542113E-1,-2.4742565E-1,3.0259464E-3,1.0330846E-1,2.247698E-1,-2.8979158E-1,-1.3150634E-1,-5.809234E-2,1.9290674E-1,4.540958E-2,1.896393E-1,3.382146E-1,1.9554107E-1,-3.2882327E-1,-2.4613807E-1,1.3226068E-1,-1.5570052E-1,5.124803E-1,-6.786277E-2,5.546462E-1,1.5213121E-1,-3.8390953E-2,9.6767485E-2,1.5845716E-1,3.201049E-1,8.198381E-2,3.604614E-1,1.5214372E-1,2.331849E-1,-1.0701525E-2,-8.399922E-3,-7.694732E-3,-4.5220545E-3,-1.9912887E-3,9.717785E-3,-5.616815E-3,-2.6487452E-3,2.1810038E-2,2.8681758E-4,-2.875499E-3,3.0150071E-3,1.944236E-3,2.0983336E-2,6.770538E-3,-1.553661E-3,-2.0983918E-3,2.759955E-3,2.107082E-4,3.73913E-3,-1.52016245E-2,4.870481E-3,6.111273E-4,1.0557873E-2,7.0321797E-3,-1.1228808E-2,2.0930362E-3,1.1428647E-2,3.2856779E-3,7.4581127E-3,5.4976093E-3,9.068259E-3],"categories":[],"categories_nodes":[],"categories_segments":[],"categories_sizes":[],"default_left":[0,0,0,0,0,0,0,0,0,0,0,0,0,0,0,0,0,0,0,0,0,0,0,0,0,0,0,0,0,0,0,0,0,0,0,0,0,0,0,0,0,0,0,0,0,0,0,0,0,0,0,0,0,0,0,0,0,0,0,0,0,0,0],"id":2,"left_children":[1,3,5,7,9,11,13,15,17,19,21,23,25,27,29,31,33,35,37,39,41,43,45,47,49,51,53,55,57,59,61,-1,-1,-1,-1,-1,-1,-1,-1,-1,-1,-1,-1,-1,-1,-1,-1,-1,-1,-1,-1,-1,-1,-1,-1,-1,-1,-1,-1,-1,-1,-1,-1],"loss_changes":[1.1382233E3,1.27698425E2,6.858124E1,5.999762E1,2.8374084E1,4.5493958E1,3.1019775E1,1.4620483E1,2.1168785E1,9.865223E0,7.922806E0,2.3683746E1,1.4335632E1,1.0602112E1,1.19756775E1,5.619873E0,3.7376404E0,1.0787853E1,6.1382675E0,2.4253154E0,8.540857E0,3.2011375E0,8.316344E0,8.5459E0,8.396643E0,7.5076675E0,6.2820053E0,1.1287749E1,1.0148499E1,1.4194397E1,1.3406387E1,0E0,0E0,0E0,0E0,0E0,0E0,0E0,0E0,0E0,0E0,0E0,0E0,0E0,0E0,0E0,0E0,0E0,0E0,0E0,0E0,0E0,0E0,0E0,0E0,0E0,0E0,0E0,0E0,0E0,0E0,0E0,0E0],"parents":[2147483647,0,0,1,1,2,2,3,3,4,4,5,5,6,6,7,7,8,8,9,9,10,10,11,11,12,12,13,13,14,14,15,15,16,16,17,17,18,18,19,19,20,20,21,21,22,22,23,23,24,24,25,25,26,26,27,27,28,28,29,29,30,30],"right_children":[2,4,6,8,10,12,14,16,18,20,22,24,26,28,30,32,34,36,38,40,42,44,46,48,50,52,54,56,58,60,62,-1,-1,-1,-1,-1,-1,-1,-1,-1,-1,-1,-1,-1,-1,-1,-1,-1,-1,-1,-1,-1,-1,-1,-1,-1,-1,-1,-1,-1,-1,-1,-1],"split_conditions":[1.3858423E0,9.6914536E-1,2.2269287E0,2.1732771E-1,2.1276052E0,1.5047946E0,-2.1654758E0,7.8670514E-1,-1.4820567E0,-1.8977813E0,-6.5772694E-1,1.3169688E0,2.512664E0,-9.720334E-2,1.2943075E0,-4.6688178E-1,9.9886173E-1,1.0750676E0,2.0121074E-1,-4.873537E-1,1.4634439E0,7.7681375E-1,6.052602E-1,1.509492E0,2.7087042E-1,-2.8479033E0,-2.6639313E-1,-2.4046153E-1,-2.0624294E0,1.3315408E0,1.5254478E0,-1.0701525E-2,-8.399922E-3,-7.694732E-3,-4.5220545E-3,-1.9912887E-3,9.717785E-3,-5.616815E-3,-2.6487452E-3,2.1810038E-2,2.8681758E-4,-2.875499E-3,3.0150071E-3,1.944236E-3,2.0983336E-2,6.770538E-3,-1.553661E-3,-2.0983918E-3,2.759955E-3,2.107082E-4,3.73913E-3,-1.52016245E-2,4.870481E-3,6.111273E-4,1.0557873E-2,7.0321797E-3,-1.1228808E-2,2.0930362E-3,1.1428647E-2,3.2856779E-3,7.4581127E-3,5.4976093E-3,9.068259E-3],"split_indices":[85,29,85,30,38,29,4,85,45,4,58,2,54,34,30,30,9,30,2,54,9,30,1,28,27,66,67,34,72,71,34,0,0,0,0,0,0,0,0,0,0,0,0,0,0,0,0,0,0,0,0,0,0,0,0,0,0,0,0,0,0,0,0],"split_type":[0,0,0,0,0,0,0,0,0,0,0,0,0,0,0,0,0,0,0,0,0,0,0,0,0,0,0,0,0,0,0,0,0,0,0,0,0,0,0,0,0,0,0,0,0,0,0,0,0,0,0,0,0,0,0,0,0,0,0,0,0,0,0],"sum_hessian":[3.3449555E4,1.4745609E4,1.8703945E4,1.2316209E4,2.4294001E3,9.150069E3,9.553876E3,9.011191E3,3.305017E3,1.8349071E3,5.94493E2,5.4856694E3,3.6643997E3,1.9459081E3,7.6079673E3,4.738453E3,4.2727383E3,2.7346075E2,3.0315564E3,2.743621E1,1.8074708E3,5.5185574E1,5.3930743E2,2.0772542E3,3.4084153E3,2.9672915E3,6.971081E2,1.597927E2,1.7861155E3,3.5509424E3,4.0570251E3,2.9945645E3,1.7438888E3,3.841956E3,4.3078247E2,1.3236803E2,1.4109271E2,2.0529973E3,9.785592E2,1.7214035E1,1.0222177E1,1.5556708E3,2.5180014E2,1.482737E1,4.0358204E1,3.9979337E2,1.3951404E2,1.6794165E3,3.9783768E2,8.167641E2,2.5916511E3,1.4264026E1,2.9530276E3,7.024203E1,6.268661E2,1.2215145E2,3.7641235E1,1.21419754E2,1.6646957E3,2.4729158E3,1.0780266E3,2.3676882E3,1.6893367E3],"tree_param":{"num_deleted":"0","num_feature":"86","num_nodes":"63","size_leaf_vector":"1"}},{"base_weights":[1.3740336E-3,-2.1429227E-1,1.6226907E-1,-2.6175064E-1,-1.41826235E-2,8.00202E-2,2.1471794E-1,-2.7678227E-1,-2.120312E-3,-6.479897E-2,2.1806975E-1,-4.87564E-2,1.1771062E-1,1.8504198E-1,2.831837E-1,-3.3111563E-1,-2.3717523E-1,-6.0158607E-2,1.8876056E-1,1.1222748E-1,-1.0749235E-1,-9.662775E-3,2.8202254E-1,-1.3798124E-1,6.6992596E-2,6.5969944E-2,1.6558225E-1,1.7102486E-1,3.032513E-1,3.7001136E-1,2.1940237E-1,-1.0338708E-2,-6.49171E-3,-8.002699E-3,-5.793257E-3,1.1471831E-2,-2.3026913E-3,-5.9727684E-4,9.955449E-3,1.2222287E-2,1.8214501E-3,3.2088952E-3,-3.804337E-3,7.859932E-3,-5.07342E-3,4.940509E-4,1.0127954E-2,1.0457212E-3,-4.6781553E-3,1.0531404E-3,9.313262E-3,5.1901666E-3,7.7203085E-4,9.819635E-3,4.137967E-3,4.6042297E-3,8.508737E-3,9.717467E-3,-5.1594363E-3,1.0215137E-2,1.6428439E-2,1.0769397E-2,5.515395E-3],"categories":[],"categories_nodes":[],"categories_segments":[],"categories_sizes":[],"default_left":[0,0,0,0,0,0,0,0,0,0,0,0,0,0,0,0,0,0,0,0,0,0,0,0,0,0,0,0,0,0,0,0,0,0,0,0,0,0,0,0,0,0,0,0,0,0,0,0,0,0,0,0,0,0,0,0,0,0,0,0,0,0,0],"id":3,"left_children":[1,3,5,7,9,11,13,15,17,19,21,23,25,27,29,31,33,35,37,39,41,43,45,47,49,51,53,55,57,59,61,-1,-1,-1,-1,-1,-1,-1,-1,-1,-1,-1,-1,-1,-1,-1,-1,-1,-1,-1,-1,-1,-1,-1,-1,-1,-1,-1,-1,-1,-1,-1,-1],"loss_changes":[1.111627E3,1.2969116E2,7.8835266E1,4.287671E1,3.0789629E1,3.48142E1,2.2176758E1,2.1761658E1,6.6613526E0,1.6376514E1,7.086355E0,1.6775658E1,1.3474998E1,1.2391296E1,1.7920929E1,6.093048E0,7.3385315E0,3.2344708E0,4.472219E0,5.8225093E0,7.2943783E0,4.370848E0,5.073061E0,2.9808674E0,5.065029E0,1.132123E1,1.2268379E1,1.3328064E1,8.312088E0,6.1717987E0,9.029472E0,0E0,0E0,0E0,0E0,0E0,0E0,0E0,0E0,0E0,0E0,0E0,0E0,0E0,0E0,0E0,0E0,0E0,0E0,0E0,0E0,0E0,0E0,0E0,0E0,0E0,0E0,0E0,0E0,0E0,0E0,0E0,0E0],"parents":[2147483647,0,0,1,1,2,2,3,3,4,4,5,5,6,6,7,7,8,8,9,9,10,10,11,11,12,12,13,13,14,14,15,15,16,16,17,17,18,18,19,19,20,20,21,21,22,22,23,23,24,24,25,25,26,26,27,27,28,28,29,29,30,30],"right_children":[2,4,6,8,10,12,14,16,18,20,22,24,26,28,30,32,34,36,38,40,42,44,46,48,50,52,54,56,58,60,62,-1,-1,-1,-1,-1,-1,-1,-1,-1,-1,-1,-1,-1,-1,-1,-1,-1,-1,-1,-1,-1,-1,-1,-1,-1,-1,-1,-1,-1,-1,-1,-1],"split_conditions":[1.3751138E0,7.572397E-1,2.0338297E0,1.5156868E0,2.1276052E0,2.4850579E-1,3.227978E0,-4.6688178E-1,2.167166E0,-1.2855783E0,9.927637E-1,1.2463752E0,1.5047946E0,2.7513623E0,-2.6142005E-5,8.034261E-1,-1.9506413E-1,-1.7122225E0,9.2238504E-1,-2.6492922E0,-2.4514935E0,-4.1778922E-1,-1.5029025E-1,-1.1839553E0,2.7157817E0,-1.5305284E0,6.265154E-3,3.1036656E0,3.2462566E0,2.166361E0,-9.794672E-1,-1.0338708E-2,-6.49171E-3,-8.002699E-3,-5.793257E-3,1.1471831E-2,-2.3026913E-3,-5.9727684E-4,9.955449E-3,1.2222287E-2,1.8214501E-3,3.2088952E-3,-3.804337E-3,7.859932E-3,-5.07342E-3,4.940509E-4,1.0127954E-2,1.0457212E-3,-4.6781553E-3,1.0531404E-3,9.313262E-3,5.1901666E-3,7.7203085E-4,9.819635E-3,4.137967E-3,4.6042297E-3,8.508737E-3,9.717467E-3,-5.1594363E-3,1.0215137E-2,1.6428439E-2,1.0769397E-2,5.515395E-3],"split_indices":[85,30,85,5,38,30,85,30,43,45,85,4,29,44,67,9,34,80,72,56,81,1,76,38,42,4,84,30,6,51,57,0,0,0,0,0,0,0,0,0,0,0,0,0,0,0,0,0,0,0,0,0,0,0,0,0,0,0,0,0,0,0,0],"split_type":[0,0,0,0,0,0,0,0,0,0,0,0,0,0,0,0,0,0,0,0,0,0,0,0,0,0,0,0,0,0,0,0,0,0,0,0,0,0,0,0,0,0,0,0,0,0,0,0,0,0,0,0,0,0,0,0,0,0,0,0,0,0,0],"sum_hessian":[3.2033186E4,1.3684022E4,1.8349164E4,1.1056281E4,2.627742E3,7.154224E3,1.1194939E4,1.0447431E4,6.088502E2,2.1622546E3,4.6548734E2,1.6136747E3,5.5405493E3,7.8251836E3,3.3697559E3,4.387981E3,6.0594497E3,4.7195767E2,1.3689256E2,4.149597E2,1.747295E3,9.900323E1,3.664841E2,9.1590594E2,6.9776874E2,2.6749993E3,2.8655503E3,7.007585E3,8.175988E2,1.4163496E3,1.9534062E3,3.9143713E3,4.7360956E2,3.6059917E3,2.453458E3,1.3289433E1,4.586682E2,5.3542583E1,8.334998E1,5.671795E1,3.5824173E2,1.3936731E2,1.6079277E3,3.382207E1,6.518116E1,6.698777E1,2.9949634E2,8.0784676E1,8.351213E2,6.226127E2,7.515608E1,7.222363E2,1.9527628E3,4.0991406E2,2.4556362E3,6.0743975E3,9.3318744E2,7.861559E2,3.1442965E1,1.2243951E3,1.9195451E2,3.871803E2,1.566226E3],"tree_param":{"num_deleted":"0","num_feature":"86","num_nodes":"63","size_leaf_vector":"1"}},{"base_weights":[-2.6748907E-3,-2.1743017E-1,1.5055786E-1,-2.5262737E-1,5.4534517E-2,1.4504412E-2,1.7846775E-1,-2.8946528E-1,-1.3474216E-1,-5.7036888E-2,1.6050544E-1,-7.705752E-2,1.2626846E-1,2.9016444E-1,1.6095154E-1,-3.5655865E-1,-2.6422206E-1,-1.578409E-1,7.072294E-2,-1.08676136E-1,1.17766276E-1,2.2196308E-1,-3.8701702E-2,4.920487E-2,-1.14613876E-1,8.511178E-2,2.761291E-1,1.6058803E-1,3.476741E-1,2.6581722E-1,1.4707723E-1,-1.116049E-2,-7.4234377E-3,-8.636006E-3,-6.20043E-3,2.501437E-3,-4.9487506E-3,-3.9919843E-3,5.16298E-3,-4.086407E-3,1.811459E-3,1.7227458E-2,-0E0,-6.3467403E-3,7.4046343E-3,9.442799E-3,-3.603551E-3,-1.9503945E-4,6.92432E-3,-3.7990212E-3,6.7156944E-3,5.136727E-3,5.249337E-4,1.376464E-2,3.9996747E-3,5.421542E-3,-1.9916888E-2,1.0855536E-2,-4.4264953E-4,-1.276088E-3,8.962924E-3,3.032385E-3,5.5550938E-3],"categories":[],"categories_nodes":[],"categories_segments":[],"categories_sizes":[],"default_left":[0,0,0,0,0,0,0,0,0,0,0,0,0,0,0,0,0,0,0,0,0,0,0,0,0,0,0,0,0,0,0,0,0,0,0,0,0,0,0,0,0,0,0,0,0,0,0,0,0,0,0,0,0,0,0,0,0,0,0,0,0,0,0],"id":4,"left_children":[1,3,5,7,9,11,13,15,17,19,21,23,25,27,29,31,33,35,37,39,41,43,45,47,49,51,53,55,57,59,61,-1,-1,-1,-1,-1,-1,-1,-1,-1,-1,-1,-1,-1,-1,-1,-1,-1,-1,-1,-1,-1,-1,-1,-1,-1,-1,-1,-1,-1,-1,-1,-1],"loss_changes":[1.017912E3,1.2354071E2,6.833484E1,4.9046448E1,1.7555958E1,3.1591734E1,2.8743652E1,1.390033E1,1.3050587E1,6.4721994E0,9.521881E0,8.088563E0,8.182577E0,1.442598E1,1.8354156E1,3.1730652E0,7.9977417E0,4.326092E0,5.7160277E0,2.68787E0,8.196306E0,6.4547367E0,4.985547E0,4.0983014E0,5.284832E0,6.2150483E0,6.9553413E0,1.0208143E1,7.506836E0,1.5546631E1,1.9742249E1,0E0,0E0,0E0,0E0,0E0,0E0,0E0,0E0,0E0,0E0,0E0,0E0,0E0,0E0,0E0,0E0,0E0,0E0,0E0,0E0,0E0,0E0,0E0,0E0,0E0,0E0,0E0,0E0,0E0,0E0,0E0,0E0],"parents":[2147483647,0,0,1,1,2,2,3,3,4,4,5,5,6,6,7,7,8,8,9,9,10,10,11,11,12,12,13,13,14,14,15,15,16,16,17,17,18,18,19,19,20,20,21,21,22,22,23,23,24,24,25,25,26,26,27,27,28,28,29,29,30,30],"right_children":[2,4,6,8,10,12,14,16,18,20,22,24,26,28,30,32,34,36,38,40,42,44,46,48,50,52,54,56,58,60,62,-1,-1,-1,-1,-1,-1,-1,-1,-1,-1,-1,-1,-1,-1,-1,-1,-1,-1,-1,-1,-1,-1,-1,-1,-1,-1,-1,-1,-1,-1,-1,-1],"split_conditions":[1.3647804E0,1.3783362E0,1.6758467E0,3.6020148E-1,2.1276052E0,1.0679158E0,-2.6614523E0,-7.7399254E-1,1.625927E0,4.063384E-1,1.8589326E0,-1.4816692E0,3.053548E0,-1.4869446E0,-1.0733725E0,7.302283E-1,6.188082E-2,-1.5563791E0,1.0750676E0,1.4208939E0,-2.4514935E0,-2.2377886E-1,-1.7836305E0,1.9897045E-1,1.7662392E0,-1.3467732E-1,1.1332304E0,9.2056507E-1,7.366976E-1,8.67038E-1,1.2943075E0,-1.116049E-2,-7.4234377E-3,-8.636006E-3,-6.20043E-3,2.501437E-3,-4.9487506E-3,-3.9919843E-3,5.16298E-3,-4.086407E-3,1.811459E-3,1.7227458E-2,-0E0,-6.3467403E-3,7.4046343E-3,9.442799E-3,-3.603551E-3,-1.9503945E-4,6.92432E-3,-3.7990212E-3,6.7156944E-3,5.136727E-3,5.249337E-4,1.376464E-2,3.9996747E-3,5.421542E-3,-1.9916888E-2,1.0855536E-2,-4.4264953E-4,-1.276088E-3,8.962924E-3,3.032385E-3,5.5550938E-3],"split_indices":[85,29,85,30,38,23,4,30,52,2,57,4,4,36,25,9,34,3,30,9,81,76,80,55,38,73,72,9,67,10,30,0,0,0,0,0,0,0,0,0,0,0,0,0,0,0,0,0,0,0,0,0,0,0,0,0,0,0,0,0,0,0,0],"split_type":[0,0,0,0,0,0,0,0,0,0,0,0,0,0,0,0,0,0,0,0,0,0,0,0,0,0,0,0,0,0,0,0,0,0,0,0,0,0,0,0,0,0,0,0,0,0,0,0,0,0,0,0,0,0,0,0,0,0,0,0,0,0,0],"sum_hessian":[3.0926463E4,1.288036E4,1.8046104E4,1.1407803E4,1.4725582E3,3.07843E3,1.4967673E4,8.683047E3,2.7247559E3,7.131772E2,7.593811E2,1.6875719E3,1.390858E3,2.0170703E3,1.2950603E4,2.355787E3,6.3272593E3,2.454183E3,2.7057288E2,5.555403E2,1.576369E2,5.8400146E2,1.753796E2,3.8063876E2,1.3069332E3,1.0988784E3,2.9197958E2,6.277176E2,1.3893528E3,1.5005632E3,1.145004E4,2.051209E3,3.0457806E2,4.466497E3,1.8607623E3,6.569647E1,2.3884866E3,8.640009E1,1.8417279E2,4.8314563E2,7.239464E1,2.9569162E1,1.2806775E2,2.8674393E1,5.553271E2,2.9461424E1,1.4591817E2,2.8855017E2,9.208858E1,1.2661735E3,4.075969E1,4.7547015E2,6.2340826E2,1.230867E2,1.688929E2,6.154653E2,1.2252282E1,1.3397097E3,4.9643044E1,1.4186848E2,1.3586948E3,5.202024E3,6.2480156E3],"tree_param":{"num_deleted":"0","num_feature":"86","num_nodes":"63","size_leaf_vector":"1"}},{"base_weights":[2.7529553E-3,-2.2993223E-1,1.4273402E-1,-2.5384578E-1,1.9883887E-1,1.202421E-2,1.75792E-1,-2.893508E-1,-1.7142831E-1,2.7609938E-3,2.604998E-1,-1.00759625E-1,1.8392353E-1,3.1258965E-1,1.5738969E-1,-3.2992354E-1,-2.4497938E-1,-1.9493687E-1,6.508039E-2,-9.823712E-2,3.0673087E-1,3.1524298E-1,1.0333787E-2,2.0479524E-1,-1.2695573E-1,1.4215843E-1,3.288035E-1,1.5572742E-1,3.5373616E-1,1.4141363E-1,2.6665136E-1,-1.0315201E-2,-8.092511E-3,-7.673944E-3,-2.5149502E-3,9.750766E-3,-5.947138E-3,8.107217E-3,-4.3169927E-4,1.5604128E-3,-8.489085E-3,-0E0,1.6677778E-2,1.0663389E-2,-3.8270836E-4,-6.355485E-3,8.154889E-3,-4.062845E-3,8.442697E-3,-7.7194104E-4,-4.3223933E-3,8.186294E-3,2.8208026E-3,1.2211352E-2,1.0065952E-3,-6.315924E-3,6.841846E-3,1.4022555E-2,8.677178E-3,-4.8035942E-4,4.460703E-3,-1.1833815E-2,8.256871E-3],"categories":[],"categories_nodes":[],"categories_segments":[],"categories_sizes":[],"default_left":[0,0,0,0,0,0,0,0,0,0,0,0,0,0,0,0,0,0,0,0,0,0,0,0,0,0,0,0,0,0,0,0,0,0,0,0,0,0,0,0,0,0,0,0,0,0,0,0,0,0,0,0,0,0,0,0,0,0,0,0,0,0,0],"id":5,"left_children":[1,3,5,7,9,11,13,15,17,19,21,23,25,27,29,31,33,35,37,39,41,43,45,47,49,51,53,55,57,59,61,-1,-1,-1,-1,-1,-1,-1,-1,-1,-1,-1,-1,-1,-1,-1,-1,-1,-1,-1,-1,-1,-1,-1,-1,-1,-1,-1,-1,-1,-1,-1,-1],"loss_changes":[9.864074E2,1.16776E2,8.1532196E1,3.0973206E1,6.9864044E0,7.429785E1,3.7417053E1,1.2801697E1,1.8269157E1,4.854863E0,5.8629265E0,1.8448652E1,8.63298E0,1.0873459E1,2.2751007E1,2.4757385E0,5.9137115E0,5.095955E0,5.027809E0,3.3461177E0,2.637297E0,5.2017784E0,5.2045135E0,4.9150023E0,3.5149498E0,7.061058E0,7.2303505E0,1.0145143E1,9.267502E0,1.345372E1,9.6686325E0,0E0,0E0,0E0,0E0,0E0,0E0,0E0,0E0,0E0,0E0,0E0,0E0,0E0,0E0,0E0,0E0,0E0,0E0,0E0,0E0,0E0,0E0,0E0,0E0,0E0,0E0,0E0,0E0,0E0,0E0,0E0,0E0],"parents":[2147483647,0,0,1,1,2,2,3,3,4,4,5,5,6,6,7,7,8,8,9,9,10,10,11,11,12,12,13,13,14,14,15,15,16,16,17,17,18,18,19,19,20,20,21,21,22,22,23,23,24,24,25,25,26,26,27,27,28,28,29,29,30,30],"right_children":[2,4,6,8,10,12,14,16,18,20,22,24,26,28,30,32,34,36,38,40,42,44,46,48,50,52,54,56,58,60,62,-1,-1,-1,-1,-1,-1,-1,-1,-1,-1,-1,-1,-1,-1,-1,-1,-1,-1,-1,-1,-1,-1,-1,-1,-1,-1,-1,-1,-1,-1,-1,-1],"split_conditions":[4.932348E-1,2.1276052E0,1.2741913E0,1.5974014E-1,-2.5574198E-1,1.5047946E0,-2.4093747E0,7.796687E-1,1.625927E0,1.1974084E0,1.0188615E0,-2.4514935E0,3.2559733E0,-4.9783808E-1,3.6719935E0,4.5872816E-1,1.2171761E0,-3.2967486E0,-1.4060678E0,-7.787238E-1,8.282244E-1,1.8589326E0,2.32759E0,8.320821E-1,-1.258337E0,-2.638261E-1,1.3276349E0,-6.0676646E-1,-2.0799031E-2,-2.4331664E-1,-2.3469315E0,-1.0315201E-2,-8.092511E-3,-7.673944E-3,-2.5149502E-3,9.750766E-3,-5.947138E-3,8.107217E-3,-4.3169927E-4,1.5604128E-3,-8.489085E-3,-0E0,1.6677778E-2,1.0663389E-2,-3.8270836E-4,-6.355485E-3,8.154889E-3,-4.062845E-3,8.442697E-3,-7.7194104E-4,-4.3223933E-3,8.186294E-3,2.8208026E-3,1.2211352E-2,1.0065952E-3,-6.315924E-3,6.841846E-3,1.4022555E-2,8.677178E-3,-4.8035942E-4,4.460703E-3,-1.1833815E-2,8.256871E-3],"split_indices":[2,38,2,27,44,29,66,85,52,85,50,81,29,64,4,4,9,9,59,25,50,57,6,24,5,48,73,51,83,27,59,0,0,0,0,0,0,0,0,0,0,0,0,0,0,0,0,0,0,0,0,0,0,0,0,0,0,0,0,0,0,0,0],"split_type":[0,0,0,0,0,0,0,0,0,0,0,0,0,0,0,0,0,0,0,0,0,0,0,0,0,0,0,0,0,0,0,0,0,0,0,0,0,0,0,0,0,0,0,0,0,0,0,0,0,0,0,0,0,0,0,0,0,0,0,0,0,0,0],"sum_hessian":[3.0283014E4,1.1371753E4,1.891126E4,1.077401E4,5.977429E2,3.8240608E3,1.5087199E4,7.5180967E3,3.2559133E3,1.4738268E2,4.5036023E2,2.3060574E3,1.5180033E3,1.7786791E3,1.33085205E4,3.9086577E3,3.609439E3,2.9657068E3,2.902065E2,1.0917248E2,3.8210194E1,3.657964E2,8.456384E1,1.7800255E2,2.128055E3,1.1867571E3,3.3124615E2,3.7665088E2,1.4020282E3,1.1622796E4,1.6857247E3,3.1533257E3,7.55332E2,3.3754463E3,2.3399278E2,1.5568776E1,2.9501382E3,8.320005E1,2.0700647E2,5.8012238E1,5.1160236E1,1.9435722E1,1.8774471E1,3.2842267E2,3.7373745E1,4.385632E1,4.0707523E1,3.0040394E1,1.4796216E2,3.1708594E2,1.810969E3,3.1127316E2,8.7548395E2,2.5857846E2,7.266771E1,5.9208313E1,3.1744257E2,4.9736755E2,9.046606E2,5.0731354E2,1.1115481E4,1.8945812E1,1.6667789E3],"tree_param":{"num_deleted":"0","num_feature":"86","num_nodes":"63","size_leaf_vector":"1"}},{"base_weights":[9.859408E-4,-2.2745717E-1,1.3716894E-1,-2.5429547E-1,1.7620042E-1,6.955836E-2,2.0399284E-1,-2.9630196E-1,-1.9425415E-1,-2.0421287E-1,1.9493482E-1,1.2920091E-2,1.655204E-1,2.7732688E-1,1.7377889E-1,-3.0871636E-1,-1.7294069E-1,-2.0872164E-1,-4.1162428E-3,8.336082E-5,-1.689722E-2,4.326493E-1,1.5171392E-1,-1.0478397E-1,6.288244E-2,1.067488E-1,2.1631564E-1,1.6812065E-1,3.1090102E-1,8.7969206E-2,1.9767533E-1,-9.7118765E-3,-7.3902137E-3,2.2723372E-3,-5.6767296E-3,9.310296E-3,-6.340127E-3,-2.7550957E-3,5.206822E-3,-0E0,1.52566675E-2,1.6369309E-3,7.2449883E-3,-3.8629856E-3,1.4667126E-3,4.6928693E-3,6.877404E-4,7.338486E-3,1.9977365E-3,7.5389394E-3,3.032881E-3,3.493393E-3,1.4584132E-2,8.156309E-3,1.2804976E-2,1.5294726E-3,9.258967E-3,5.0013657E-3,8.377581E-3],"categories":[],"categories_nodes":[],"categories_segments":[],"categories_sizes":[],"default_left":[0,0,0,0,0,0,0,0,0,0,0,0,0,0,0,0,0,0,0,0,0,0,0,0,0,0,0,0,0,0,0,0,0,0,0,0,0,0,0,0,0,0,0,0,0,0,0,0,0,0,0,0,0,0,0,0,0,0,0],"id":6,"left_children":[1,3,5,7,9,11,13,15,17,19,21,23,25,27,29,31,33,35,37,-1,-1,39,41,43,45,47,49,51,53,55,57,-1,-1,-1,-1,-1,-1,-1,-1,-1,-1,-1,-1,-1,-1,-1,-1,-1,-1,-1,-1,-1,-1,-1,-1,-1,-1,-1,-1],"loss_changes":[9.183069E2,1.1958429E2,8.327197E1,2.5470154E1,4.9597416E0,4.9849426E1,2.0046722E1,8.706604E0,1.1535431E1,2.843021E0,6.0384884E0,3.40648E1,9.810326E0,9.312454E0,1.3208282E1,4.42511E0,2.4376411E0,5.4152985E0,4.765546E0,0E0,0E0,3.2475872E0,4.5874577E0,6.440111E0,1.5053333E1,8.480696E0,6.924446E0,9.900518E0,8.366318E0,1.14418125E1,1.2468689E1,0E0,0E0,0E0,0E0,0E0,0E0,0E0,0E0,0E0,0E0,0E0,0E0,0E0,0E0,0E0,0E0,0E0,0E0,0E0,0E0,0E0,0E0,0E0,0E0,0E0,0E0,0E0,0E0],"parents":[2147483647,0,0,1,1,2,2,3,3,4,4,5,5,6,6,7,7,8,8,9,9,10,10,11,11,12,12,13,13,14,14,15,15,16,16,17,17,18,18,21,21,22,22,23,23,24,24,25,25,26,26,27,27,28,28,29,29,30,30],"right_children":[2,4,6,8,10,12,14,16,18,20,22,24,26,28,30,32,34,36,38,-1,-1,40,42,44,46,48,50,52,54,56,58,-1,-1,-1,-1,-1,-1,-1,-1,-1,-1,-1,-1,-1,-1,-1,-1,-1,-1,-1,-1,-1,-1,-1,-1,-1,-1,-1,-1],"split_conditions":[4.932348E-1,2.1276052E0,2.2269287E0,8.698724E-1,-6.072609E-1,1.4721825E0,-1.5305284E0,8.510001E-1,1.625927E0,2.5624126E-1,-1.0999595E0,1.0941775E-3,9.1954654E-1,-1.5129185E0,2.6526576E-1,3.446215E-1,-1.8578619E0,-3.2967486E0,6.0047203E-1,8.336082E-5,-1.689722E-2,-2.3697986E-1,2.581468E0,1.9434388E0,-1.6495024E0,6.873301E-1,4.319037E-1,2.1661347E-1,3.8871386E0,1.5653659E0,1.1791703E0,-9.7118765E-3,-7.3902137E-3,2.2723372E-3,-5.6767296E-3,9.310296E-3,-6.340127E-3,-2.7550957E-3,5.206822E-3,-0E0,1.52566675E-2,1.6369309E-3,7.2449883E-3,-3.8629856E-3,1.4667126E-3,4.6928693E-3,6.877404E-4,7.338486E-3,1.9977365E-3,7.5389394E-3,3.032881E-3,3.493393E-3,1.4584132E-2,8.156309E-3,1.2804976E-2,1.5294726E-3,9.258967E-3,5.0013657E-3,8.377581E-3],"split_indices":[2,38,85,85,32,8,4,9,52,2,50,24,55,14,81,26,45,9,28,0,0,44,26,2,4,18,78,32,85,58,51,0,0,0,0,0,0,0,0,0,0,0,0,0,0,0,0,0,0,0,0,0,0,0,0,0,0,0,0],"split_type":[0,0,0,0,0,0,0,0,0,0,0,0,0,0,0,0,0,0,0,0,0,0,0,0,0,0,0,0,0,0,0,0,0,0,0,0,0,0,0,0,0,0,0,0,0,0,0,0,0,0,0,0,0,0,0,0,0,0,0],"sum_hessian":[2.9516895E4,1.1020925E4,1.849597E4,1.0336867E4,6.840577E2,9.203335E3,9.292635E3,6.0674165E3,4.2694507E3,2.867222E1,6.553855E2,5.7954575E3,3.4078777E3,2.69704E3,6.595595E3,5.502557E3,5.648592E2,3.9624917E3,3.0695868E2,1.7678942E1,1.0993279E1,9.449675E1,5.6088873E2,1.7203507E3,4.075107E3,1.5918961E3,1.8159814E3,6.4402545E2,2.0530146E3,1.4478228E3,5.147772E3,4.415426E3,1.0871313E3,3.0490526E1,5.3436865E2,1.6773E1,3.9457188E3,2.0991615E2,9.704253E1,1.4099209E1,8.0397545E1,2.7629077E2,2.8459796E2,1.4940264E3,2.263244E2,1.2104419E3,2.864665E3,3.5117416E2,1.240722E3,1.3845662E3,4.314153E2,5.590611E2,8.496437E1,1.5474417E3,5.0557294E2,1.2459712E3,2.0185158E2,3.7447695E3,1.4030026E3],"tree_param":{"num_deleted":"0","num_feature":"86","num_nodes":"59","size_leaf_vector":"1"}},{"base_weights":[2.7754114E-3,-2.3451626E-1,1.3057691E-1,-2.6275927E-1,1.5871406E-1,3.5601244E-3,1.7452882E-1,-3.028165E-1,-1.6489428E-1,3.2622343E-1,7.129946E-2,-1.1320472E-1,1.6344254E-1,1.4751449E-1,2.5786582E-1,-3.53399E-1,-2.7391493E-1,-1.773821E-1,2.0165235E-1,3.719354E-1,-9.376943E-3,-6.608705E-2,1.3529311E-1,1.6633451E-1,-1.433954E-1,5.666935E-1,1.5546161E-1,-1.6841607E-2,1.5653676E-1,3.3193877E-1,1.942775E-1,-1.0986232E-2,-7.2183E-3,-8.886359E-3,-6.430709E-3,-6.2417034E-3,-3.807526E-3,1.5595427E-2,-0E0,-1.455391E-3,1.2681095E-2,-3.5510033E-3,7.5043654E-3,5.4876897E-3,-4.9562627E-3,-2.506165E-3,7.115588E-3,-5.275467E-3,-2.0886762E-3,2.261809E-2,6.511623E-3,3.8535197E-3,7.2870995E-3,4.9094614E-3,-2.3181809E-3,7.319669E-3,4.3697455E-3,4.578766E-3,1.1373863E-2,6.069842E-3,-1.2548384E-2],"categories":[],"categories_nodes":[],"categories_segments":[],"categories_sizes":[],"default_left":[0,0,0,0,0,0,0,0,0,0,0,0,0,0,0,0,0,0,0,0,0,0,0,0,0,0,0,0,0,0,0,0,0,0,0,0,0,0,0,0,0,0,0,0,0,0,0,0,0,0,0,0,0,0,0,0,0,0,0,0,0],"id":7,"left_children":[1,3,5,7,9,11,13,15,17,19,21,23,25,27,29,31,33,35,37,39,-1,41,43,45,47,49,51,53,55,57,59,-1,-1,-1,-1,-1,-1,-1,-1,-1,-1,-1,-1,-1,-1,-1,-1,-1,-1,-1,-1,-1,-1,-1,-1,-1,-1,-1,-1,-1,-1],"loss_changes":[8.777352E2,1.12691956E2,1.04866E2,3.6495483E1,9.479229E0,9.0539566E1,3.0976562E1,8.972229E0,1.266938E1,6.9466534E0,4.059164E0,2.3636032E1,5.697361E0,1.58134E1,1.5401672E1,2.7077942E0,5.0521545E0,3.7458878E0,5.592419E0,5.005617E0,0E0,2.2410975E0,4.570166E0,4.980474E0,5.785694E0,1.0969257E0,4.3250732E0,5.893051E0,9.0742035E0,1.2591675E1,9.05867E0,0E0,0E0,0E0,0E0,0E0,0E0,0E0,0E0,0E0,0E0,0E0,0E0,0E0,0E0,0E0,0E0,0E0,0E0,0E0,0E0,0E0,0E0,0E0,0E0,0E0,0E0,0E0,0E0,0E0,0E0],"parents":[2147483647,0,0,1,1,2,2,3,3,4,4,5,5,6,6,7,7,8,8,9,9,10,10,11,11,12,12,13,13,14,14,15,15,16,16,17,17,18,18,19,19,21,21,22,22,23,23,24,24,25,25,26,26,27,27,28,28,29,29,30,30],"right_children":[2,4,6,8,10,12,14,16,18,20,22,24,26,28,30,32,34,36,38,40,-1,42,44,46,48,50,52,54,56,58,60,-1,-1,-1,-1,-1,-1,-1,-1,-1,-1,-1,-1,-1,-1,-1,-1,-1,-1,-1,-1,-1,-1,-1,-1,-1,-1,-1,-1,-1,-1],"split_conditions":[3.7968186E-1,1.8242989E0,1.3610088E0,1.8643223E-1,-1.7251131E-1,1.5047946E0,3.227978E0,-6.960343E-1,2.5075219E0,1.706764E0,2.4186358E0,-2.2601988E0,-1.0078918E0,-1.5505983E-1,-7.7315843E-1,7.88089E-1,6.188082E-2,8.7853235E-1,-7.001681E-1,-3.5670814E-1,-9.376943E-3,2.251142E0,2.763821E0,1.509492E0,7.384758E-1,1.306504E0,2.7681143E0,-1.1617348E0,-2.4093747E0,-7.3834646E-1,1.4131678E0,-1.0986232E-2,-7.2183E-3,-8.886359E-3,-6.430709E-3,-6.2417034E-3,-3.807526E-3,1.5595427E-2,-0E0,-1.455391E-3,1.2681095E-2,-3.5510033E-3,7.5043654E-3,5.4876897E-3,-4.9562627E-3,-2.506165E-3,7.115588E-3,-5.275467E-3,-2.0886762E-3,2.261809E-2,6.511623E-3,3.8535197E-3,7.2870995E-3,4.9094614E-3,-2.3181809E-3,7.319669E-3,4.3697455E-3,4.578766E-3,1.1373863E-2,6.069842E-3,-1.2548384E-2],"split_indices":[2,7,2,30,50,29,85,30,52,48,39,81,73,27,39,9,34,30,5,44,0,44,59,28,30,85,52,28,66,26,78,0,0,0,0,0,0,0,0,0,0,0,0,0,0,0,0,0,0,0,0,0,0,0,0,0,0,0,0,0,0],"split_type":[0,0,0,0,0,0,0,0,0,0,0,0,0,0,0,0,0,0,0,0,0,0,0,0,0,0,0,0,0,0,0,0,0,0,0,0,0,0,0,0,0,0,0,0,0,0,0,0,0,0,0,0,0,0,0,0,0,0,0,0,0],"sum_hessian":[2.894251E4,1.0128052E4,1.8814457E4,9.45236E3,6.756911E2,4.8431475E3,1.3971311E4,6.696857E3,2.7555037E3,2.2590123E2,4.497899E2,2.795717E3,2.0474303E3,1.0564338E4,3.4069727E3,2.4143284E3,4.2825283E3,2.6683562E3,8.714752E1,2.1305583E2,1.2845406E1,1.3794562E2,3.1184427E2,2.6840256E2,2.5273145E3,3.458619E1,2.0128441E3,5.4388904E2,1.0020448E4,1.5625814E3,1.8443912E3,2.1561128E3,2.5821555E2,3.0979824E3,1.184546E3,1.6433754E3,1.0249808E3,3.2108322E1,5.5039204E1,2.0841549E1,1.9221428E2,1.2216316E2,1.5782453E1,2.7272705E2,3.9117218E1,5.6096066E1,2.1230647E2,1.7438518E3,7.834626E2,1.9155226E1,1.5430964E1,1.5503204E3,4.6252365E2,1.3141785E2,4.124712E2,1.0936757E3,8.926772E3,3.3172964E2,1.2308518E3,1.823399E3,2.0992256E1],"tree_param":{"num_deleted":"0","num_feature":"86","num_nodes":"61","size_leaf_vector":"1"}},{"base_weights":[3.8097294E-3,-2.2933486E-1,1.2625353E-1,-2.576723E-1,2.2331735E-1,2.0804059E-2,1.7126411E-1,-2.95649E-1,-1.972304E-1,-2.2725692E-2,2.6818678E-1,-6.1421998E-2,1.5647238E-1,2.938328E-1,1.5205562E-1,-3.3373958E-1,-2.569744E-1,-2.1306755E-1,8.274482E-2,-2.4542254E-1,1.0270987E-1,-1.3102727E-2,2.8858462E-1,1.7499872E-1,-9.996251E-2,1.1842105E-1,2.3903635E-1,2.314843E-1,4.161433E-1,1.2573664E-1,1.9379431E-1,-1.0264501E-2,-7.988652E-3,-8.162834E-3,-5.2556014E-3,-6.9022197E-3,-4.0790993E-3,1.444541E-2,-5.5698474E-4,-3.4901648E-4,-1.0341076E-2,-7.609499E-3,7.7840514E-3,7.014892E-3,1.8663831E-2,1.2711987E-3,8.775362E-3,-3.458724E-3,4.1061793E-3,7.853944E-3,2.446921E-3,1.07909255E-2,4.3987143E-3,7.47201E-3,-7.640643E-3,1.377018E-2,7.041693E-5,6.1811293E-3,3.2238562E-3,2.0006697E-3,6.354422E-3],"categories":[],"categories_nodes":[],"categories_segments":[],"categories_sizes":[],"default_left":[0,0,0,0,0,0,0,0,0,0,0,0,0,0,0,0,0,0,0,0,0,0,0,0,0,0,0,0,0,0,0,0,0,0,0,0,0,0,0,0,0,0,0,0,0,0,0,0,0,0,0,0,0,0,0,0,0,0,0,0,0],"id":8,"left_children":[1,3,5,7,9,11,13,15,17,19,21,23,25,27,29,31,33,35,37,39,41,-1,43,45,47,49,51,53,55,57,59,-1,-1,-1,-1,-1,-1,-1,-1,-1,-1,-1,-1,-1,-1,-1,-1,-1,-1,-1,-1,-1,-1,-1,-1,-1,-1,-1,-1,-1,-1],"loss_changes":[8.150973E2,1.262431E2,8.868063E1,2.0632385E1,6.640257E0,6.2705967E1,3.0347137E1,7.589081E0,1.607071E1,2.6395268E0,7.1866913E0,3.1763239E1,6.2541275E0,1.2641922E1,1.2101227E1,8.184204E-1,2.9628906E0,4.0279694E0,8.160963E0,4.4842005E-1,3.185298E0,0E0,7.643097E0,7.219784E0,1.0922695E1,7.356474E0,6.740299E0,1.0216213E1,9.983459E0,9.887985E0,9.705261E0,0E0,0E0,0E0,0E0,0E0,0E0,0E0,0E0,0E0,0E0,0E0,0E0,0E0,0E0,0E0,0E0,0E0,0E0,0E0,0E0,0E0,0E0,0E0,0E0,0E0,0E0,0E0,0E0,0E0,0E0],"parents":[2147483647,0,0,1,1,2,2,3,3,4,4,5,5,6,6,7,7,8,8,9,9,10,10,11,11,12,12,13,13,14,14,15,15,16,16,17,17,18,18,19,19,20,20,22,22,23,23,24,24,25,25,26,26,27,27,28,28,29,29,30,30],"right_children":[2,4,6,8,10,12,14,16,18,20,22,24,26,28,30,32,34,36,38,40,42,-1,44,46,48,50,52,54,56,58,60,-1,-1,-1,-1,-1,-1,-1,-1,-1,-1,-1,-1,-1,-1,-1,-1,-1,-1,-1,-1,-1,-1,-1,-1,-1,-1,-1,-1,-1,-1],"split_conditions":[3.7968186E-1,2.1276052E0,1.5119826E0,-6.815199E-2,-2.3697986E-1,1.4721825E0,-3.2195716E0,7.418236E-1,1.9320227E0,7.7221173E-1,4.1650447E-1,-1.9980236E0,2.5075219E0,1.2365698E-1,1.7038634E0,7.012655E-1,7.4428755E-1,6.3148874E-1,-2.3469315E0,1.0980822E0,1.1960832E0,-1.3102727E-2,-3.3406556E-1,-3.8416708E-1,1.6360381E0,-3.0279565E-1,2.3111643E-1,2.707449E-2,2.0349815E0,-1.3758204E0,-5.174709E-1,-1.0264501E-2,-7.988652E-3,-8.162834E-3,-5.2556014E-3,-6.9022197E-3,-4.0790993E-3,1.444541E-2,-5.5698474E-4,-3.4901648E-4,-1.0341076E-2,-7.609499E-3,7.7840514E-3,7.014892E-3,1.8663831E-2,1.2711987E-3,8.775362E-3,-3.458724E-3,4.1061793E-3,7.853944E-3,2.446921E-3,1.07909255E-2,4.3987143E-3,7.47201E-3,-7.640643E-3,1.377018E-2,7.041693E-5,6.1811293E-3,3.2238562E-3,2.0006697E-3,6.354422E-3],"split_indices":[2,38,2,27,44,8,1,85,52,81,37,81,52,73,35,80,9,4,59,35,42,0,22,55,38,34,59,73,52,19,44,0,0,0,0,0,0,0,0,0,0,0,0,0,0,0,0,0,0,0,0,0,0,0,0,0,0,0,0,0,0],"split_type":[0,0,0,0,0,0,0,0,0,0,0,0,0,0,0,0,0,0,0,0,0,0,0,0,0,0,0,0,0,0,0,0,0,0,0,0,0,0,0,0,0,0,0,0,0,0,0,0,0,0,0,0,0,0,0,0,0,0,0,0,0],"sum_hessian":[2.8552287E4,9.828321E3,1.8723967E4,9.252177E3,5.761446E2,5.608852E3,1.3115114E4,5.6671074E3,3.5850693E3,8.557752E1,4.9056708E2,3.4883508E3,2.1205012E3,1.7659556E3,1.1349159E4,2.834397E3,2.8327107E3,3.3969653E3,1.8810396E2,3.3017582E1,5.255994E1,1.1268861E1,4.7929822E2,4.8432245E2,3.0040283E3,1.4631555E3,6.573456E2,1.1789431E3,5.8701245E2,6.979873E3,4.369286E3,2.4997356E3,3.3466132E2,2.3764897E3,4.562209E2,2.769189E3,6.2777655E2,3.858702E1,1.4951694E2,1.3510167E1,1.9507416E1,1.3730624E1,3.882932E1,4.1720886E2,6.208934E1,2.3280728E2,2.5151518E2,2.8263518E3,1.7767654E2,2.9116382E2,1.1719917E3,2.7789636E2,3.7944922E2,1.1407206E3,3.822252E1,5.2952673E2,5.7485744E1,1.2800299E3,5.6998433E3,5.505793E2,3.8187068E3],"tree_param":{"num_deleted":"0","num_feature":"86","num_nodes":"61","size_leaf_vector":"1"}},{"base_weights":[8.74197E-6,-2.1965389E-1,8.788149E-2,-2.5712606E-1,1.8021889E-2,-2.266661E-2,1.3137038E-1,-2.7360463E-1,-1.0754671E-1,-4.8294205E-2,1.872087E-1,-1.1202681E-1,1.6056149E-1,2.5048375E-1,1.1006324E-1,-7.993513E-2,-2.861668E-1,-1.4030492E-1,8.5592E-2,2.4964182E-1,-1.0632894E-1,2.3385029E-1,-1.682718E-1,1.1957708E-1,-1.6155112E-1,1.8318056E-1,-1.7138442E-3,1.514193E-1,3.1101766E-1,6.877674E-2,1.843694E-1,1.2690809E-2,-3.1421091E-3,-8.666828E-3,8.923774E-3,-3.6016136E-4,-4.8885033E-3,9.58385E-3,-7.5946574E-4,1.1755738E-3,1.4978677E-2,-4.945998E-3,1.8895004E-3,-6.841472E-4,8.656648E-3,-1.0576995E-2,4.376744E-3,4.7661886E-3,-4.8215226E-3,-5.6377E-3,1.3377622E-3,-0E0,6.348113E-3,2.5593424E-3,-8.218465E-3,5.3153276E-3,-7.7668494E-3,8.376685E-3,1.467281E-2,-5.4675003E-4,3.1965608E-3,4.270346E-3,7.193005E-3],"categories":[],"categories_nodes":[],"categories_segments":[],"categories_sizes":[],"default_left":[0,0,0,0,0,0,0,0,0,0,0,0,0,0,0,0,0,0,0,0,0,0,0,0,0,0,0,0,0,0,0,0,0,0,0,0,0,0,0,0,0,0,0,0,0,0,0,0,0,0,0,0,0,0,0,0,0,0,0,0,0,0,0],"id":9,"left_children":[1,3,5,7,9,11,13,15,17,19,21,23,25,27,29,31,33,35,37,39,41,43,45,47,49,51,53,55,57,59,61,-1,-1,-1,-1,-1,-1,-1,-1,-1,-1,-1,-1,-1,-1,-1,-1,-1,-1,-1,-1,-1,-1,-1,-1,-1,-1,-1,-1,-1,-1,-1,-1],"loss_changes":[5.3922125E2,7.1326965E1,9.6082184E1,1.6561646E1,1.23319435E1,9.218408E1,3.59601E1,1.4686401E1,4.468299E0,1.3343008E1,5.2878103E0,4.3550014E1,6.947174E0,1.2433075E1,3.7052612E1,4.58094E0,9.431427E0,1.559618E0,2.8373382E0,5.960935E0,6.6090856E0,4.1759653E0,2.3162267E0,7.376219E0,1.715776E1,8.585381E0,5.4959664E0,8.800776E0,6.524933E0,2.5839134E1,9.645035E0,0E0,0E0,0E0,0E0,0E0,0E0,0E0,0E0,0E0,0E0,0E0,0E0,0E0,0E0,0E0,0E0,0E0,0E0,0E0,0E0,0E0,0E0,0E0,0E0,0E0,0E0,0E0,0E0,0E0,0E0,0E0,0E0],"parents":[2147483647,0,0,1,1,2,2,3,3,4,4,5,5,6,6,7,7,8,8,9,9,10,10,11,11,12,12,13,13,14,14,15,15,16,16,17,17,18,18,19,19,20,20,21,21,22,22,23,23,24,24,25,25,26,26,27,27,28,28,29,29,30,30],"right_children":[2,4,6,8,10,12,14,16,18,20,22,24,26,28,30,32,34,36,38,40,42,44,46,48,50,52,54,56,58,60,62,-1,-1,-1,-1,-1,-1,-1,-1,-1,-1,-1,-1,-1,-1,-1,-1,-1,-1,-1,-1,-1,-1,-1,-1,-1,-1,-1,-1,-1,-1,-1,-1],"split_conditions":[-1.0113114E-2,1.2075111E0,-5.0496854E-2,1.0202208E0,1.5266687E0,1.4602712E0,-2.6508188E0,-1.365768E0,2.092517E0,-2.3724744E0,2.2104409E0,-1.5305284E0,1.8097469E0,-4.2076933E-1,2.4684985E0,-3.2531135E0,2.0195024E0,7.501964E-2,-1.4345978E0,2.3682967E-1,1.0370027E-2,1.7331437E0,3.8412979E0,-6.594949E-1,1.2769016E0,7.4340975E-1,2.0504901E-1,2.32759E0,1.4498317E0,6.441385E-1,3.2559733E0,1.2690809E-2,-3.1421091E-3,-8.666828E-3,8.923774E-3,-3.6016136E-4,-4.8885033E-3,9.58385E-3,-7.5946574E-4,1.1755738E-3,1.4978677E-2,-4.945998E-3,1.8895004E-3,-6.841472E-4,8.656648E-3,-1.0576995E-2,4.376744E-3,4.7661886E-3,-4.8215226E-3,-5.6377E-3,1.3377622E-3,-0E0,6.348113E-3,2.5593424E-3,-8.218465E-3,5.3153276E-3,-7.7668494E-3,8.376685E-3,1.467281E-2,-5.4675003E-4,3.1965608E-3,4.270346E-3,7.193005E-3],"split_indices":[27,49,34,9,38,29,0,1,9,1,29,4,20,64,4,80,38,72,28,63,83,49,1,81,9,38,48,6,73,27,29,0,0,0,0,0,0,0,0,0,0,0,0,0,0,0,0,0,0,0,0,0,0,0,0,0,0,0,0,0,0,0,0],"split_type":[0,0,0,0,0,0,0,0,0,0,0,0,0,0,0,0,0,0,0,0,0,0,0,0,0,0,0,0,0,0,0,0,0,0,0,0,0,0,0,0,0,0,0,0,0,0,0,0,0,0,0,0,0,0,0,0,0,0,0,0,0,0,0],"sum_hessian":[2.7938336E4,7.9787725E3,1.9959564E4,6.895643E3,1.0831298E3,5.628914E3,1.4330649E4,6.203846E3,6.9179663E2,7.7490784E2,3.082219E2,3.7878281E3,1.8410859E3,2.1641204E3,1.2166529E4,3.836396E2,5.8202065E3,5.96371E2,9.5425644E1,1.22449265E2,6.5245856E2,2.755634E2,3.2658478E1,6.6321857E2,3.1246096E3,1.621039E3,2.20047E2,8.2974915E2,1.3343712E3,7.8321084E3,4.334421E3,1.4624942E1,3.6901465E2,5.7958438E3,2.4362856E1,9.6553406E1,4.9981757E2,3.238704E1,6.30386E1,6.986866E1,5.258061E1,4.8926123E2,1.6319736E2,4.540856E1,2.3015485E2,2.2435768E1,1.0222711E1,5.8556006E2,7.765851E1,2.7746694E3,3.4994006E2,2.1499852E2,1.4060404E3,1.6500111E2,5.5045883E1,7.840993E2,4.5649864E1,1.1413406E3,1.9303064E2,2.3634097E3,5.4686987E3,2.479023E3,1.855398E3],"tree_param":{"num_deleted":"0","num_feature":"86","num_nodes":"63","size_leaf_vector":"1"}},{"base_weights":[2.4476296E-3,-2.2634745E-1,1.2319382E-1,-2.5499406E-1,1.6064632E-1,5.4677345E-2,1.941741E-1,-2.8919077E-1,-1.4990066E-1,2.218575E-1,-0E0,-2.6111998E-2,1.4654247E-1,2.6393688E-1,1.6502118E-1,-3.4040448E-1,-2.587632E-1,-1.7093585E-1,1.3147447E-1,3.90376E-1,1.485843E-1,-9.179857E-2,2.7977815E-1,1.1613044E-1,-9.486273E-2,1.20496385E-1,2.3475936E-1,4.9535874E-2,2.8159612E-1,1.7931205E-1,8.926879E-2,-1.0562729E-2,-7.20779E-3,-8.156954E-3,-4.904978E-3,-5.292402E-3,-0E0,1.2148316E-2,-5.1352446E-4,9.88867E-4,1.4788059E-2,-3.7958643E-3,5.7087475E-3,4.1593313E-3,-6.998241E-3,1.433309E-2,2.5121224E-4,-1.1022773E-3,4.424091E-3,-4.573757E-3,4.68045E-5,5.7238387E-3,2.7376649E-3,-1.5376518E-2,7.419745E-3,5.4149446E-3,-7.534609E-3,9.233768E-3,4.346437E-3,-4.0478944E-3,5.561483E-3,1.7462333E-3,1.0431309E-2],"categories":[],"categories_nodes":[],"categories_segments":[],"categories_sizes":[],"default_left":[0,0,0,0,0,0,0,0,0,0,0,0,0,0,0,0,0,0,0,0,0,0,0,0,0,0,0,0,0,0,0,0,0,0,0,0,0,0,0,0,0,0,0,0,0,0,0,0,0,0,0,0,0,0,0,0,0,0,0,0,0,0,0],"id":10,"left_children":[1,3,5,7,9,11,13,15,17,19,21,23,25,27,29,31,33,35,37,39,41,43,45,47,49,51,53,55,57,59,61,-1,-1,-1,-1,-1,-1,-1,-1,-1,-1,-1,-1,-1,-1,-1,-1,-1,-1,-1,-1,-1,-1,-1,-1,-1,-1,-1,-1,-1,-1,-1,-1],"loss_changes":[7.649138E2,1.0619287E2,8.789566E1,3.1485107E1,6.2491436E0,6.86633E1,1.7577148E1,9.682556E0,1.3094444E1,5.1722584E0,5.0666246E0,4.8010166E1,9.530579E0,9.517227E0,6.5085297E0,2.143982E0,4.7693176E0,1.863411E0,6.5262384E0,4.4872227E0,3.970395E0,4.736244E0,2.171908E0,7.7670383E0,1.8564077E1,6.576744E0,9.148525E0,8.102077E0,8.072418E0,1.0170059E1,7.6882095E0,0E0,0E0,0E0,0E0,0E0,0E0,0E0,0E0,0E0,0E0,0E0,0E0,0E0,0E0,0E0,0E0,0E0,0E0,0E0,0E0,0E0,0E0,0E0,0E0,0E0,0E0,0E0,0E0,0E0,0E0,0E0,0E0],"parents":[2147483647,0,0,1,1,2,2,3,3,4,4,5,5,6,6,7,7,8,8,9,9,10,10,11,11,12,12,13,13,14,14,15,15,16,16,17,17,18,18,19,19,20,20,21,21,22,22,23,23,24,24,25,25,26,26,27,27,28,28,29,29,30,30],"right_children":[2,4,6,8,10,12,14,16,18,20,22,24,26,28,30,32,34,36,38,40,42,44,46,48,50,52,54,56,58,60,62,-1,-1,-1,-1,-1,-1,-1,-1,-1,-1,-1,-1,-1,-1,-1,-1,-1,-1,-1,-1,-1,-1,-1,-1,-1,-1,-1,-1,-1,-1,-1,-1],"split_conditions":[3.7968186E-1,2.1276052E0,2.2269287E0,3.2522085E-1,3.581968E-1,1.5047946E0,-1.5881882E0,-6.4613384E-1,1.9340163E0,-6.5040195E-1,2.219606E0,-1.4378974E0,3.053548E0,-1.9873451E0,-2.4748047E-1,7.88089E-1,8.016784E-1,1.0419334E0,-1.1945416E0,-5.938263E-1,-4.6054676E-1,1.0504597E-1,1.8892491E0,-1.3229747E0,1.3610088E0,-3.8585538E-1,3.8541704E-1,-2.1977615E0,1.1376106E-3,-5.458067E-3,4.5188684E0,-1.0562729E-2,-7.20779E-3,-8.156954E-3,-4.904978E-3,-5.292402E-3,-0E0,1.2148316E-2,-5.1352446E-4,9.88867E-4,1.4788059E-2,-3.7958643E-3,5.7087475E-3,4.1593313E-3,-6.998241E-3,1.433309E-2,2.5121224E-4,-1.1022773E-3,4.424091E-3,-4.573757E-3,4.68045E-5,5.7238387E-3,2.7376649E-3,-1.5376518E-2,7.419745E-3,5.4149446E-3,-7.534609E-3,9.233768E-3,4.346437E-3,-4.0478944E-3,5.561483E-3,1.7462333E-3,1.0431309E-2],"split_indices":[2,38,85,30,0,29,4,30,55,50,73,4,4,14,65,9,4,73,18,3,55,59,9,50,2,73,14,42,66,82,27,0,0,0,0,0,0,0,0,0,0,0,0,0,0,0,0,0,0,0,0,0,0,0,0,0,0,0,0,0,0,0,0],"split_type":[0,0,0,0,0,0,0,0,0,0,0,0,0,0,0,0,0,0,0,0,0,0,0,0,0,0,0,0,0,0,0,0,0,0,0,0,0,0,0,0,0,0,0,0,0,0,0,0,0,0,0,0,0,0,0,0,0,0,0,0,0,0,0],"sum_hessian":[2.7687764E4,9.561048E3,1.8126717E4,8.905126E3,6.5592224E2,9.232405E3,8.894311E3,6.709032E3,2.1960933E3,4.699209E2,1.8600136E2,4.9073022E3,4.325103E3,2.606517E3,6.2877935E3,2.4806042E3,4.228428E3,2.0473737E3,1.4871968E2,1.3564735E2,3.3427356E2,1.3838724E2,4.761411E1,1.5938235E3,3.3134788E3,3.3516064E3,9.734967E2,2.0323804E2,2.403279E3,5.2764453E3,1.0113483E3,2.2079304E3,2.7267374E2,3.7035632E3,5.248649E2,1.9819604E3,6.541326E1,5.3513176E1,9.520651E1,3.3008327E1,1.0263902E2,4.031305E1,2.939605E2,4.9968273E1,8.841897E1,2.4520767E1,2.3093342E1,2.6566327E2,1.3281602E3,2.0801567E3,1.2333218E3,9.7128455E2,2.380322E3,1.34660015E1,9.600307E2,1.444496E2,5.8788437E1,2.0085922E3,3.94687E2,9.60754E1,5.1803696E3,9.084815E2,1.028668E2],"tree_param":{"num_deleted":"0","num_feature":"86","num_nodes":"63","size_leaf_vector":"1"}},{"base_weights":[7.4469316E-4,-1.8125156E-1,1.11606315E-1,-2.5613758E-1,4.9056295E-2,4.5303326E-2,1.7261456E-1,-2.708963E-1,-1.4354489E-2,-9.313811E-2,9.4188824E-2,-5.9184037E-2,1.404519E-1,3.0804476E-1,1.4997162E-1,-3.2001466E-1,-2.3068866E-1,-6.176283E-2,2.2889732E-1,-1.4358972E-1,1.8083243E-1,-4.2110994E-2,1.2361933E-1,-1.0837021E-1,5.9959345E-2,2.7899647E-1,1.21182255E-1,-1.22524835E-2,3.1644773E-1,1.24391444E-1,2.2627516E-1,-9.950453E-3,-6.4620436E-3,3.1965391E-3,-7.038207E-3,-2.7438719E-3,8.657432E-3,1.31007945E-2,8.794805E-4,6.3420255E-3,-5.243016E-3,2.8752355E-4,1.2305672E-2,-7.944365E-3,9.2313613E-4,8.837585E-3,2.8769586E-3,1.7747413E-3,-4.3927142E-3,7.683179E-4,6.369335E-3,-9.422556E-3,9.284633E-3,6.4731175E-3,3.0332834E-3,8.325315E-3,1.3771521E-2,2.93E-3,5.2895737E-3,4.265201E-3,8.0009885E-3],"categories":[],"categories_nodes":[],"categories_segments":[],"categories_sizes":[],"default_left":[0,0,0,0,0,0,0,0,0,0,0,0,0,0,0,0,0,0,0,0,0,0,0,0,0,0,0,0,0,0,0,0,0,0,0,0,0,0,0,0,0,0,0,0,0,0,0,0,0,0,0,0,0,0,0,0,0,0,0,0,0],"id":11,"left_children":[1,3,5,7,9,11,13,15,17,19,21,23,25,27,29,31,33,35,37,39,41,43,45,47,49,51,53,-1,55,57,59,-1,-1,-1,-1,-1,-1,-1,-1,-1,-1,-1,-1,-1,-1,-1,-1,-1,-1,-1,-1,-1,-1,-1,-1,-1,-1,-1,-1,-1,-1],"loss_changes":[5.4903876E2,1.7785727E2,6.819368E1,2.7453156E1,1.6226141E1,8.079556E1,2.6439423E1,1.3766418E1,5.089023E0,8.365136E0,7.8072166E0,2.2711332E1,1.0888992E1,7.707176E0,1.4331268E1,3.3138733E0,5.524063E0,3.85543E0,2.4498148E0,5.7302475E0,3.1761222E0,5.720311E0,7.0807056E0,1.7587036E1,5.636956E0,9.440586E0,6.748806E0,0E0,5.8966446E0,7.559204E0,5.918968E0,0E0,0E0,0E0,0E0,0E0,0E0,0E0,0E0,0E0,0E0,0E0,0E0,0E0,0E0,0E0,0E0,0E0,0E0,0E0,0E0,0E0,0E0,0E0,0E0,0E0,0E0,0E0,0E0,0E0,0E0],"parents":[2147483647,0,0,1,1,2,2,3,3,4,4,5,5,6,6,7,7,8,8,9,9,10,10,11,11,12,12,13,13,14,14,15,15,16,16,17,17,18,18,19,19,20,20,21,21,22,22,23,23,24,24,25,25,26,26,28,28,29,29,30,30],"right_children":[2,4,6,8,10,12,14,16,18,20,22,24,26,28,30,32,34,36,38,40,42,44,46,48,50,52,54,-1,56,58,60,-1,-1,-1,-1,-1,-1,-1,-1,-1,-1,-1,-1,-1,-1,-1,-1,-1,-1,-1,-1,-1,-1,-1,-1,-1,-1,-1,-1,-1,-1],"split_conditions":[3.2522085E-1,1.1160972E0,1.4079729E0,1.4321853E0,-2.778363E-1,5.4345584E-1,-2.9378386E0,-4.6688178E-1,1.8086315E0,2.2252975E0,-5.3746134E-1,1.3057525E0,-2.746376E0,-2.2099102E0,1.5254478E0,8.034261E-1,-3.1581347E0,2.5425415E0,-3.293437E-1,-2.244217E0,1.3065658E0,7.293431E-3,-2.1651752E0,-1.5054678E0,2.7178333E0,-1.7567347E0,6.5395148E-3,-1.22524835E-2,3.2677705E0,1.2653419E0,1.7038634E0,-9.950453E-3,-6.4620436E-3,3.1965391E-3,-7.038207E-3,-2.7438719E-3,8.657432E-3,1.31007945E-2,8.794805E-4,6.3420255E-3,-5.243016E-3,2.8752355E-4,1.2305672E-2,-7.944365E-3,9.2313613E-4,8.837585E-3,2.8769586E-3,1.7747413E-3,-4.3927142E-3,7.683179E-4,6.369335E-3,-9.422556E-3,9.284633E-3,6.4731175E-3,3.0332834E-3,8.325315E-3,1.3771521E-2,2.93E-3,5.2895737E-3,4.265201E-3,8.0009885E-3],"split_indices":[30,49,30,4,27,49,45,30,45,9,17,29,9,14,34,9,3,53,51,9,32,84,3,3,11,37,84,0,25,51,35,0,0,0,0,0,0,0,0,0,0,0,0,0,0,0,0,0,0,0,0,0,0,0,0,0,0,0,0,0,0],"split_type":[0,0,0,0,0,0,0,0,0,0,0,0,0,0,0,0,0,0,0,0,0,0,0,0,0,0,0,0,0,0,0,0,0,0,0,0,0,0,0,0,0,0,0,0,0,0,0,0,0,0,0,0,0,0,0,0,0,0,0,0,0],"sum_hessian":[2.7211375E4,1.0296996E4,1.6914379E4,7.77351E3,2.5234866E3,8.1149883E3,8.799391E3,7.322179E3,4.513306E2,6.021308E2,1.9213557E3,3.8630393E3,4.251949E3,1.250518E3,7.5488726E3,3.278416E3,4.0437632E3,3.8240524E2,6.892536E1,5.123783E2,8.975251E1,3.3500876E2,1.586347E3,2.7403218E3,1.1227177E3,5.095489E2,3.7424001E3,1.201335E1,1.2385046E3,5.667315E3,1.8815576E3,2.9369668E3,3.4144904E2,4.2910217E1,4.000853E3,3.5651477E2,2.5890474E1,3.0148945E1,3.877642E1,3.7844193E1,4.7453412E2,5.5074745E1,3.4677765E1,8.468783E1,2.5032092E2,2.1360638E2,1.3727406E3,5.0216937E2,2.2381523E3,9.234252E2,1.9929247E2,2.2402561E1,4.8714633E2,6.4301715E2,3.099383E3,9.8300354E2,2.5550104E2,3.758175E3,1.9091401E3,6.217657E2,1.2597919E3],"tree_param":{"num_deleted":"0","num_feature":"86","num_nodes":"61","size_leaf_vector":"1"}},{"base_weights":[-1.5984555E-3,-2.1047018E-1,1.18205406E-1,-2.4569441E-1,1.9145983E-1,3.560628E-2,1.6395642E-1,-2.8369772E-1,-1.5838592E-1,4.2233917E-1,1.594517E-1,-5.213503E-2,1.2756465E-1,2.5981537E-1,1.4475243E-1,-3.3461383E-1,-2.562809E-1,-1.7272006E-1,2.6234437E-2,5.099875E-1,-0E0,9.404979E-2,2.7444226E-1,1.1200305E-1,-1.0923652E-1,9.685883E-2,2.2886984E-1,-0E0,2.8737298E-1,2.061958E-1,1.16374396E-1,-1.0739639E-2,-8.561972E-3,-8.407386E-3,-5.916974E-3,-6.175816E-3,-4.2313975E-3,7.756596E-3,-1.5597201E-3,6.932472E-4,1.7504295E-2,-0E0,5.733091E-3,9.704453E-3,-2.9323956E-3,2.523738E-3,8.95945E-3,-4.2004567E-3,-1.8930506E-4,4.9260873E-3,1.5492479E-3,1.3773321E-2,5.086811E-3,-4.7265925E-3,7.522711E-3,-8.977676E-3,8.813009E-3,4.8527652E-3,7.9051955E-3,2.8217745E-3,5.772277E-3],"categories":[],"categories_nodes":[],"categories_segments":[],"categories_sizes":[],"default_left":[0,0,0,0,0,0,0,0,0,0,0,0,0,0,0,0,0,0,0,0,0,0,0,0,0,0,0,0,0,0,0,0,0,0,0,0,0,0,0,0,0,0,0,0,0,0,0,0,0,0,0,0,0,0,0,0,0,0,0,0,0],"id":12,"left_children":[1,3,5,7,9,11,13,15,17,19,21,23,25,27,29,31,33,35,37,39,-1,41,43,45,47,49,51,53,55,57,59,-1,-1,-1,-1,-1,-1,-1,-1,-1,-1,-1,-1,-1,-1,-1,-1,-1,-1,-1,-1,-1,-1,-1,-1,-1,-1,-1,-1,-1,-1],"loss_changes":[6.7600836E2,1.3958325E2,6.4645386E1,2.952362E1,5.1394367E0,4.9532505E1,1.9836884E1,8.03302E0,7.4585342E0,3.0178795E0,4.866455E0,2.937403E1,8.956387E0,1.329155E1,1.5684311E1,1.6669312E0,5.2376404E0,2.2885742E0,3.786904E0,2.0259972E0,0E0,4.3175073E0,4.8203697E0,3.7544708E0,7.2299614E0,6.807127E0,8.6153145E0,6.9468184E0,6.387192E0,6.8630676E0,1.0391098E1,0E0,0E0,0E0,0E0,0E0,0E0,0E0,0E0,0E0,0E0,0E0,0E0,0E0,0E0,0E0,0E0,0E0,0E0,0E0,0E0,0E0,0E0,0E0,0E0,0E0,0E0,0E0,0E0,0E0,0E0],"parents":[2147483647,0,0,1,1,2,2,3,3,4,4,5,5,6,6,7,7,8,8,9,9,10,10,11,11,12,12,13,13,14,14,15,15,16,16,17,17,18,18,19,19,21,21,22,22,23,23,24,24,25,25,26,26,27,27,28,28,29,29,30,30],"right_children":[2,4,6,8,10,12,14,16,18,20,22,24,26,28,30,32,34,36,38,40,-1,42,44,46,48,50,52,54,56,58,60,-1,-1,-1,-1,-1,-1,-1,-1,-1,-1,-1,-1,-1,-1,-1,-1,-1,-1,-1,-1,-1,-1,-1,-1,-1,-1,-1,-1,-1,-1],"split_conditions":[4.932348E-1,2.1276052E0,1.7733498E0,2.070711E-1,8.8003117E-1,1.5047946E0,-2.6614523E0,-6.960343E-1,1.839742E0,6.903054E-1,1.895167E0,-1.6495024E0,3.053548E0,-1.7567347E0,-1.120716E0,7.623294E-1,6.188082E-2,6.852945E-1,-9.934759E-1,6.3185333E-3,-0E0,1.337151E0,2.0487478E0,8.650749E-1,1.4087884E0,-9.609077E-2,4.6327534E-1,-3.9516768E-1,-3.2614694E0,1.1664218E0,1.315704E0,-1.0739639E-2,-8.561972E-3,-8.407386E-3,-5.916974E-3,-6.175816E-3,-4.2313975E-3,7.756596E-3,-1.5597201E-3,6.932472E-4,1.7504295E-2,-0E0,5.733091E-3,9.704453E-3,-2.9323956E-3,2.523738E-3,8.95945E-3,-4.2004567E-3,-1.8930506E-4,4.9260873E-3,1.5492479E-3,1.3773321E-2,5.086811E-3,-4.7265925E-3,7.522711E-3,-8.977676E-3,8.813009E-3,4.8527652E-3,7.9051955E-3,2.8217745E-3,5.772277E-3],"split_indices":[2,38,2,30,21,29,4,30,52,78,43,4,4,37,19,85,34,30,5,84,0,17,75,55,2,48,34,64,19,52,71,0,0,0,0,0,0,0,0,0,0,0,0,0,0,0,0,0,0,0,0,0,0,0,0,0,0,0,0,0,0],"split_type":[0,0,0,0,0,0,0,0,0,0,0,0,0,0,0,0,0,0,0,0,0,0,0,0,0,0,0,0,0,0,0,0,0,0,0,0,0,0,0,0,0,0,0,0,0,0,0,0,0,0,0,0,0,0,0,0,0,0,0,0,0],"sum_hessian":[2.7007113E4,9.846716E3,1.7160398E4,9.056307E3,7.9040857E2,6.125964E3,1.1034434E4,6.298687E3,2.7576199E3,8.9463554E1,7.00945E2,3.12974E3,2.9962236E3,1.8287722E3,9.205661E3,2.1839546E3,4.1147324E3,2.5640867E3,1.9353322E2,7.232994E1,1.7133612E1,4.546761E2,2.4626895E2,8.0276337E2,2.3269766E3,2.309878E3,6.8634576E2,1.7334094E2,1.6554314E3,2.8933303E3,6.312331E3,1.4584219E3,7.255327E2,2.9094717E3,1.2052607E3,1.2322216E3,1.3318651E3,5.0809246E1,1.4272397E2,1.1614954E1,6.0714985E1,2.2784566E2,2.2683043E2,2.2020352E2,2.6065426E1,7.0562604E2,9.7137314E1,1.7832762E3,5.4370044E2,9.169075E2,1.3929705E3,1.3437111E2,5.519746E2,1.084742E2,6.486674E1,1.5174963E1,1.6402563E3,1.6438408E3,1.2494895E3,4.893715E3,1.4186162E3],"tree_param":{"num_deleted":"0","num_feature":"86","num_nodes":"61","size_leaf_vector":"1"}},{"base_weights":[3.4081502E-4,-1.9082943E-1,1.278121E-1,-2.3643038E-1,1.3758077E-1,6.4195834E-2,1.810776E-1,-2.7649227E-1,-1.4697391E-1,-1.7473519E-2,1.8749827E-1,-5.560882E-2,9.75655E-2,2.6292577E-1,1.5326358E-1,-3.046221E-1,-2.277018E-1,-1.7232963E-1,-3.7672766E-3,3.33043E-1,-6.290904E-2,3.201292E-1,1.3391693E-1,-9.9808306E-2,1.5366653E-1,5.8063384E-2,1.355927E-1,2.5083554E-1,5.860781E-1,1.5821593E-1,-9.4774246E-2,-1.0311238E-2,-8.28066E-3,-7.2836257E-3,-3.5315135E-3,-5.852705E-3,-2.8324528E-3,-2.3766654E-3,7.7602994E-3,1.8651063E-2,1.7447746E-3,1.5444428E-3,-4.2819E-3,1.5810233E-2,4.983466E-3,1.616998E-3,7.3139234E-3,1.2861001E-3,-3.5830436E-3,-6.1110947E-3,5.998076E-3,6.0355575E-3,1.0274141E-3,-3.5765562E-3,4.393383E-3,5.9007667E-3,9.506548E-3,2.0295106E-2,-0E0,4.253322E-3,7.033147E-3,-7.0157466E-3,8.4347185E-3],"categories":[],"categories_nodes":[],"categories_segments":[],"categories_sizes":[],"default_left":[0,0,0,0,0,0,0,0,0,0,0,0,0,0,0,0,0,0,0,0,0,0,0,0,0,0,0,0,0,0,0,0,0,0,0,0,0,0,0,0,0,0,0,0,0,0,0,0,0,0,0,0,0,0,0,0,0,0,0,0,0,0,0],"id":13,"left_children":[1,3,5,7,9,11,13,15,17,19,21,23,25,27,29,31,33,35,37,39,41,43,45,47,49,51,53,55,57,59,61,-1,-1,-1,-1,-1,-1,-1,-1,-1,-1,-1,-1,-1,-1,-1,-1,-1,-1,-1,-1,-1,-1,-1,-1,-1,-1,-1,-1,-1,-1,-1,-1],"loss_changes":[6.499255E2,1.5991574E2,5.3967804E1,3.3075867E1,1.0232233E1,2.9260284E1,1.9313385E1,8.197571E0,1.039024E1,4.762116E0,6.480377E0,1.4650311E1,8.385128E0,7.445633E0,8.088547E0,3.7511292E0,3.5378952E0,4.0477753E0,8.688683E0,1.92572E0,2.677157E0,7.9715366E0,5.9397345E0,3.7688484E0,4.5994277E0,9.372337E0,8.084393E0,6.9521027E0,3.9103336E0,7.558899E0,6.6046896E0,0E0,0E0,0E0,0E0,0E0,0E0,0E0,0E0,0E0,0E0,0E0,0E0,0E0,0E0,0E0,0E0,0E0,0E0,0E0,0E0,0E0,0E0,0E0,0E0,0E0,0E0,0E0,0E0,0E0,0E0,0E0,0E0],"parents":[2147483647,0,0,1,1,2,2,3,3,4,4,5,5,6,6,7,7,8,8,9,9,10,10,11,11,12,12,13,13,14,14,15,15,16,16,17,17,18,18,19,19,20,20,21,21,22,22,23,23,24,24,25,25,26,26,27,27,28,28,29,29,30,30],"right_children":[2,4,6,8,10,12,14,16,18,20,22,24,26,28,30,32,34,36,38,40,42,44,46,48,50,52,54,56,58,60,62,-1,-1,-1,-1,-1,-1,-1,-1,-1,-1,-1,-1,-1,-1,-1,-1,-1,-1,-1,-1,-1,-1,-1,-1,-1,-1,-1,-1,-1,-1,-1,-1],"split_conditions":[1.3647804E0,1.7805525E0,2.2269287E0,2.070711E-1,2.1276052E0,3.366508E-1,-8.828055E-1,8.698724E-1,1.594479E0,-2.4282005E0,-4.6331933E-1,2.1082575E0,1.7174442E0,8.581188E-1,2.2249863E0,-6.960343E-1,1.0202208E0,9.113684E-2,1.3099661E0,-1.7154992E0,9.982451E-1,-6.0625476E-1,8.754392E-4,-2.0240667E0,-2.1097475E-1,-2.3724744E0,-2.0091553E0,-3.309297E-1,-2.5992674E-1,1.6845286E0,-4.2222205E-1,-1.0311238E-2,-8.28066E-3,-7.2836257E-3,-3.5315135E-3,-5.852705E-3,-2.8324528E-3,-2.3766654E-3,7.7602994E-3,1.8651063E-2,1.7447746E-3,1.5444428E-3,-4.2819E-3,1.5810233E-2,4.983466E-3,1.616998E-3,7.3139234E-3,1.2861001E-3,-3.5830436E-3,-6.1110947E-3,5.998076E-3,6.0355575E-3,1.0274141E-3,-3.5765562E-3,4.393383E-3,5.9007667E-3,9.506548E-3,2.0295106E-2,-0E0,4.253322E-3,7.033147E-3,-7.0157466E-3,8.4347185E-3],"split_indices":[85,29,85,30,38,30,6,85,30,80,50,21,29,15,74,30,9,34,55,60,57,33,82,3,15,1,60,64,74,60,25,0,0,0,0,0,0,0,0,0,0,0,0,0,0,0,0,0,0,0,0,0,0,0,0,0,0,0,0,0,0,0,0],"split_type":[0,0,0,0,0,0,0,0,0,0,0,0,0,0,0,0,0,0,0,0,0,0,0,0,0,0,0,0,0,0,0,0,0,0,0,0,0,0,0,0,0,0,0,0,0,0,0,0,0,0,0,0,0,0,0,0,0,0,0,0,0,0,0],"sum_hessian":[2.666907E4,1.0665321E4,1.6003749E4,9.368128E3,1.2971935E3,7.303812E3,8.6999375E3,6.459822E3,2.908306E3,3.113479E2,9.858455E2,1.5843473E3,5.719465E3,2.1931892E3,6.506748E3,4.077805E3,2.3820168E3,2.4645505E3,4.4375537E2,3.174889E1,2.7959903E2,2.7543747E2,7.104081E2,1.3128867E3,2.7146048E2,2.8207063E3,2.8987585E3,2.1205012E3,7.268818E1,6.38404E3,1.22707954E2,1.6989569E3,2.3788481E3,2.084584E3,2.974329E2,1.8951063E3,5.6944415E2,3.4870596E2,9.5049385E1,1.2481074E1,1.9267817E1,1.1005811E2,1.6954091E2,1.1270716E2,1.627303E2,4.1805484E2,2.9235324E2,1.5231134E2,1.1605754E3,2.7860113E1,2.4360037E2,3.9430118E2,2.426405E3,1.138451E2,2.7849133E3,1.1779692E3,9.4253186E2,6.2600327E1,1.00878525E1,5.2669746E3,1.1170654E3,9.2063126E1,3.0644835E1],"tree_param":{"num_deleted":"0","num_feature":"86","num_nodes":"63","size_leaf_vector":"1"}},{"base_weights":[3.7530083E-3,-1.8665762E-1,1.2921137E-1,-2.2603552E-1,1.6852415E-1,4.3616593E-2,1.6704883E-1,-2.5525886E-1,-7.28417E-2,1.1054807E-1,2.4739563E-1,-4.0680837E-2,1.04709215E-1,2.746121E-1,1.4934675E-1,-3.0301884E-1,-2.2176503E-1,-1.011387E-1,1.4438061E-1,-7.2706364E-2,1.6561446E-1,-1.0728931E-1,2.8645816E-1,-8.8340305E-2,1.2340849E-1,9.2739336E-2,3.9584893E-1,3.2696515E-1,1.4226809E-1,2.71031E-1,1.4136589E-1,-9.499317E-3,-6.016378E-3,-7.347303E-3,-5.093973E-3,-3.8608399E-3,6.2275195E-4,1.2019752E-2,1.3783786E-3,2.7013342E-3,-1.0711915E-2,5.605356E-3,-1.559371E-2,-1.0378395E-2,2.6599814E-3,-0E0,1.049771E-2,-3.0632801E-3,6.2957243E-3,-7.8684924E-4,7.6428517E-3,2.149552E-3,6.039793E-3,1.4800138E-2,-1.8588039E-3,1.23892175E-2,7.546715E-3,1.3161256E-2,3.281691E-4,-5.851353E-3,8.810015E-3,5.6118597E-3,3.58406E-3],"categories":[],"categories_nodes":[],"categories_segments":[],"categories_sizes":[],"default_left":[0,0,0,0,0,0,0,0,0,0,0,0,0,0,0,0,0,0,0,0,0,0,0,0,0,0,0,0,0,0,0,0,0,0,0,0,0,0,0,0,0,0,0,0,0,0,0,0,0,0,0,0,0,0,0,0,0,0,0,0,0,0,0],"id":14,"left_children":[1,3,5,7,9,11,13,15,17,19,21,23,25,27,29,31,33,35,37,39,41,43,45,47,49,51,53,55,57,59,61,-1,-1,-1,-1,-1,-1,-1,-1,-1,-1,-1,-1,-1,-1,-1,-1,-1,-1,-1,-1,-1,-1,-1,-1,-1,-1,-1,-1,-1,-1,-1,-1],"loss_changes":[6.3200006E2,1.4707083E2,5.1440704E1,4.1988617E1,4.3754387E0,2.5312618E1,2.054129E1,1.2040161E1,9.352891E0,6.3172064E0,6.263218E0,1.6049593E1,9.366718E0,1.0188896E1,8.740753E0,3.900055E0,5.138321E0,4.6596785E0,3.86525E0,6.7716475E0,6.806199E0,2.2846608E0,6.897484E0,6.4945126E0,9.252061E0,5.9779797E0,5.339445E0,6.2938843E0,1.701276E1,6.280361E0,8.58522E0,0E0,0E0,0E0,0E0,0E0,0E0,0E0,0E0,0E0,0E0,0E0,0E0,0E0,0E0,0E0,0E0,0E0,0E0,0E0,0E0,0E0,0E0,0E0,0E0,0E0,0E0,0E0,0E0,0E0,0E0,0E0,0E0],"parents":[2147483647,0,0,1,1,2,2,3,3,4,4,5,5,6,6,7,7,8,8,9,9,10,10,11,11,12,12,13,13,14,14,15,15,16,16,17,17,18,18,19,19,20,20,21,21,22,22,23,23,24,24,25,25,26,26,27,27,28,28,29,29,30,30],"right_children":[2,4,6,8,10,12,14,16,18,20,22,24,26,28,30,32,34,36,38,40,42,44,46,48,50,52,54,56,58,60,62,-1,-1,-1,-1,-1,-1,-1,-1,-1,-1,-1,-1,-1,-1,-1,-1,-1,-1,-1,-1,-1,-1,-1,-1,-1,-1,-1,-1,-1,-1,-1,-1],"split_conditions":[1.3647804E0,2.1276052E0,1.7733498E0,7.9597837E-1,1.4152333E0,8.3664906E-1,-2.0799031E-2,-4.6688178E-1,1.8420405E0,9.5789087E-1,-5.3467625E-1,2.051414E0,3.5380576E0,9.811968E-4,-3.5820963E0,9.2369735E-2,-4.6697214E-2,4.932348E-1,-2.3469315E0,1.510556E0,7.6788336E-1,4.1505858E-1,-1.4111371E-1,3.1664934E0,8.623971E-1,1.9267657E0,1.860411E0,1.2397177E-2,-1.00628E0,-1.3825116E0,-5.0568897E-1,-9.499317E-3,-6.016378E-3,-7.347303E-3,-5.093973E-3,-3.8608399E-3,6.2275195E-4,1.2019752E-2,1.3783786E-3,2.7013342E-3,-1.0711915E-2,5.605356E-3,-1.559371E-2,-1.0378395E-2,2.6599814E-3,-0E0,1.049771E-2,-3.0632801E-3,6.2957243E-3,-7.8684924E-4,7.6428517E-3,2.149552E-3,6.039793E-3,1.4800138E-2,-1.8588039E-3,1.23892175E-2,7.546715E-3,1.3161256E-2,3.281691E-4,-5.851353E-3,8.810015E-3,5.6118597E-3,3.58406E-3],"split_indices":[85,38,2,30,15,30,83,30,55,85,62,49,66,82,45,2,49,2,59,58,2,43,76,52,67,60,53,84,52,18,56,0,0,0,0,0,0,0,0,0,0,0,0,0,0,0,0,0,0,0,0,0,0,0,0,0,0,0,0,0,0,0,0],"split_type":[0,0,0,0,0,0,0,0,0,0,0,0,0,0,0,0,0,0,0,0,0,0,0,0,0,0,0,0,0,0,0,0,0,0,0,0,0,0,0,0,0,0,0,0,0,0,0,0,0,0,0,0,0,0,0,0,0,0,0,0,0,0,0],"sum_hessian":[2.6454516E4,1.0503777E4,1.5950737E4,9.458667E3,1.0451105E3,4.8990312E3,1.1051706E4,7.9367817E3,1.5218853E3,6.1242053E2,4.3268997E2,2.0519663E3,2.8470652E3,1.5497045E3,9.502002E3,3.2527002E3,4.6840815E3,1.351501E3,1.7038425E2,1.3716177E2,4.7525876E2,4.003965E1,3.9265033E2,1.595557E3,4.564093E2,2.7404658E3,1.0659929E2,1.1029133E3,4.467911E2,5.730777E2,8.928924E3,2.8586653E3,3.9403485E2,3.2222544E3,1.4618273E3,1.1089131E3,2.4258794E2,4.2759335E1,1.2762491E2,8.586644E1,5.129533E1,4.6380594E2,1.1452828E1,1.9663494E1,2.0376156E1,7.384256E1,3.1880777E2,1.5295978E3,6.595929E1,2.1054517E2,2.4586415E2,2.3053052E3,4.3516077E2,8.955742E1,1.7041868E1,5.048629E2,5.980504E2,1.3339407E2,3.1339703E2,2.3792091E1,5.4928564E2,2.872891E3,6.0560327E3],"tree_param":{"num_deleted":"0","num_feature":"86","num_nodes":"63","size_leaf_vector":"1"}},{"base_weights":[-1.7899607E-3,-1.8631913E-1,1.14386246E-1,-2.2459531E-1,1.6098051E-1,2.1186593E-1,9.014517E-2,-2.504035E-1,-6.531033E-2,2.5952795E-1,8.9513555E-2,1.6486168E-1,2.9833332E-1,-6.691805E-3,1.1370921E-1,-2.9074946E-1,-2.0613332E-1,-9.943158E-2,1.24499604E-1,-1.4052352E-1,2.9330036E-1,1.9373104E-1,-1.5509376E-2,1.8505344E-1,-2.0503834E-1,3.1264514E-1,-2.8595206E-1,-1.0001057E-1,1.0735047E-1,9.2423E-2,1.905474E-1,-9.093639E-3,-5.2885604E-3,-6.8884096E-3,-4.547962E-3,3.4432781E-3,-3.3721323E-3,-1.6327281E-3,8.1784995E-3,-1.2297461E-2,2.428948E-3,4.946881E-4,1.0349532E-2,6.9294563E-3,-1.0852495E-2,1.5987296E-2,-1.4042936E-3,-6.658112E-3,5.9410892E-3,-1.2866309E-2,1.3601438E-3,9.734502E-3,-6.890857E-3,-2.0562975E-2,3.266263E-4,-3.4489585E-3,5.781394E-3,5.955821E-3,1.1018487E-3,1.9697323E-3,4.246628E-3,1.0269855E-2,4.5324787E-3],"categories":[],"categories_nodes":[],"categories_segments":[],"categories_sizes":[],"default_left":[0,0,0,0,0,0,0,0,0,0,0,0,0,0,0,0,0,0,0,0,0,0,0,0,0,0,0,0,0,0,0,0,0,0,0,0,0,0,0,0,0,0,0,0,0,0,0,0,0,0,0,0,0,0,0,0,0,0,0,0,0,0,0],"id":15,"left_children":[1,3,5,7,9,11,13,15,17,19,21,23,25,27,29,31,33,35,37,39,41,43,45,47,49,51,53,55,57,59,61,-1,-1,-1,-1,-1,-1,-1,-1,-1,-1,-1,-1,-1,-1,-1,-1,-1,-1,-1,-1,-1,-1,-1,-1,-1,-1,-1,-1,-1,-1,-1,-1],"loss_changes":[5.572007E2,1.3364966E2,3.7336487E1,3.6855103E1,6.616461E0,1.2304794E1,2.9272408E1,1.32829895E1,8.224855E0,5.79591E0,6.5984817E0,1.5462746E1,9.444725E0,2.6565886E1,1.6508408E1,5.1558533E0,4.324478E0,3.0303316E0,5.281484E0,2.25024E0,5.0993195E0,6.2247696E0,4.5240145E0,1.0418526E1,6.315925E0,7.184845E0,3.7477584E0,5.998869E0,6.955117E0,1.0386475E1,1.2698921E1,0E0,0E0,0E0,0E0,0E0,0E0,0E0,0E0,0E0,0E0,0E0,0E0,0E0,0E0,0E0,0E0,0E0,0E0,0E0,0E0,0E0,0E0,0E0,0E0,0E0,0E0,0E0,0E0,0E0,0E0,0E0,0E0],"parents":[2147483647,0,0,1,1,2,2,3,3,4,4,5,5,6,6,7,7,8,8,9,9,10,10,11,11,12,12,13,13,14,14,15,15,16,16,17,17,18,18,19,19,20,20,21,21,22,22,23,23,24,24,25,25,26,26,27,27,28,28,29,29,30,30],"right_children":[2,4,6,8,10,12,14,16,18,20,22,24,26,28,30,32,34,36,38,40,42,44,46,48,50,52,54,56,58,60,62,-1,-1,-1,-1,-1,-1,-1,-1,-1,-1,-1,-1,-1,-1,-1,-1,-1,-1,-1,-1,-1,-1,-1,-1,-1,-1,-1,-1,-1,-1,-1,-1],"split_conditions":[1.3248875E0,2.1276052E0,-2.3544683E0,8.7853235E-1,9.5299727E-1,3.227978E0,3.6020148E-1,-2.8887796E-1,1.5227846E0,6.3408045E-3,2.5523882E0,1.1058631E0,2.4672549E0,1.283599E0,2.7178333E0,8.676674E-1,-6.7932375E-2,-2.4282005E0,1.708228E0,-1.1642601E0,-5.110781E-1,1.2889959E0,-1.2513303E0,-2.060955E0,1.4107928E0,5.432258E-1,3.1408122E0,3.8751833E0,3.562196E-1,1.37189E0,-1.0733725E0,-9.093639E-3,-5.2885604E-3,-6.8884096E-3,-4.547962E-3,3.4432781E-3,-3.3721323E-3,-1.6327281E-3,8.1784995E-3,-1.2297461E-2,2.428948E-3,4.946881E-4,1.0349532E-2,6.9294563E-3,-1.0852495E-2,1.5987296E-2,-1.4042936E-3,-6.658112E-3,5.9410892E-3,-1.2866309E-2,1.3601438E-3,9.734502E-3,-6.890857E-3,-2.0562975E-2,3.266263E-4,-3.4489585E-3,5.781394E-3,5.955821E-3,1.1018487E-3,1.9697323E-3,4.246628E-3,1.0269855E-2,4.5324787E-3],"split_indices":[85,38,0,30,61,85,30,30,55,84,18,75,43,8,11,9,49,80,30,41,60,85,76,61,60,71,54,0,27,34,25,0,0,0,0,0,0,0,0,0,0,0,0,0,0,0,0,0,0,0,0,0,0,0,0,0,0,0,0,0,0,0,0],"split_type":[0,0,0,0,0,0,0,0,0,0,0,0,0,0,0,0,0,0,0,0,0,0,0,0,0,0,0,0,0,0,0,0,0,0,0,0,0,0,0,0,0,0,0,0,0,0,0,0,0,0,0,0,0,0,0,0,0,0,0,0,0,0,0],"sum_hessian":[2.5984043E4,1.004168E4,1.5942362E4,9.04807E3,9.936095E2,3.1636736E3,1.2778688E4,7.7800796E3,1.2679912E3,4.0957776E2,5.8403174E2,2.0607917E3,1.1028818E3,2.49293E3,1.0285759E4,4.0528025E3,3.7272769E3,1.0800554E3,1.8793582E2,2.9087648E1,3.804901E2,2.9707123E2,2.869605E2,1.9576332E3,1.0315854E2,1.0790913E3,2.3790577E1,1.3759935E3,1.1169363E3,8.068101E3,2.2176572E3,3.6466233E3,4.0617923E2,2.588163E3,1.1391139E3,5.6377106E1,1.0236783E3,8.26315E1,1.0530431E2,1.4393987E1,1.4693662E1,6.332403E1,3.1716608E2,2.811835E2,1.5887721E1,1.203817E1,2.7492233E2,5.714127E1,1.9004918E3,5.582165E1,4.7336884E1,1.0586306E3,2.0460629E1,1.0461856E1,1.332872E1,1.3135189E3,6.2474567E1,4.797596E2,6.371767E2,5.2390493E3,2.8290518E3,4.492312E2,1.7684261E3],"tree_param":{"num_deleted":"0","num_feature":"86","num_nodes":"63","size_leaf_vector":"1"}},{"base_weights":[1.4616212E-5,-2.0484309E-1,1.0703832E-1,-2.3445114E-1,1.403384E-1,2.1483595E-2,1.4291582E-1,-2.4278484E-1,2.494996E-2,-2.6725987E-1,1.6049474E-1,-9.498319E-2,1.5063252E-1,2.3394771E-1,1.2468556E-1,-2.605781E-1,-1.7044856E-1,3.2544324E-1,-8.3193876E-2,2.8021503E-3,-1.5912982E-2,3.944931E-2,2.280522E-1,1.5182313E-1,-1.3030688E-1,3.0165002E-1,1.2929012E-1,1.8605381E-1,3.224752E-1,1.1587153E-1,2.2843523E-1,-8.281347E-3,-5.670456E-3,4.473727E-4,-5.229059E-3,1.40830055E-2,-3.8911253E-3,-4.1217096E-3,-0E0,1.3068736E-2,-2.5091713E-4,-2.3382483E-3,8.187978E-3,6.3311467E-3,-7.817464E-4,1.8937081E-3,-4.173718E-3,-9.396908E-4,1.0499535E-2,1.9788835E-3,5.870232E-3,1.8750303E-3,7.0142196E-3,7.4930675E-3,1.4600629E-2,5.7859E-3,3.2236082E-3,1.6233185E-3,8.465957E-3],"categories":[],"categories_nodes":[],"categories_segments":[],"categories_sizes":[],"default_left":[0,0,0,0,0,0,0,0,0,0,0,0,0,0,0,0,0,0,0,0,0,0,0,0,0,0,0,0,0,0,0,0,0,0,0,0,0,0,0,0,0,0,0,0,0,0,0,0,0,0,0,0,0,0,0,0,0,0,0],"id":16,"left_children":[1,3,5,7,9,11,13,15,17,19,21,23,25,27,29,31,33,35,37,-1,-1,39,41,43,45,47,49,51,53,55,57,-1,-1,-1,-1,-1,-1,-1,-1,-1,-1,-1,-1,-1,-1,-1,-1,-1,-1,-1,-1,-1,-1,-1,-1,-1,-1,-1,-1],"loss_changes":[5.661685E2,9.070792E1,5.1912872E1,1.7877014E1,5.7176485E0,7.565101E1,1.9408203E1,9.6651E0,8.491159E0,3.5095558E0,5.186651E0,2.3023302E1,7.1847878E0,7.7740707E0,8.716629E0,6.4436035E0,1.2924767E0,5.0222683E0,8.0408263E-1,0E0,0E0,5.1212144E0,6.056986E0,3.6484137E0,4.0383873E0,4.980135E0,8.544186E0,7.33329E0,7.2070847E0,5.620201E0,6.844719E0,0E0,0E0,0E0,0E0,0E0,0E0,0E0,0E0,0E0,0E0,0E0,0E0,0E0,0E0,0E0,0E0,0E0,0E0,0E0,0E0,0E0,0E0,0E0,0E0,0E0,0E0,0E0,0E0],"parents":[2147483647,0,0,1,1,2,2,3,3,4,4,5,5,6,6,7,7,8,8,9,9,10,10,11,11,12,12,13,13,14,14,15,15,16,16,17,17,18,18,21,21,22,22,23,23,24,24,25,25,26,26,27,27,28,28,29,29,30,30],"right_children":[2,4,6,8,10,12,14,16,18,20,22,24,26,28,30,32,34,36,38,-1,-1,40,42,44,46,48,50,52,54,56,58,-1,-1,-1,-1,-1,-1,-1,-1,-1,-1,-1,-1,-1,-1,-1,-1,-1,-1,-1,-1,-1,-1,-1,-1,-1,-1,-1,-1],"split_conditions":[3.928388E-1,2.1276052E0,1.5119826E0,1.9320227E0,-8.8710636E-2,1.5047946E0,-2.746376E0,5.166693E-1,-7.001681E-1,9.386073E-1,9.3201023E-1,-2.118329E0,-7.1049476E-1,2.403714E0,4.9684515E0,7.907108E-1,-1.2752196E0,2.5556483E0,-2.1672238E-1,2.8021503E-3,-1.5912982E-2,6.3770264E-1,-6.294071E-1,-1.2666632E-1,-1.844021E0,-5.3399634E-1,2.1457417E0,-4.6903083E-1,1.2939133E-1,-1.7323027E0,1.5815184E-1,-8.281347E-3,-5.670456E-3,4.473727E-4,-5.229059E-3,1.40830055E-2,-3.8911253E-3,-4.1217096E-3,-0E0,1.3068736E-2,-2.5091713E-4,-2.3382483E-3,8.187978E-3,6.3311467E-3,-7.817464E-4,1.8937081E-3,-4.173718E-3,-9.396908E-4,1.0499535E-2,1.9788835E-3,5.870232E-3,1.8750303E-3,7.0142196E-3,7.4930675E-3,1.4600629E-2,5.7859E-3,3.2236082E-3,1.6233185E-3,8.465957E-3],"split_indices":[2,38,2,52,31,29,9,29,5,10,17,81,49,34,48,28,3,25,41,0,0,10,44,63,38,22,4,64,38,16,53,0,0,0,0,0,0,0,0,0,0,0,0,0,0,0,0,0,0,0,0,0,0,0,0,0,0,0,0],"split_type":[0,0,0,0,0,0,0,0,0,0,0,0,0,0,0,0,0,0,0,0,0,0,0,0,0,0,0,0,0,0,0,0,0,0,0,0,0,0,0,0,0,0,0,0,0,0,0,0,0,0,0,0,0,0,0,0,0,0,0],"sum_hessian":[2.5823861E4,8.857756E3,1.6966104E4,8.1612603E3,6.964961E2,5.0218643E3,1.194424E4,7.9110864E3,2.5017368E2,2.9326637E1,6.6716943E2,2.6367883E3,2.3850757E3,1.9797804E3,9.96446E3,6.334017E3,1.5770693E3,6.759088E1,1.825828E2,1.1313058E1,1.801358E1,2.454166E2,4.2175287E2,3.2576505E2,2.3110234E3,2.862767E2,2.0987988E3,1.296088E3,6.836923E2,9.197002E3,7.674578E2,5.1921533E3,1.1418636E3,2.6715712E1,1.5503536E3,5.2968193E1,1.4622687E1,1.0827811E2,7.430468E1,2.6934338E1,2.1848225E2,5.0908012E1,3.7084485E2,2.4834286E2,7.742218E1,9.526833E1,2.2157551E3,3.375508E1,2.525216E2,1.0838811E3,1.01491785E3,3.684235E2,9.2766455E2,4.815945E2,2.0209776E2,8.9042236E2,8.30658E3,1.8623013E2,5.8122766E2],"tree_param":{"num_deleted":"0","num_feature":"86","num_nodes":"59","size_leaf_vector":"1"}},{"base_weights":[-1.4491151E-4,-1.748139E-1,1.1628079E-1,-2.1353255E-1,1.4801045E-1,5.9896152E-2,1.6122192E-1,-2.4698173E-1,-7.248416E-2,1.2854813E-1,4.1803774E-1,8.855742E-3,1.2967004E-1,2.6047805E-1,1.3861188E-1,-2.9276502E-1,-2.1325289E-1,2.550372E-1,-9.290414E-2,-8.9223735E-2,1.5834114E-1,5.267455E-1,-1.0798986E-3,-1.17640115E-1,4.845909E-2,9.65324E-2,2.5009593E-1,-0E0,2.8619343E-1,1.2444467E-1,2.3421778E-1,-9.724393E-3,-7.4484525E-3,-6.9444412E-3,-4.59422E-3,1.2796633E-2,-0E0,-4.3443777E-3,-5.8581895E-4,-8.964381E-3,2.174746E-3,7.239109E-3,2.1464552E-3,6.40919E-3,1.8475067E-2,-4.502149E-3,1.6467315E-3,3.426782E-3,1.5122899E-4,4.1539636E-3,8.944937E-4,1.5587705E-2,6.1673997E-3,8.474619E-3,-5.460636E-3,8.938518E-3,-7.938485E-3,2.9656114E-3,4.9047144E-3,9.507933E-3,4.2132866E-3],"categories":[],"categories_nodes":[],"categories_segments":[],"categories_sizes":[],"default_left":[0,0,0,0,0,0,0,0,0,0,0,0,0,0,0,0,0,0,0,0,0,0,0,0,0,0,0,0,0,0,0,0,0,0,0,0,0,0,0,0,0,0,0,0,0,0,0,0,0,0,0,0,0,0,0,0,0,0,0,0,0],"id":17,"left_children":[1,3,5,7,9,11,13,15,17,19,21,23,25,27,29,31,33,35,37,39,41,43,-1,45,47,49,51,53,55,57,59,-1,-1,-1,-1,-1,-1,-1,-1,-1,-1,-1,-1,-1,-1,-1,-1,-1,-1,-1,-1,-1,-1,-1,-1,-1,-1,-1,-1,-1,-1],"loss_changes":[5.210518E2,1.2824792E2,3.8705032E1,4.2842102E1,5.106474E0,2.4182E1,1.8697296E1,1.0787537E1,1.1680537E1,6.7721577E0,3.9515762E0,1.9754562E1,1.1085949E1,1.0819191E1,9.022644E0,3.6201782E0,4.2316895E0,4.469282E0,6.16984E0,4.372386E0,6.2031555E0,5.2132416E-1,0E0,5.357501E0,8.501153E0,6.1625576E0,6.4158516E0,7.210087E0,9.491364E0,5.7837524E0,6.3418083E0,0E0,0E0,0E0,0E0,0E0,0E0,0E0,0E0,0E0,0E0,0E0,0E0,0E0,0E0,0E0,0E0,0E0,0E0,0E0,0E0,0E0,0E0,0E0,0E0,0E0,0E0,0E0,0E0,0E0,0E0],"parents":[2147483647,0,0,1,1,2,2,3,3,4,4,5,5,6,6,7,7,8,8,9,9,10,10,11,11,12,12,13,13,14,14,15,15,16,16,17,17,18,18,19,19,20,20,21,21,23,23,24,24,25,25,26,26,27,27,28,28,29,29,30,30],"right_children":[2,4,6,8,10,12,14,16,18,20,22,24,26,28,30,32,34,36,38,40,42,44,-1,46,48,50,52,54,56,58,60,-1,-1,-1,-1,-1,-1,-1,-1,-1,-1,-1,-1,-1,-1,-1,-1,-1,-1,-1,-1,-1,-1,-1,-1,-1,-1,-1,-1,-1,-1],"split_conditions":[1.3751138E0,2.1276052E0,2.2269287E0,6.6868544E-1,2.578425E0,1.4721825E0,-2.6614523E0,-4.6688178E-1,-2.6321428E0,-4.8114428E-1,-3.6318666E-1,3.1421366E-1,2.168527E0,-1.7567347E0,4.1805058E0,7.4872935E-1,1.5545462E-1,-1.4273031E0,1.5964897E-1,-4.5514762E-1,7.944303E-3,3.053548E0,-1.0798986E-3,1.9434388E0,-1.4816692E0,9.075045E-1,8.850432E-1,-3.5526603E-1,7.474299E-2,4.490587E-1,8.689468E-1,-9.724393E-3,-7.4484525E-3,-6.9444412E-3,-4.59422E-3,1.2796633E-2,-0E0,-4.3443777E-3,-5.8581895E-4,-8.964381E-3,2.174746E-3,7.239109E-3,2.1464552E-3,6.40919E-3,1.8475067E-2,-4.502149E-3,1.6467315E-3,3.426782E-3,1.5122899E-4,4.1539636E-3,8.944937E-4,1.5587705E-2,6.1673997E-3,8.474619E-3,-5.460636E-3,8.938518E-3,-7.938485E-3,2.9656114E-3,4.9047144E-3,9.507933E-3,4.2132866E-3],"split_indices":[85,38,85,30,76,8,4,30,59,62,65,30,67,37,48,85,73,81,2,33,84,4,0,2,4,72,2,62,14,60,51,0,0,0,0,0,0,0,0,0,0,0,0,0,0,0,0,0,0,0,0,0,0,0,0,0,0,0,0,0,0],"split_type":[0,0,0,0,0,0,0,0,0,0,0,0,0,0,0,0,0,0,0,0,0,0,0,0,0,0,0,0,0,0,0,0,0,0,0,0,0,0,0,0,0,0,0,0,0,0,0,0,0,0,0,0,0,0,0,0,0,0,0,0,0],"sum_hessian":[2.5615316E4,1.0248089E4,1.5367227E4,9.153963E3,1.0941261E3,6.827782E3,8.539444E3,7.392309E3,1.761654E3,1.0267762E3,6.734988E1,3.9528281E3,2.8749539E3,1.5722284E3,6.967216E3,3.116705E3,4.2756035E3,9.916531E1,1.6624888E3,1.19047195E2,9.0772906E2,5.585816E1,1.1491718E1,9.355202E2,3.017308E3,2.2639019E3,6.110519E2,1.3809747E2,1.434131E3,6.081153E3,8.86063E2,1.8069268E3,1.3097783E3,3.2636077E3,1.01199615E3,5.8728527E1,4.0436783E1,9.645609E2,6.9792786E2,5.3803734E1,6.524346E1,4.563937E2,4.5133533E2,1.6364836E1,3.949332E1,7.9258966E2,1.4293053E2,1.1893951E3,1.8279128E3,1.3796246E3,8.8427734E2,8.041585E1,5.3063605E2,5.1616776E1,8.6480705E1,1.4068353E3,2.729568E1,3.6932441E3,2.3879087E3,4.6260394E2,4.2345905E2],"tree_param":{"num_deleted":"0","num_feature":"86","num_nodes":"61","size_leaf_vector":"1"}},{"base_weights":[-1.0741191E-3,-1.8794362E-1,1.0301439E-1,-2.259293E-1,1.7575428E-1,2.2135139E-2,1.4183727E-1,-2.597081E-1,-1.7514747E-1,2.1918742E-1,-0E0,-5.558162E-2,1.1648218E-1,2.4121551E-1,1.2722787E-1,-2.6281026E-1,3.669068E-2,9.607371E-2,-1.8241142E-1,2.930697E-1,1.2615977E-1,2.0450015E-1,-1.18422076E-1,1.13815896E-1,-1.0170368E-1,2.6232168E-1,9.22519E-2,1.177208E-1,2.9740435E-1,1.0804951E-1,1.7674401E-1,-8.285601E-3,-5.9156115E-3,1.3978412E-2,-2.3357645E-3,9.362109E-3,-1.3438112E-3,-5.903455E-3,-2.3493005E-3,-4.0149973E-3,9.870558E-3,-4.381071E-4,7.963839E-3,1.0127781E-2,-7.982166E-3,7.1235397E-4,-9.336635E-3,-7.514116E-4,5.0006397E-3,-3.6565692E-3,3.6766243E-4,1.054909E-2,1.8933411E-3,1.6410053E-3,5.46939E-3,2.232052E-3,1.634552E-2,9.208342E-3,-1.2590212E-2,1.5715878E-3,3.7163368E-3,8.000691E-3,4.0202998E-3],"categories":[],"categories_nodes":[],"categories_segments":[],"categories_sizes":[],"default_left":[0,0,0,0,0,0,0,0,0,0,0,0,0,0,0,0,0,0,0,0,0,0,0,0,0,0,0,0,0,0,0,0,0,0,0,0,0,0,0,0,0,0,0,0,0,0,0,0,0,0,0,0,0,0,0,0,0,0,0,0,0,0,0],"id":18,"left_children":[1,3,5,7,9,11,13,15,17,19,21,23,25,27,29,31,33,35,37,39,41,43,45,47,49,51,53,55,57,59,61,-1,-1,-1,-1,-1,-1,-1,-1,-1,-1,-1,-1,-1,-1,-1,-1,-1,-1,-1,-1,-1,-1,-1,-1,-1,-1,-1,-1,-1,-1,-1,-1],"loss_changes":[4.9451797E2,1.2580881E2,5.108145E1,1.3608978E1,6.600258E0,3.8968613E1,1.5569366E1,4.7807617E0,6.641762E0,4.2466774E0,4.179427E0,2.2701145E1,8.0864105E0,9.238976E0,8.812988E0,3.7058716E0,2.8949308E0,2.852498E0,4.5224533E0,6.066826E0,6.4306645E0,4.19252E0,3.3271232E0,4.68591E0,5.3756485E0,5.5068226E0,6.7405453E0,7.5722513E0,6.686928E0,5.9379044E0,9.783577E0,0E0,0E0,0E0,0E0,0E0,0E0,0E0,0E0,0E0,0E0,0E0,0E0,0E0,0E0,0E0,0E0,0E0,0E0,0E0,0E0,0E0,0E0,0E0,0E0,0E0,0E0,0E0,0E0,0E0,0E0,0E0,0E0],"parents":[2147483647,0,0,1,1,2,2,3,3,4,4,5,5,6,6,7,7,8,8,9,9,10,10,11,11,12,12,13,13,14,14,15,15,16,16,17,17,18,18,19,19,20,20,21,21,22,22,23,23,24,24,25,25,26,26,27,27,28,28,29,29,30,30],"right_children":[2,4,6,8,10,12,14,16,18,20,22,24,26,28,30,32,34,36,38,40,42,44,46,48,50,52,54,56,58,60,62,-1,-1,-1,-1,-1,-1,-1,-1,-1,-1,-1,-1,-1,-1,-1,-1,-1,-1,-1,-1,-1,-1,-1,-1,-1,-1,-1,-1,-1,-1,-1,-1],"split_conditions":[4.7855935E-1,2.1276052E0,1.7003003E0,-2.2123747E-1,9.866667E-1,1.6582294E0,-2.6899314E0,2.3154879E0,-2.349024E0,1.2033745E0,2.1223651E-1,-1.5627002E0,-4.9445516E-1,-1.5129185E0,3.9826262E0,4.915212E-1,-7.121583E-1,-1.4820567E0,1.0916272E0,-2.2436944E-1,4.2438886E-1,2.432937E0,1.5282438E0,6.5465736E-1,1.2382649E0,3.1837013E-3,3.053548E0,-4.3885556E-1,4.4352374E0,1.05355896E-1,-1.395106E0,-8.285601E-3,-5.9156115E-3,1.3978412E-2,-2.3357645E-3,9.362109E-3,-1.3438112E-3,-5.903455E-3,-2.3493005E-3,-4.0149973E-3,9.870558E-3,-4.381071E-4,7.963839E-3,1.0127781E-2,-7.982166E-3,7.1235397E-4,-9.336635E-3,-7.514116E-4,5.0006397E-3,-3.6565692E-3,3.6766243E-4,1.054909E-2,1.8933411E-3,1.6410053E-3,5.46939E-3,2.232052E-3,1.634552E-2,9.208342E-3,-1.2590212E-2,1.5715878E-3,3.7163368E-3,8.000691E-3,4.0202998E-3],"split_indices":[2,38,2,2,50,29,7,52,56,61,63,81,34,14,2,29,4,45,29,32,31,24,37,24,29,83,4,37,62,24,45,0,0,0,0,0,0,0,0,0,0,0,0,0,0,0,0,0,0,0,0,0,0,0,0,0,0,0,0,0,0,0,0],"split_type":[0,0,0,0,0,0,0,0,0,0,0,0,0,0,0,0,0,0,0,0,0,0,0,0,0,0,0,0,0,0,0,0,0,0,0,0,0,0,0,0,0,0,0,0,0,0,0,0,0,0,0,0,0,0,0,0,0,0,0,0,0,0,0],"sum_hessian":[2.5415469E4,9.095094E3,1.6320375E4,8.238181E3,8.5691284E2,5.3025444E3,1.101783E4,4.9305703E3,3.3076108E3,6.8762427E2,1.6928859E2,2.9021616E3,2.400383E3,1.3993674E3,9.618463E3,4.883064E3,4.750644E1,8.2046196E1,3.2255645E3,3.7486078E2,3.1276346E2,6.0931057E1,1.0835754E2,6.1580615E2,2.2863555E3,3.3330905E2,2.067074E3,4.450972E2,9.542702E2,6.952293E3,2.6661697E3,4.0382595E3,8.448043E2,1.0553478E1,3.695296E1,3.4229366E1,4.7816826E1,2.824304E3,4.0126065E2,2.653133E1,3.4832947E2,1.5288538E2,1.5987808E2,4.959445E1,1.1336605E1,6.0392166E1,4.7965366E1,1.64887E2,4.5091916E2,1.9497024E3,3.36653E2,2.256087E2,1.0770035E2,1.4689159E3,5.9815814E2,4.083703E2,3.672691E1,9.442459E2,1.0024269E1,1.5551464E3,5.3971465E3,8.478176E2,1.8183522E3],"tree_param":{"num_deleted":"0","num_feature":"86","num_nodes":"63","size_leaf_vector":"1"}},{"base_weights":[1.497406E-4,-1.8291019E-1,1.0337877E-1,-2.2060274E-1,1.6770327E-1,4.60474E-3,1.3019142E-1,-2.5235456E-1,-1.1254683E-1,3.1563216E-1,1.1651364E-1,-8.1596196E-2,1.18776575E-1,1.068349E-1,1.9765009E-1,-3.0572185E-1,-2.278801E-1,1.1110267E-1,-1.3596623E-1,3.702003E-1,5.0827083E-3,1.5840591E-1,-7.422624E-2,1.08543016E-1,-1.095914E-1,1.9856012E-1,6.332715E-2,9.548708E-2,2.0991811E-1,2.6745105E-1,1.5298605E-1,-9.518488E-3,-6.180925E-3,-7.0918906E-3,-3.1538918E-3,1.1821078E-2,-1.2910904E-3,6.8421653E-3,-4.172804E-3,1.3182393E-2,1.7039306E-3,9.252417E-3,-1.138215E-2,-4.0894793E-3,5.53965E-3,-7.7328137E-3,5.2763075E-3,6.8169544E-3,-0E0,-4.523912E-3,-1.1790813E-3,4.4373604E-3,1.22723635E-2,-1.6596809E-3,3.9462843E-3,-1.0356384E-3,3.0703072E-3,7.643264E-3,-6.3109066E-4,4.789807E-3,9.959014E-3,9.541674E-3,3.685585E-3],"categories":[],"categories_nodes":[],"categories_segments":[],"categories_sizes":[],"default_left":[0,0,0,0,0,0,0,0,0,0,0,0,0,0,0,0,0,0,0,0,0,0,0,0,0,0,0,0,0,0,0,0,0,0,0,0,0,0,0,0,0,0,0,0,0,0,0,0,0,0,0,0,0,0,0,0,0,0,0,0,0,0,0],"id":19,"left_children":[1,3,5,7,9,11,13,15,17,19,21,23,25,27,29,31,33,35,37,39,41,43,45,47,49,51,53,55,57,59,61,-1,-1,-1,-1,-1,-1,-1,-1,-1,-1,-1,-1,-1,-1,-1,-1,-1,-1,-1,-1,-1,-1,-1,-1,-1,-1,-1,-1,-1,-1,-1,-1],"loss_changes":[4.763055E2,1.202088E2,4.256401E1,2.7739197E1,6.16238E0,3.4032936E1,1.9620392E1,7.6014404E0,9.875067E0,3.3522587E0,5.4005165E0,1.0475427E1,6.3090153E0,1.06840515E1,9.617126E0,1.6200256E0,4.1706696E0,8.006758E0,1.9121723E0,3.4562168E0,4.556888E0,4.3384333E0,5.5131E0,3.0937047E0,4.770708E0,5.7515736E0,7.293994E0,7.6573257E0,9.823555E0,8.130875E0,9.393105E0,0E0,0E0,0E0,0E0,0E0,0E0,0E0,0E0,0E0,0E0,0E0,0E0,0E0,0E0,0E0,0E0,0E0,0E0,0E0,0E0,0E0,0E0,0E0,0E0,0E0,0E0,0E0,0E0,0E0,0E0,0E0,0E0],"parents":[2147483647,0,0,1,1,2,2,3,3,4,4,5,5,6,6,7,7,8,8,9,9,10,10,11,11,12,12,13,13,14,14,15,15,16,16,17,17,18,18,19,19,20,20,21,21,22,22,23,23,24,24,25,25,26,26,27,27,28,28,29,29,30,30],"right_children":[2,4,6,8,10,12,14,16,18,20,22,24,26,28,30,32,34,36,38,40,42,44,46,48,50,52,54,56,58,60,62,-1,-1,-1,-1,-1,-1,-1,-1,-1,-1,-1,-1,-1,-1,-1,-1,-1,-1,-1,-1,-1,-1,-1,-1,-1,-1,-1,-1,-1,-1,-1,-1],"split_conditions":[4.932348E-1,2.1276052E0,1.2741913E0,4.3495253E-1,-6.5040195E-1,1.4680456E0,3.9826262E0,-6.960343E-1,-1.4820567E0,1.9464105E-1,2.7448386E-1,-2.118329E0,-9.898914E-4,3.121475E0,-1.2536849E0,7.88089E-1,1.1038246E0,-1.7312577E0,-3.2967486E0,8.4212023E-1,1.808058E0,-7.996056E-1,2.0927331E0,-8.844939E-1,6.6868544E-1,3.0607483E0,2.1457417E0,-2.50269E-1,1.507367E0,-1.0615684E0,-1.0733725E0,-9.518488E-3,-6.180925E-3,-7.0918906E-3,-3.1538918E-3,1.1821078E-2,-1.2910904E-3,6.8421653E-3,-4.172804E-3,1.3182393E-2,1.7039306E-3,9.252417E-3,-1.138215E-2,-4.0894793E-3,5.53965E-3,-7.7328137E-3,5.2763075E-3,6.8169544E-3,-0E0,-4.523912E-3,-1.1790813E-3,4.4373604E-3,1.22723635E-2,-1.6596809E-3,3.9462843E-3,-1.0356384E-3,3.0703072E-3,7.643264E-3,-6.3109066E-4,4.789807E-3,9.959014E-3,9.541674E-3,3.685585E-3],"split_indices":[2,38,2,30,50,23,2,30,45,51,45,81,34,35,45,9,4,59,9,78,24,63,62,23,30,11,4,27,61,71,25,0,0,0,0,0,0,0,0,0,0,0,0,0,0,0,0,0,0,0,0,0,0,0,0,0,0,0,0,0,0,0,0],"split_type":[0,0,0,0,0,0,0,0,0,0,0,0,0,0,0,0,0,0,0,0,0,0,0,0,0,0,0,0,0,0,0,0,0,0,0,0,0,0,0,0,0,0,0,0,0,0,0,0,0,0,0,0,0,0,0,0,0,0,0,0,0,0,0],"sum_hessian":[2.5205426E4,9.084432E3,1.6120994E4,8.205857E3,8.7857355E2,3.45028E3,1.2670714E4,6.333004E3,1.8728538E3,2.1818651E2,6.60387E2,1.9612942E3,1.4889858E3,9.426817E3,3.2438965E3,1.9711044E3,4.3618994E3,1.7276855E2,1.7000852E3,1.8251215E2,3.567436E1,5.460415E2,1.1434552E2,2.4638814E2,1.714906E3,6.0101605E2,8.879698E2,8.504194E3,9.226229E2,1.2531338E3,1.9907627E3,1.7533712E3,2.1773312E2,4.0695608E3,2.9233865E2,6.2119205E1,1.1064936E2,1.0531099E1,1.6895541E3,1.4622453E2,3.6287617E1,2.1616882E1,1.4057476E1,4.0854053E1,5.0518747E2,6.8220276E1,4.6125244E1,1.14591324E2,1.3179681E2,1.0707043E3,6.442017E2,4.910348E2,1.0998127E2,3.189419E2,5.690279E2,4.1832233E2,8.0858726E3,7.760228E2,1.4660013E2,4.7761075E2,7.755231E2,2.992384E2,1.6915243E3],"tree_param":{"num_deleted":"0","num_feature":"86","num_nodes":"63","size_leaf_vector":"1"}},{"base_weights":[1.3427172E-3,-1.8184537E-1,1.0339313E-1,-2.149224E-1,1.2686728E-1,2.9419247E-2,1.409849E-1,-2.4151647E-1,-1.4139166E-1,9.030927E-2,3.2244775E-1,-5.4634694E-2,1.0707783E-1,2.570319E-1,1.256828E-1,-2.7828363E-1,-2.0826678E-1,8.7029725E-2,-1.6111158E-1,1.1530651E-1,-1.4600407E-1,-0E0,4.2684773E-1,7.1840726E-2,-1.0525324E-1,1.797047E-1,7.971975E-2,1.0300922E-1,3.137695E-1,1.1068292E-1,1.9115399E-1,-8.65773E-3,-6.4292415E-3,-6.5506473E-3,-2.7833788E-3,9.297947E-3,-2.1098542E-3,-5.1262574E-3,-7.259078E-4,-2.0286862E-3,4.477971E-3,-9.581069E-3,6.504576E-3,8.514604E-3,-5.313904E-3,1.5617112E-2,8.933256E-5,-0E0,5.81013E-3,-3.358162E-3,1.33787375E-2,6.410413E-4,6.575188E-3,-3.9626297E-4,3.3360578E-3,6.3221976E-3,-4.4369306E-3,-1.9423327E-4,1.0016797E-2,2.606163E-3,4.898849E-3,2.8264076E-3,6.908535E-3],"categories":[],"categories_nodes":[],"categories_segments":[],"categories_sizes":[],"default_left":[0,0,0,0,0,0,0,0,0,0,0,0,0,0,0,0,0,0,0,0,0,0,0,0,0,0,0,0,0,0,0,0,0,0,0,0,0,0,0,0,0,0,0,0,0,0,0,0,0,0,0,0,0,0,0,0,0,0,0,0,0,0,0],"id":20,"left_children":[1,3,5,7,9,11,13,15,17,19,21,23,25,27,29,31,33,35,37,39,41,43,45,47,49,51,53,55,57,59,61,-1,-1,-1,-1,-1,-1,-1,-1,-1,-1,-1,-1,-1,-1,-1,-1,-1,-1,-1,-1,-1,-1,-1,-1,-1,-1,-1,-1,-1,-1,-1,-1],"loss_changes":[4.6756097E2,9.149429E1,4.4505447E1,1.5356995E1,5.7073717E0,3.548124E1,1.8455566E1,6.639679E0,9.840782E0,4.345384E0,4.3151217E0,1.6698616E1,5.3290977E0,1.0272667E1,8.903259E0,1.2151794E0,3.2985077E0,6.213906E0,2.4634552E0,4.2622833E0,4.479095E0,1.8616092E0,3.3838882E0,6.387492E0,6.634325E0,4.5117188E0,6.148449E0,9.288642E0,6.090538E0,9.340355E0,6.232643E0,0E0,0E0,0E0,0E0,0E0,0E0,0E0,0E0,0E0,0E0,0E0,0E0,0E0,0E0,0E0,0E0,0E0,0E0,0E0,0E0,0E0,0E0,0E0,0E0,0E0,0E0,0E0,0E0,0E0,0E0,0E0,0E0],"parents":[2147483647,0,0,1,1,2,2,3,3,4,4,5,5,6,6,7,7,8,8,9,9,10,10,11,11,12,12,13,13,14,14,15,15,16,16,17,17,18,18,19,19,20,20,21,21,22,22,23,23,24,24,25,25,26,26,27,27,28,28,29,29,30,30],"right_children":[2,4,6,8,10,12,14,16,18,20,22,24,26,28,30,32,34,36,38,40,42,44,46,48,50,52,54,56,58,60,62,-1,-1,-1,-1,-1,-1,-1,-1,-1,-1,-1,-1,-1,-1,-1,-1,-1,-1,-1,-1,-1,-1,-1,-1,-1,-1,-1,-1,-1,-1,-1,-1],"split_conditions":[4.7855935E-1,2.1276052E0,1.9041563E0,2.59073E-1,1.384804E0,1.0057539E0,-3.2967486E0,7.4872935E-1,-1.5300668E0,1.3413219E-2,6.82778E-2,-1.5305284E0,-4.0124124E-1,-4.6903083E-1,1.9467831E0,6.2499785E-1,1.0883207E0,-1.4940796E0,7.788165E-1,8.257825E-1,1.9192057E0,1.808058E0,5.267934E-4,-5.780827E-1,2.512066E0,1.1520466E0,-5.0666094E-1,-3.538409E-1,-8.946497E-1,1.3425145E0,4.8376676E-1,-8.65773E-3,-6.4292415E-3,-6.5506473E-3,-2.7833788E-3,9.297947E-3,-2.1098542E-3,-5.1262574E-3,-7.259078E-4,-2.0286862E-3,4.477971E-3,-9.581069E-3,6.504576E-3,8.514604E-3,-5.313904E-3,1.5617112E-2,8.933256E-5,-0E0,5.81013E-3,-3.358162E-3,1.33787375E-2,6.410413E-4,6.575188E-3,-3.9626297E-4,3.3360578E-3,6.3221976E-3,-4.4369306E-3,-1.9423327E-4,1.0016797E-2,2.606163E-3,4.898849E-3,2.8264076E-3,6.908535E-3],"split_indices":[2,38,85,27,78,23,9,85,45,84,44,4,49,64,42,80,9,59,73,85,75,24,83,74,6,16,44,75,44,28,48,0,0,0,0,0,0,0,0,0,0,0,0,0,0,0,0,0,0,0,0,0,0,0,0,0,0,0,0,0,0,0,0],"split_type":[0,0,0,0,0,0,0,0,0,0,0,0,0,0,0,0,0,0,0,0,0,0,0,0,0,0,0,0,0,0,0,0,0,0,0,0,0,0,0,0,0,0,0,0,0,0,0,0,0,0,0,0,0,0,0,0,0,0,0,0,0,0,0],"sum_hessian":[2.5010908E4,8.944143E3,1.6066765E4,8.0820396E3,8.621034E2,5.42382E3,1.0642945E4,5.9220327E3,2.1600068E3,7.3310706E2,1.2899632E2,2.5987612E3,2.8250588E3,1.2286031E3,9.414342E3,2.7909805E3,3.131052E3,1.670844E2,1.9929226E3,6.677303E2,6.537676E1,3.2559204E1,9.643712E1,7.3691425E2,1.8618469E3,7.599494E2,2.0651094E3,3.3700613E2,8.91597E2,7.676305E3,1.7380367E3,2.3841992E3,4.0678122E2,2.869917E3,2.6113492E2,7.096973E1,9.611467E1,1.8529824E3,1.3994011E2,9.962836E1,5.68102E2,4.6265697E1,1.9111067E1,1.2529866E1,2.0029339E1,7.666917E1,1.976795E1,4.6694635E2,2.699679E2,1.8429028E3,1.8944061E1,1.5730418E2,6.026452E2,5.1483264E2,1.5502769E3,2.387856E2,9.822053E1,4.9856617E1,8.417404E2,5.30136E3,2.374945E3,5.09124E2,1.2289127E3],"tree_param":{"num_deleted":"0","num_feature":"86","num_nodes":"63","size_leaf_vector":"1"}},{"base_weights":[-6.5657176E-4,-1.6428177E-1,1.0539542E-1,-2.1601418E-1,8.478269E-2,3.6866497E-2,1.362225E-1,-2.5094402E-1,-1.3772461E-1,2.4005735E-2,1.867738E-1,-3.730356E-2,1.09319344E-1,2.3116563E-1,1.1690785E-1,-2.8322172E-1,-2.1471867E-1,-1.6144587E-1,4.3552755E-3,1.6763525E-2,1.1170785E-2,-2.0892219E-1,2.1932144E-1,6.866329E-2,-9.0108395E-2,-4.6214323E-2,1.2813742E-1,1.7401229E-1,3.085454E-1,9.085351E-2,1.624341E-1,-9.595761E-3,-7.7116406E-3,-6.8911943E-3,-4.418827E-3,-5.5299313E-3,-3.4987866E-3,-2.030137E-3,1.0200407E-2,-2.274617E-3,1.8094521E-3,4.348216E-4,-1.5983839E-2,1.534409E-3,7.845362E-3,1.0919661E-2,1.1653731E-3,-4.2099203E-3,-1.2789574E-3,-5.3622606E-3,2.8808177E-3,4.6933275E-3,3.7619495E-4,-6.138144E-3,5.7486324E-3,1.2933023E-2,5.9959427E-3,4.7045783E-3,1.9672296E-3,-1.0558755E-2,5.006974E-3],"categories":[],"categories_nodes":[],"categories_segments":[],"categories_sizes":[],"default_left":[0,0,0,0,0,0,0,0,0,0,0,0,0,0,0,0,0,0,0,0,0,0,0,0,0,0,0,0,0,0,0,0,0,0,0,0,0,0,0,0,0,0,0,0,0,0,0,0,0,0,0,0,0,0,0,0,0,0,0,0,0],"id":21,"left_children":[1,3,5,7,9,11,13,15,17,19,21,23,25,27,29,31,33,35,37,-1,39,41,43,45,47,49,51,53,55,57,59,-1,-1,-1,-1,-1,-1,-1,-1,-1,-1,-1,-1,-1,-1,-1,-1,-1,-1,-1,-1,-1,-1,-1,-1,-1,-1,-1,-1,-1,-1],"loss_changes":[4.3241595E2,1.2646301E2,3.1745422E1,2.174765E1,1.02182255E1,2.53487E1,1.8694351E1,5.932617E0,8.6463585E0,6.717776E0,8.116896E0,1.3005492E1,7.077032E0,7.147545E0,9.996506E0,2.0794525E0,2.2466354E0,1.8758736E0,8.930632E0,0E0,4.450516E0,3.8613043E0,3.7640896E0,6.3127236E0,3.5112858E0,4.891093E0,6.8122063E0,6.8545933E0,8.963097E0,8.979069E0,7.1393204E0,0E0,0E0,0E0,0E0,0E0,0E0,0E0,0E0,0E0,0E0,0E0,0E0,0E0,0E0,0E0,0E0,0E0,0E0,0E0,0E0,0E0,0E0,0E0,0E0,0E0,0E0,0E0,0E0,0E0,0E0],"parents":[2147483647,0,0,1,1,2,2,3,3,4,4,5,5,6,6,7,7,8,8,9,9,10,10,11,11,12,12,13,13,14,14,15,15,16,16,17,17,18,18,20,20,21,21,22,22,23,23,24,24,25,25,26,26,27,27,28,28,29,29,30,30],"right_children":[2,4,6,8,10,12,14,16,18,20,22,24,26,28,30,32,34,36,38,-1,40,42,44,46,48,50,52,54,56,58,60,-1,-1,-1,-1,-1,-1,-1,-1,-1,-1,-1,-1,-1,-1,-1,-1,-1,-1,-1,-1,-1,-1,-1,-1,-1,-1,-1,-1,-1,-1],"split_conditions":[1.3647804E0,1.3783362E0,1.9438844E0,1.6679999E-1,2.7073789E0,1.5047946E0,-2.6614523E0,7.8310853E-1,1.594479E0,-1.8977813E0,1.0035243E0,-1.5305284E0,-1.1122924E0,-3.375566E-1,2.4684985E0,-7.562671E-1,6.6999733E-1,-2.3490462E-1,1.9340163E0,1.6763525E-2,1.006656E0,6.8966436E-1,1.2378071E-1,-5.9608763E-1,4.098337E-1,1.468067E0,1.9203993E0,-2.992434E-1,-6.2897855E-1,-2.3544683E0,-5.8731294E-1,-9.595761E-3,-7.7116406E-3,-6.8911943E-3,-4.418827E-3,-5.5299313E-3,-3.4987866E-3,-2.030137E-3,1.0200407E-2,-2.274617E-3,1.8094521E-3,4.348216E-4,-1.5983839E-2,1.534409E-3,7.845362E-3,1.0919661E-2,1.1653731E-3,-4.2099203E-3,-1.2789574E-3,-5.3622606E-3,2.8808177E-3,4.6933275E-3,3.7619495E-4,-6.138144E-3,5.7486324E-3,1.2933023E-2,5.9959427E-3,4.7045783E-3,1.9672296E-3,-1.0558755E-2,5.006974E-3],"split_indices":[85,29,85,30,39,29,4,85,30,4,20,4,79,64,4,30,4,49,55,0,85,20,56,65,30,21,10,24,63,0,48,0,0,0,0,0,0,0,0,0,0,0,0,0,0,0,0,0,0,0,0,0,0,0,0,0,0,0,0,0,0],"split_type":[0,0,0,0,0,0,0,0,0,0,0,0,0,0,0,0,0,0,0,0,0,0,0,0,0,0,0,0,0,0,0,0,0,0,0,0,0,0,0,0,0,0,0,0,0,0,0,0,0,0,0,0,0,0,0,0,0,0,0,0,0],"sum_hessian":[2.4911729E4,9.799946E3,1.5111782E4,8.118052E3,1.6818945E3,4.7001436E3,1.0411639E4,5.601632E3,2.5164197E3,1.0615737E3,6.2032086E2,2.3162075E3,2.3839363E3,1.7475701E3,8.664068E3,2.9404094E3,2.6612224E3,2.162192E3,3.5422784E2,2.1061111E1,1.0405126E3,4.3987198E1,5.763337E2,7.6383417E2,1.5523734E3,2.5125249E2,2.1326836E3,1.016325E3,7.312451E2,5.5282495E3,3.1358188E3,1.1998341E3,1.7405753E3,2.16117E3,5.0005252E2,1.4124495E3,7.497423E2,2.905075E2,6.3720352E1,3.678823E2,6.7263025E2,2.5333977E1,1.8653221E1,1.2122995E2,4.5510373E2,6.491698E1,6.9891724E2,7.422357E2,8.101377E2,1.3344124E2,1.1781126E2,1.7056558E3,4.270279E2,4.1699112E1,9.746259E2,3.3657108E2,3.94674E2,1.5177454E3,4.0105042E3,2.371861E1,3.1121003E3],"tree_param":{"num_deleted":"0","num_feature":"86","num_nodes":"61","size_leaf_vector":"1"}},{"base_weights":[6.4678135E-4,-1.7451875E-1,9.775317E-2,-2.1032837E-1,1.4695868E-1,2.0630317E-2,1.308944E-1,-2.4641088E-1,-1.2768616E-1,1.2408246E-1,3.8119018E-1,-5.332625E-2,1.1081915E-1,2.2524029E-1,1.1867502E-1,-2.5955582E-1,-1.6122729E-1,-1.4781776E-1,-2.5495538E-2,-5.7640504E-3,1.8626836E-1,5.2598464E-1,8.408592E-2,9.089615E-2,-1.0269474E-1,2.5151634E-1,9.1107845E-2,1.085549E-1,2.8902236E-1,1.01182304E-1,1.969912E-1,-9.284715E-3,-7.1327705E-3,-5.1430906E-3,-8.7676913E-4,-4.6401317E-3,-0E0,-1.3742989E-3,1.221996E-2,1.6744172E-3,-1.20002525E-2,4.2885263E-3,1.1943158E-2,-0E0,1.9353846E-2,-5.485994E-3,1.4264852E-2,9.1349013E-4,7.626532E-3,-4.993564E-3,-1.9181893E-3,2.7670688E-3,1.2678301E-2,1.1311319E-2,2.4643743E-3,4.3089674E-3,-1.1198614E-2,6.001635E-3,1.2706567E-2,2.5516031E-3,4.827711E-3,9.497018E-4,6.7594512E-3],"categories":[],"categories_nodes":[],"categories_segments":[],"categories_sizes":[],"default_left":[0,0,0,0,0,0,0,0,0,0,0,0,0,0,0,0,0,0,0,0,0,0,0,0,0,0,0,0,0,0,0,0,0,0,0,0,0,0,0,0,0,0,0,0,0,0,0,0,0,0,0,0,0,0,0,0,0,0,0,0,0,0,0],"id":22,"left_children":[1,3,5,7,9,11,13,15,17,19,21,23,25,27,29,31,33,35,37,39,41,43,45,47,49,51,53,55,57,59,61,-1,-1,-1,-1,-1,-1,-1,-1,-1,-1,-1,-1,-1,-1,-1,-1,-1,-1,-1,-1,-1,-1,-1,-1,-1,-1,-1,-1,-1,-1,-1,-1],"loss_changes":[4.1971527E2,1.0141174E2,4.04346E1,2.318039E1,4.1165657E0,3.1983786E1,1.2397476E1,5.656891E0,4.7969933E0,6.712961E0,2.4617367E0,1.8714935E1,5.608946E0,8.9246025E0,1.3141678E1,4.4793396E0,8.014374E-1,1.9119377E0,3.270349E0,6.66751E0,4.411474E0,2.3506699E0,3.466831E0,6.2659245E0,4.594055E0,6.448164E0,4.3635435E0,7.558006E0,8.88475E0,7.4905777E0,8.082764E0,0E0,0E0,0E0,0E0,0E0,0E0,0E0,0E0,0E0,0E0,0E0,0E0,0E0,0E0,0E0,0E0,0E0,0E0,0E0,0E0,0E0,0E0,0E0,0E0,0E0,0E0,0E0,0E0,0E0,0E0,0E0,0E0],"parents":[2147483647,0,0,1,1,2,2,3,3,4,4,5,5,6,6,7,7,8,8,9,9,10,10,11,11,12,12,13,13,14,14,15,15,16,16,17,17,18,18,19,19,20,20,21,21,22,22,23,23,24,24,25,25,26,26,27,27,28,28,29,29,30,30],"right_children":[2,4,6,8,10,12,14,16,18,20,22,24,26,28,30,32,34,36,38,40,42,44,46,48,50,52,54,56,58,60,62,-1,-1,-1,-1,-1,-1,-1,-1,-1,-1,-1,-1,-1,-1,-1,-1,-1,-1,-1,-1,-1,-1,-1,-1,-1,-1,-1,-1,-1,-1,-1,-1],"split_conditions":[4.7855935E-1,2.1276052E0,1.833623E0,2.070711E-1,2.381626E0,1.6582294E0,-3.2967486E0,7.4428755E-1,1.594479E0,8.097236E-1,1.0535817E0,-1.5305284E0,6.090009E-1,7.295951E-2,2.6147428E0,-7.7399254E-1,1.3972509E0,1.4321853E0,3.8932135E0,1.82387E0,1.935235E0,-5.5550885E-1,1.1644223E0,2.1525846E-1,1.2788622E-1,1.9100403E0,-1.060526E0,3.92214E0,2.2538183E0,1.1010076E0,-9.267972E-4,-9.284715E-3,-7.1327705E-3,-5.1430906E-3,-8.7676913E-4,-4.6401317E-3,-0E0,-1.3742989E-3,1.221996E-2,1.6744172E-3,-1.20002525E-2,4.2885263E-3,1.1943158E-2,-0E0,1.9353846E-2,-5.485994E-3,1.4264852E-2,9.1349013E-4,7.626532E-3,-4.993564E-3,-1.9181893E-3,2.7670688E-3,1.2678301E-2,1.1311319E-2,2.4643743E-3,4.3089674E-3,-1.1198614E-2,6.001635E-3,1.2706567E-2,2.5516031E-3,4.827711E-3,9.497018E-4,6.7594512E-3],"split_indices":[2,38,85,30,76,29,9,9,30,15,16,4,2,33,67,30,35,4,52,76,51,65,78,55,30,30,33,60,27,60,82,0,0,0,0,0,0,0,0,0,0,0,0,0,0,0,0,0,0,0,0,0,0,0,0,0,0,0,0,0,0,0,0],"split_type":[0,0,0,0,0,0,0,0,0,0,0,0,0,0,0,0,0,0,0,0,0,0,0,0,0,0,0,0,0,0,0,0,0,0,0,0,0,0,0,0,0,0,0,0,0,0,0,0,0,0,0,0,0,0,0,0,0,0,0,0,0,0,0],"sum_hessian":[2.4675574E4,8.796356E3,1.5879217E4,7.91815E3,8.782067E2,4.7827383E3,1.1096479E4,5.500505E3,2.417645E3,8.067448E2,7.146196E1,2.6222075E3,2.1605308E3,1.2590022E3,9.837477E3,4.7514595E3,7.490452E2,2.0108317E3,4.0681348E2,2.5662848E2,5.501163E2,4.4747566E1,2.6714394E1,6.6310645E2,1.9591011E3,2.56366E2,1.9041647E3,4.5241638E2,8.065858E2,8.055542E3,1.7819344E3,1.4218467E3,3.329613E3,6.876861E2,6.135912E1,1.9163309E3,9.450068E1,3.9249094E2,1.432255E1,2.2125111E2,3.5377373E1,4.634234E2,8.6692894E1,1.0024365E1,3.4723198E1,1.4996841E1,1.1717552E1,4.9018228E2,1.7292418E2,7.2839667E2,1.2307045E3,1.3738736E2,1.1897864E2,5.1980732E1,1.852184E3,4.249592E2,2.7457174E1,4.9297623E2,3.136096E2,6.360053E3,1.6954888E3,2.6640314E2,1.5155314E3],"tree_param":{"num_deleted":"0","num_feature":"86","num_nodes":"63","size_leaf_vector":"1"}},{"base_weights":[-7.7037583E-4,-1.7825072E-1,8.803573E-2,-2.1177222E-1,1.5796769E-1,4.9828667E-2,1.610465E-1,-2.4475099E-1,-1.3192262E-1,1.5251765E-3,1.92981E-1,-4.0143944E-2,8.5425556E-2,2.691386E-1,1.3898002E-1,-2.5628802E-1,-1.5956967E-1,4.735499E-2,-1.4710285E-1,1.9514138E-1,-1.6953996E-1,2.2659804E-1,-5.4729056E-2,-1.16051346E-1,8.831797E-2,2.0798026E-1,6.6577636E-2,3.6359787E-1,1.8169515E-1,1.2983952E-1,3.2649404E-1,-8.924573E-3,-6.9851484E-3,-5.5128206E-3,-2.4196878E-3,8.850959E-3,-2.4965128E-3,5.024343E-3,-4.5012697E-3,8.844638E-3,-6.1921733E-3,-1.393377E-2,-0E0,5.4017245E-3,1.2516869E-2,-8.866921E-3,5.3978916E-3,3.4547444E-3,-3.917438E-3,4.159855E-3,-8.882821E-4,7.182544E-4,7.4247946E-3,3.7514227E-3,1.3499819E-3,-0E0,1.1735876E-2,-3.2804504E-3,6.6730627E-3,3.4082113E-3,6.5566166E-3,1.1750002E-2,-5.2675707E-3],"categories":[],"categories_nodes":[],"categories_segments":[],"categories_sizes":[],"default_left":[0,0,0,0,0,0,0,0,0,0,0,0,0,0,0,0,0,0,0,0,0,0,0,0,0,0,0,0,0,0,0,0,0,0,0,0,0,0,0,0,0,0,0,0,0,0,0,0,0,0,0,0,0,0,0,0,0,0,0,0,0,0,0],"id":23,"left_children":[1,3,5,7,9,11,13,15,17,19,21,23,25,27,29,31,33,35,37,39,41,43,45,47,49,51,53,55,57,59,61,-1,-1,-1,-1,-1,-1,-1,-1,-1,-1,-1,-1,-1,-1,-1,-1,-1,-1,-1,-1,-1,-1,-1,-1,-1,-1,-1,-1,-1,-1,-1,-1],"loss_changes":[3.8637943E2,9.2284E1,4.5329727E1,1.9149567E1,3.857317E0,3.4426712E1,1.2875381E1,4.6655273E0,6.067482E0,4.8127275E0,5.187063E0,2.9652733E1,1.7481369E1,7.084015E0,7.4508057E0,3.788147E0,9.3216515E-1,5.6665926E0,1.9030914E0,3.0332973E0,3.8372686E0,3.9689922E0,4.159176E0,6.475855E0,6.789624E0,7.120865E0,8.250069E0,4.4965706E0,6.0600395E0,6.0328827E0,7.235752E0,0E0,0E0,0E0,0E0,0E0,0E0,0E0,0E0,0E0,0E0,0E0,0E0,0E0,0E0,0E0,0E0,0E0,0E0,0E0,0E0,0E0,0E0,0E0,0E0,0E0,0E0,0E0,0E0,0E0,0E0,0E0,0E0],"parents":[2147483647,0,0,1,1,2,2,3,3,4,4,5,5,6,6,7,7,8,8,9,9,10,10,11,11,12,12,13,13,14,14,15,15,16,16,17,17,18,18,19,19,20,20,21,21,22,22,23,23,24,24,25,25,26,26,27,27,28,28,29,29,30,30],"right_children":[2,4,6,8,10,12,14,16,18,20,22,24,26,28,30,32,34,36,38,40,42,44,46,48,50,52,54,56,58,60,62,-1,-1,-1,-1,-1,-1,-1,-1,-1,-1,-1,-1,-1,-1,-1,-1,-1,-1,-1,-1,-1,-1,-1,-1,-1,-1,-1,-1,-1,-1,-1,-1],"split_conditions":[1.1974084E0,2.1276052E0,1.8369038E0,2.070711E-1,1.0750012E0,1.6758467E0,-2.9378386E0,7.7079815E-1,-1.4820671E0,2.120638E0,1.828935E0,1.4602712E0,-2.746376E0,5.63601E-1,2.3513901E0,-6.960343E-1,1.2171761E0,-1.6600217E0,-1.5974176E0,1.2530662E-1,1.6141315E-1,1.4907464E0,9.537568E-3,-2.391516E0,9.950338E-1,6.79495E-1,-8.7118465E-1,-1.0278635E0,1.7531684E-1,1.267856E0,2.9440796E0,-8.924573E-3,-6.9851484E-3,-5.5128206E-3,-2.4196878E-3,8.850959E-3,-2.4965128E-3,5.024343E-3,-4.5012697E-3,8.844638E-3,-6.1921733E-3,-1.393377E-2,-0E0,5.4017245E-3,1.2516869E-2,-8.866921E-3,5.3978916E-3,3.4547444E-3,-3.917438E-3,4.159855E-3,-8.882821E-4,7.182544E-4,7.4247946E-3,3.7514227E-3,1.3499819E-3,-0E0,1.1735876E-2,-3.2804504E-3,6.6730627E-3,3.4082113E-3,6.5566166E-3,1.1750002E-2,-5.2675707E-3],"split_indices":[85,38,30,30,81,85,77,4,77,5,74,29,9,8,13,30,9,59,0,22,67,74,84,5,2,34,25,26,14,71,54,0,0,0,0,0,0,0,0,0,0,0,0,0,0,0,0,0,0,0,0,0,0,0,0,0,0,0,0,0,0,0,0],"split_type":[0,0,0,0,0,0,0,0,0,0,0,0,0,0,0,0,0,0,0,0,0,0,0,0,0,0,0,0,0,0,0,0,0,0,0,0,0,0,0,0,0,0,0,0,0,0,0,0,0,0,0,0,0,0,0,0,0,0,0,0,0,0,0],"sum_hessian":[2.4504668E4,8.1753516E3,1.6329315E4,7.437532E3,7.3781934E2,1.0730848E4,5.5984683E3,5.2518184E3,2.1857136E3,1.4053676E2,5.972826E2,3.0339824E3,7.6968647E3,9.3765894E2,4.6608096E3,4.611479E3,6.403393E2,1.651529E2,2.0205607E3,6.8533226E1,7.200353E1,5.296153E2,6.766728E1,1.912107E3,1.1218754E3,1.0161878E3,6.6806772E3,4.4221356E2,4.954454E2,4.452488E3,2.0832172E2,1.6487865E3,2.9626926E3,4.7836606E2,1.6197325E2,5.878518E1,1.06367714E2,1.4519714E1,2.0060409E3,5.7324863E1,1.1208363E1,2.5648573E1,4.635496E1,4.330303E2,9.6585E1,3.5241074E1,3.2426212E1,1.081695E2,1.8039375E3,7.919258E2,3.299496E2,1.8465303E2,8.315348E2,1.7858063E3,4.8948706E3,3.1083004E1,4.1113055E2,5.7408978E1,4.3803644E2,3.777191E3,6.7529663E2,1.8653941E2,2.1782307E1],"tree_param":{"num_deleted":"0","num_feature":"86","num_nodes":"63","size_leaf_vector":"1"}},{"base_weights":[1.4969009E-3,-1.7499423E-1,8.806504E-2,-2.089491E-1,1.6019544E-1,-3.26336E-3,1.17441714E-1,-2.4184398E-1,-1.2855387E-1,1.8017678E-1,-7.642493E-2,-1.0180439E-1,7.2499566E-2,9.652982E-2,1.9105284E-1,-2.84853E-1,-2.1777597E-1,7.5494856E-2,-1.4687371E-1,3.1610942E-1,1.2412695E-1,-3.2875547E-1,1.7560215E-1,-1.3270652E-1,1.0229847E-1,7.821477E-2,-1.7020522E-2,6.3173726E-2,1.359944E-1,1.3509272E-1,2.509667E-1,-8.85588E-3,-5.672464E-3,-6.8499018E-3,-3.7656417E-3,1.4287012E-2,-0E0,-4.6565477E-3,-0E0,2.3458013E-4,1.2118031E-2,-4.5031295E-3,4.6370095E-3,-0E0,-1.37650985E-2,1.1957759E-2,-1.0843793E-3,1.4033237E-4,-4.34677E-3,4.7031865E-3,-5.546075E-3,-1.3333451E-4,3.3888363E-3,4.248084E-3,8.3919964E-4,3.0389174E-3,5.36015E-3,5.828424E-3,2.489738E-4,1.5484282E-3,8.635052E-3],"categories":[],"categories_nodes":[],"categories_segments":[],"categories_sizes":[],"default_left":[0,0,0,0,0,0,0,0,0,0,0,0,0,0,0,0,0,0,0,0,0,0,0,0,0,0,0,0,0,0,0,0,0,0,0,0,0,0,0,0,0,0,0,0,0,0,0,0,0,0,0,0,0,0,0,0,0,0,0,0,0],"id":24,"left_children":[1,3,5,7,9,11,13,15,17,19,21,23,25,27,29,31,33,35,37,39,41,43,45,47,49,51,-1,53,55,57,59,-1,-1,-1,-1,-1,-1,-1,-1,-1,-1,-1,-1,-1,-1,-1,-1,-1,-1,-1,-1,-1,-1,-1,-1,-1,-1,-1,-1,-1,-1],"loss_changes":[3.7293298E2,9.1515076E1,4.4072037E1,1.8861145E1,3.6163063E0,2.9766233E1,1.8770966E1,4.720978E0,8.061123E0,4.694191E0,3.760231E0,1.1013237E1,7.8134108E0,1.2519798E1,8.705231E0,1.2190552E0,2.8368225E0,5.3808155E0,2.3409576E0,4.8143234E0,