{"learner":{"attributes":{"best_iteration":"93","best_score":"0.6909202918461771"},"feature_names":[],"feature_types":[],"gradient_booster":{"model":{"cats":{"enc":[],"feature_segments":[],"sorted_idx":[]},"gbtree_model_param":{"num_parallel_tree":"1","num_trees":"144"},"iteration_indptr":[0,1,2,3,4,5,6,7,8,9,10,11,12,13,14,15,16,17,18,19,20,21,22,23,24,25,26,27,28,29,30,31,32,33,34,35,36,37,38,39,40,41,42,43,44,45,46,47,48,49,50,51,52,53,54,55,56,57,58,59,60,61,62,63,64,65,66,67,68,69,70,71,72,73,74,75,76,77,78,79,80,81,82,83,84,85,86,87,88,89,90,91,92,93,94,95,96,97,98,99,100,101,102,103,104,105,106,107,108,109,110,111,112,113,114,115,116,117,118,119,120,121,122,123,124,125,126,127,128,129,130,131,132,133,134,135,136,137,138,139,140,141,142,143,144],"tree_info":[0,0,0,0,0,0,0,0,0,0,0,0,0,0,0,0,0,0,0,0,0,0,0,0,0,0,0,0,0,0,0,0,0,0,0,0,0,0,0,0,0,0,0,0,0,0,0,0,0,0,0,0,0,0,0,0,0,0,0,0,0,0,0,0,0,0,0,0,0,0,0,0,0,0,0,0,0,0,0,0,0,0,0,0,0,0,0,0,0,0,0,0,0,0,0,0,0,0,0,0,0,0,0,0,0,0,0,0,0,0,0,0,0,0,0,0,0,0,0,0,0,0,0,0,0,0,0,0,0,0,0,0,0,0,0,0,0,0,0,0,0,0,0,0],"trees":[{"base_weights":[9.888237E-4,4.9907833E-2,-3.5296816E-2,3.233628E-2,1.4098981E-1,-5.267866E-2,5.6245815E-2,1.0360812E-2,1.134646E-1,1.457485E-1,-9.935942E-1,-7.416145E-2,3.7681893E-2,1.16520874E-1,2.5355425E-2,-1.235234E-2,6.15374E-2,9.373701E-2,2.4208404E-1,2.0028678E-1,6.360532E-2,-4.231473E-3,-1.0928353E0,-3.6436863E-2,-9.8826095E-2,9.315435E-2,-7.1604652E-3,9.7956516E-2,2.7832937E-1,-2.5872054E-2,6.9428384E-2,-8.4483874E-4,2.0924376E-3,2.5358594E-3,-2.664101E-3,3.9863084E-3,1.6487916E-3,5.317072E-3,2.0644013E-2,6.651449E-3,-2.0099716E-4,1.7391117E-3,2.0045497E-2,-3.7583783E-2,-1.1065332E-2,-1.7032094E-3,-1.0802172E-5,-4.195402E-3,-2.2646943E-3,-9.841273E-4,3.4235069E-3,-2.1782692E-3,6.7713636E-4,3.257929E-3,-1.3999593E-3,9.286651E-3,5.4701953E-4,-1.3829398E-3,6.2100887E-3,3.7225517E-3,6.8401603E-4],"categories":[],"categories_nodes":[],"categories_segments":[],"categories_sizes":[],"default_left":[0,0,0,0,0,0,0,0,0,0,0,0,0,0,0,0,0,0,0,0,0,0,0,0,0,0,0,0,0,0,0,0,0,0,0,0,0,0,0,0,0,0,0,0,0,0,0,0,0,0,0,0,0,0,0,0,0,0,0,0,0],"id":0,"left_children":[1,3,5,7,9,11,13,15,17,19,21,23,25,27,29,31,33,35,37,39,41,-1,43,45,47,49,51,53,55,57,59,-1,-1,-1,-1,-1,-1,-1,-1,-1,-1,-1,-1,-1,-1,-1,-1,-1,-1,-1,-1,-1,-1,-1,-1,-1,-1,-1,-1,-1,-1],"loss_changes":[8.6926074E2,3.3360413E2,4.473507E2,3.1158667E2,1.8149152E2,4.5872528E2,8.336992E1,1.5998009E2,9.4149475E1,1.5014783E2,1.0320572E1,1.774945E2,1.1296727E2,4.518994E1,6.703532E1,1.2363116E2,1.4624681E2,4.8837738E1,1.4196677E2,8.969153E1,4.487858E1,0E0,1.1842499E1,5.5331337E1,1.1025232E2,5.3676178E1,4.8867046E1,2.1052185E1,1.2302132E1,6.444527E1,4.052175E1,0E0,0E0,0E0,0E0,0E0,0E0,0E0,0E0,0E0,0E0,0E0,0E0,0E0,0E0,0E0,0E0,0E0,0E0,0E0,0E0,0E0,0E0,0E0,0E0,0E0,0E0,0E0,0E0,0E0,0E0],"parents":[2147483647,0,0,1,1,2,2,3,3,4,4,5,5,6,6,7,7,8,8,9,9,10,10,11,11,12,12,13,13,14,14,15,15,16,16,17,17,18,18,19,19,20,20,22,22,23,23,24,24,25,25,26,26,27,27,28,28,29,29,30,30],"right_children":[2,4,6,8,10,12,14,16,18,20,22,24,26,28,30,32,34,36,38,40,42,-1,44,46,48,50,52,54,56,58,60,-1,-1,-1,-1,-1,-1,-1,-1,-1,-1,-1,-1,-1,-1,-1,-1,-1,-1,-1,-1,-1,-1,-1,-1,-1,-1,-1,-1,-1,-1],"split_conditions":[-3.9557664E-4,1.4E1,1.1246668E-2,1.1246668E-2,1.9679751E-2,1.4E1,-1.9175915E-1,1.3E1,1.2E1,-4.8680857E-1,-1.1506712E0,2E0,3.7633187E-1,4.94124E-1,5.6925302E-5,9.913661E-3,8.850028E-3,-3.9142963E-2,1.5600569E-2,-2.0551273E-1,1.5600569E-2,-4.231473E-3,6.904137E-1,4.021907E-1,-4.065714E-1,-9.9962646E-1,-4.6038103E-1,1.4E1,1.0463318E0,2.3521308E-2,1.8951602E-1,-8.4483874E-4,2.0924376E-3,2.5358594E-3,-2.664101E-3,3.9863084E-3,1.6487916E-3,5.317072E-3,2.0644013E-2,6.651449E-3,-2.0099716E-4,1.7391117E-3,2.0045497E-2,-3.7583783E-2,-1.1065332E-2,-1.7032094E-3,-1.0802172E-5,-4.195402E-3,-2.2646943E-3,-9.841273E-4,3.4235069E-3,-2.1782692E-3,6.7713636E-4,3.257929E-3,-1.3999593E-3,9.286651E-3,5.4701953E-4,-1.3829398E-3,6.2100887E-3,3.7225517E-3,6.8401603E-4],"split_indices":[83,46,84,84,84,46,29,46,46,71,21,47,71,17,67,84,84,67,84,64,84,0,10,32,48,50,49,46,79,84,50,0,0,0,0,0,0,0,0,0,0,0,0,0,0,0,0,0,0,0,0,0,0,0,0,0,0,0,0,0,0],"split_type":[0,0,0,0,0,0,0,0,0,0,0,0,0,0,0,0,0,0,0,0,0,0,0,0,0,0,0,0,0,0,0,0,0,0,0,0,0,0,0,0,0,0,0,0,0,0,0,0,0,0,0,0,0,0,0,0,0,0,0,0,0],"sum_hessian":[4.8969625E5,2.0855569E5,2.8114056E5,1.7483934E5,3.3716348E4,2.3628688E5,4.485368E4,1.3758567E5,3.725366E4,3.357814E4,1.3820937E2,1.909103E5,4.537658E4,1.5185317E4,2.9668361E4,9.528039E4,4.230529E4,3.2309309E4,4.9443525E3,2.0170834E4,1.3407307E4,1.5966425E1,1.2224294E2,7.54915E4,1.1541879E5,2.0293076E4,2.5083504E4,1.3630836E4,1.5544812E3,1.3710419E4,1.5957942E4,7.990722E4,1.5373173E4,3.6700324E4,5.6049634E3,1.606422E4,1.6245089E4,4.321163E3,6.231895E2,1.8282805E4,1.8880298E3,1.3287309E4,1.19997665E2,9.779435E1,2.4448587E1,4.825877E4,2.7232734E4,4.183253E4,7.358626E4,2.888426E3,1.740465E4,7.845003E3,1.72385E4,1.2703536E4,9.2730005E2,1.3840895E3,1.703917E2,1.2620212E4,1.0902074E3,7.335075E3,8.622867E3],"tree_param":{"num_deleted":"0","num_feature":"86","num_nodes":"61","size_leaf_vector":"1"}},{"base_weights":[-3.4743344E-4,4.715946E-2,-3.5614826E-2,2.9129239E-2,1.406322E-1,-5.2789804E-2,5.5138517E-2,7.4271765E-3,1.0933029E-1,1.4524019E-1,-9.362451E-1,-7.4209474E-2,3.7488777E-2,-1.7846251E-3,1.4514239E-1,6.051928E-2,-1.6187921E-2,2.470192E-1,8.8161014E-2,2.5306946E-1,1.074445E-1,-1.119776E0,-2.8671414E-1,-3.5805833E-2,-9.930259E-2,1.0691786E-1,4.7191366E-4,4.6081442E-2,-9.927451E-2,-1.4105621E-3,1.6123994E-1,2.504019E-3,-2.7097706E-3,1.5686634E-3,-9.84516E-4,5.587571E-3,1.9809341E-2,4.1570314E-3,1.0075186E-3,9.931202E-3,6.712329E-3,2.9832684E-3,1.16113955E-2,-1.086288E-2,-4.0095545E-2,4.120984E-3,-1.567518E-2,-9.5229247E-4,-7.0596854E-3,-3.4084914E-3,-1.2574963E-3,1.3869765E-3,4.404618E-3,1.313748E-4,-1.5875982E-2,1.6233195E-3,-1.3054341E-2,-2.311685E-2,-2.5662978E-3,-1.1695822E-3,2.3320323E-2,1.4075086E-2,4.547743E-3],"categories":[],"categories_nodes":[],"categories_segments":[],"categories_sizes":[],"default_left":[0,0,0,0,0,0,0,0,0,0,0,0,0,0,0,0,0,0,0,0,0,0,0,0,0,0,0,0,0,0,0,0,0,0,0,0,0,0,0,0,0,0,0,0,0,0,0,0,0,0,0,0,0,0,0,0,0,0,0,0,0,0,0],"id":1,"left_children":[1,3,5,7,9,11,13,15,17,19,21,23,25,27,29,31,33,35,37,39,41,43,45,47,49,51,53,55,57,59,61,-1,-1,-1,-1,-1,-1,-1,-1,-1,-1,-1,-1,-1,-1,-1,-1,-1,-1,-1,-1,-1,-1,-1,-1,-1,-1,-1,-1,-1,-1,-1,-1],"loss_changes":[8.2004205E2,3.5126196E2,4.3787924E2,3.0416147E2,1.6675732E2,4.5685236E2,2.2913696E2,1.7256735E2,1.081124E2,1.3639465E2,1.4995285E1,1.8386108E2,1.1629772E2,1.27806946E2,4.1028473E1,1.4669473E2,1.08421646E2,1.23290436E2,8.859624E1,1.9199158E1,5.507434E1,1.5330063E1,4.067236E0,6.0898125E1,9.468042E1,3.791127E1,6.0642784E1,7.058682E1,8.217508E1,4.936996E1,4.5629974E1,0E0,0E0,0E0,0E0,0E0,0E0,0E0,0E0,0E0,0E0,0E0,0E0,0E0,0E0,0E0,0E0,0E0,0E0,0E0,0E0,0E0,0E0,0E0,0E0,0E0,0E0,0E0,0E0,0E0,0E0,0E0,0E0],"parents":[2147483647,0,0,1,1,2,2,3,3,4,4,5,5,6,6,7,7,8,8,9,9,10,10,11,11,12,12,13,13,14,14,15,15,16,16,17,17,18,18,19,19,20,20,21,21,22,22,23,23,24,24,25,25,26,26,27,27,28,28,29,29,30,30],"right_children":[2,4,6,8,10,12,14,16,18,20,22,24,26,28,30,32,34,36,38,40,42,44,46,48,50,52,54,56,58,60,62,-1,-1,-1,-1,-1,-1,-1,-1,-1,-1,-1,-1,-1,-1,-1,-1,-1,-1,-1,-1,-1,-1,-1,-1,-1,-1,-1,-1,-1,-1,-1,-1],"split_conditions":[-3.9557664E-4,1E0,1.1246668E-2,1.1246668E-2,1.9679751E-2,1E0,-3.151811E-1,3E0,4E0,-1.186595E0,3E0,2E0,9.0018705E-2,6.395956E-4,1.1689137E-2,8.850028E-3,1E0,1.5600569E-2,6.0674513E-4,-2.935104E-1,1.3586688E-2,-6.2764627E-3,-4.4832373E-1,1.0982435E-2,-2.790779E-1,2E0,2.7617665E-3,-3.2483545E-1,6.772872E-4,3.966528E-3,-3.0991846E-1,2.504019E-3,-2.7097706E-3,1.5686634E-3,-9.84516E-4,5.587571E-3,1.9809341E-2,4.1570314E-3,1.0075186E-3,9.931202E-3,6.712329E-3,2.9832684E-3,1.16113955E-2,-1.086288E-2,-4.0095545E-2,4.120984E-3,-1.567518E-2,-9.5229247E-4,-7.0596854E-3,-3.4084914E-3,-1.2574963E-3,1.3869765E-3,4.404618E-3,1.313748E-4,-1.5875982E-2,1.6233195E-3,-1.3054341E-2,-2.311685E-2,-2.5662978E-3,-1.1695822E-3,2.3320323E-2,1.4075086E-2,4.547743E-3],"split_indices":[83,69,84,84,84,69,65,70,70,71,47,47,71,82,84,84,47,84,82,65,84,82,18,84,65,47,82,65,82,82,65,0,0,0,0,0,0,0,0,0,0,0,0,0,0,0,0,0,0,0,0,0,0,0,0,0,0,0,0,0,0,0,0],"split_type":[0,0,0,0,0,0,0,0,0,0,0,0,0,0,0,0,0,0,0,0,0,0,0,0,0,0,0,0,0,0,0,0,0,0,0,0,0,0,0,0,0,0,0,0,0,0,0,0,0,0,0,0,0,0,0,0,0,0,0,0,0,0,0],"sum_hessian":[4.894504E5,2.0852631E5,2.809241E5,1.748184E5,3.3707895E4,2.3622972E5,4.469438E4,1.3759928E5,3.7219125E4,3.356692E4,1.4097484E2,1.9093869E5,4.5291035E4,2.737307E4,1.7321309E4,4.2373426E4,9.522586E4,4.9506436E3,3.2268482E4,8.702176E3,2.4864744E4,1.0758748E2,3.338736E1,7.547423E4,1.1546446E5,1.5739373E4,2.9551664E4,1.8352879E4,9.02019E3,1.7083248E3,1.5612982E4,3.678487E4,5.5885547E3,1.8594062E4,7.66318E4,4.3206885E3,6.2995496E2,1.676403E4,1.5504453E4,2.3634597E3,6.3387163E3,2.4179027E4,6.857174E2,2.6145157E1,8.144232E1,1.0713164E1,2.2674196E1,7.39752E4,1.4990216E3,9.239819E4,2.3066268E4,6.2553804E3,9.483993E3,2.9339107E4,2.1255548E2,1.8055479E4,2.9740057E2,1.7714093E2,8.84305E3,1.6327285E3,7.559643E1,4.683026E2,1.514468E4],"tree_param":{"num_deleted":"0","num_feature":"86","num_nodes":"63","size_leaf_vector":"1"}},{"base_weights":[1.939216E-4,4.5431066E-2,-3.33403E-2,1.4107718E-2,9.7517096E-2,-4.593953E-2,2.7973725E-2,2.4862732E-1,6.7992066E-3,1.8003266E-1,6.8633266E-2,1.4454609E-1,-5.28931E-2,9.332021E-2,-6.4591058E-3,6.265848E-2,4.1077098E-1,6.1806783E-2,-8.646931E-3,1.3605905E-1,2.3855297E-1,8.796389E-2,-7.022025E-3,8.472947E-2,2.7971628E-1,-5.761819E-2,1.1416929E-1,-1.3450806E-1,1.0509692E-1,1.4626822E-2,-9.182921E-2,-1.7252827E-2,5.890069E-3,1.8498247E-2,4.848119E-3,1.6811235E-2,1.7473213E-3,1.4084849E-3,-6.622933E-4,5.406785E-3,2.072634E-3,7.5300746E-3,1.661267E-3,3.10865E-3,1.8260717E-4,7.307039E-4,-9.291899E-3,-1.0356061E-3,4.491075E-3,4.533678E-2,7.077488E-3,-1.073143E-3,-2.7030567E-3,1.971802E-3,1.1306625E-2,-1.6884977E-3,-1.2817774E-2,3.213137E-3,-2.8155226E-2,3.4506375E-4,1.6727557E-2,-2.4711033E-3,-3.880584E-2],"categories":[],"categories_nodes":[],"categories_segments":[],"categories_sizes":[],"default_left":[0,0,0,0,0,0,0,0,0,0,0,0,0,0,0,0,0,0,0,0,0,0,0,0,0,0,0,0,0,0,0,0,0,0,0,0,0,0,0,0,0,0,0,0,0,0,0,0,0,0,0,0,0,0,0,0,0,0,0,0,0,0,0],"id":2,"left_children":[1,3,5,7,9,11,13,15,17,19,21,23,25,27,29,31,33,35,37,39,41,43,45,47,49,51,53,55,57,59,61,-1,-1,-1,-1,-1,-1,-1,-1,-1,-1,-1,-1,-1,-1,-1,-1,-1,-1,-1,-1,-1,-1,-1,-1,-1,-1,-1,-1,-1,-1,-1,-1],"loss_changes":[7.423633E2,3.3979385E2,2.171091E2,2.2275644E2,1.8617041E2,3.0871652E2,1.0784331E2,1.1792253E2,1.07270966E2,5.1729065E1,8.484137E1,6.5937225E1,1.7750934E2,4.436725E1,5.6522976E1,1.5627548E2,1.0648355E2,4.8482742E1,7.352863E1,3.4006256E1,1.9472351E1,5.908258E1,1.1225179E2,4.4263065E1,1.3300409E2,1.5510364E2,7.817849E1,1.8005741E1,3.232486E1,4.20652E1,6.911693E1,0E0,0E0,0E0,0E0,0E0,0E0,0E0,0E0,0E0,0E0,0E0,0E0,0E0,0E0,0E0,0E0,0E0,0E0,0E0,0E0,0E0,0E0,0E0,0E0,0E0,0E0,0E0,0E0,0E0,0E0,0E0,0E0],"parents":[2147483647,0,0,1,1,2,2,3,3,4,4,5,5,6,6,7,7,8,8,9,9,10,10,11,11,12,12,13,13,14,14,15,15,16,16,17,17,18,18,19,19,20,20,21,21,22,22,23,23,24,24,25,25,26,26,27,27,28,28,29,29,30,30],"right_children":[2,4,6,8,10,12,14,16,18,20,22,24,26,28,30,32,34,36,38,40,42,44,46,48,50,52,54,56,58,60,62,-1,-1,-1,-1,-1,-1,-1,-1,-1,-1,-1,-1,-1,-1,-1,-1,-1,-1,-1,-1,-1,-1,-1,-1,-1,-1,-1,-1,-1,-1,-1,-1],"split_conditions":[-3.9557664E-4,1.3E1,1.4E1,-3.395141E-3,-1.186595E0,-2.8188159E-3,7.693659E-2,-2.2296347E-1,-5.181649E-1,1.4E1,4E0,1.2E1,3.5839612E-3,-2.664996E-3,4E0,-9.859245E-3,3E0,-9.924866E-4,1E0,3E0,1.7198664E0,-2.126914E-1,-1.4759474E-1,-2.3488423E-1,-9.859245E-3,3E0,7.6578567E-3,-2.9702643E-3,5E0,3.5839612E-3,2.7617665E-3,-1.7252827E-2,5.890069E-3,1.8498247E-2,4.848119E-3,1.6811235E-2,1.7473213E-3,1.4084849E-3,-6.622933E-4,5.406785E-3,2.072634E-3,7.5300746E-3,1.661267E-3,3.10865E-3,1.8260717E-4,7.307039E-4,-9.291899E-3,-1.0356061E-3,4.491075E-3,4.533678E-2,7.077488E-3,-1.073143E-3,-2.7030567E-3,1.971802E-3,1.1306625E-2,-1.6884977E-3,-1.2817774E-2,3.213137E-3,-2.8155226E-2,3.4506375E-4,1.6727557E-2,-2.4711033E-3,-3.880584E-2],"split_indices":[83,46,46,82,71,82,71,64,64,46,47,46,82,82,47,82,47,82,47,47,30,64,64,64,82,47,66,82,47,82,82,0,0,0,0,0,0,0,0,0,0,0,0,0,0,0,0,0,0,0,0,0,0,0,0,0,0,0,0,0,0,0,0],"split_type":[0,0,0,0,0,0,0,0,0,0,0,0,0,0,0,0,0,0,0,0,0,0,0,0,0,0,0,0,0,0,0,0,0,0,0,0,0,0,0,0,0,0,0,0,0,0,0,0,0,0,0,0,0,0,0,0,0,0,0,0,0,0,0],"sum_hessian":[4.8935322E5,2.0833784E5,2.8101538E5,1.3011274E5,7.822509E4,2.3312753E5,4.788784E4,3.9261267E3,1.2618662E5,2.027065E4,5.795444E4,8.20401E3,2.2492352E5,1.6534447E4,3.135339E4,1.8328735E3,2.0932532E3,2.767779E4,9.850883E4,1.1587362E4,8.683288E3,4.617038E4,1.1784064E4,5.6946284E3,2.5093818E3,2.18744E5,6.179522E3,8.074785E2,1.572697E4,2.5135105E4,6.2182837E3,3.1516864E2,1.517705E3,1.1424833E3,9.5077E2,1.9217125E2,2.748562E4,1.915017E4,7.935866E4,6.971433E3,4.6159287E3,8.1248867E3,5.584014E2,3.87477E4,7.422679E3,1.0675929E4,1.1081353E3,2.0033263E3,3.691302E3,8.309832E1,2.4262834E3,1.3080604E5,8.793796E4,5.2227983E3,9.5672394E2,6.4178906E2,1.656894E2,1.56995205E4,2.7449245E1,2.4995145E4,1.3996158E2,6.172665E3,4.561854E1],"tree_param":{"num_deleted":"0","num_feature":"86","num_nodes":"63","size_leaf_vector":"1"}},{"base_weights":[-8.2156487E-4,4.3402605E-2,-3.3624988E-2,1.4945015E-2,9.0761065E-2,-5.0267417E-2,5.387054E-2,-2.9555371E-2,9.035309E-2,1.0670558E-1,-2.5578277E-2,-6.966347E-2,3.152366E-2,-2.6932904E-3,1.4279456E-1,4.2630024E-2,-4.7105644E-2,2.5598866E-1,7.642834E-2,1.0155563E-1,7.796977E-1,-3.0910056E-2,4.645624E-2,-1.2459739E-2,-8.3474405E-2,8.647076E-2,-9.921938E-4,5.20493E-2,-1.14154376E-1,-6.7065433E-3,1.5932631E-1,1.5900308E-3,-4.9901837E-3,-1.317974E-3,-1.3496039E-2,1.4654895E-2,8.7805E-4,2.0367862E-3,1.118819E-2,3.9945566E-3,1.8409634E-3,5.1283587E-2,1.7399004E-2,-5.425785E-4,-2.4093185E-2,-1.4465218E-4,-9.404446E-3,-2.946486E-3,-7.2234194E-4,-1.12839E-3,3.2327722E-3,6.738062E-5,-1.6752265E-2,1.7981969E-3,-1.2768904E-2,-2.3409292E-2,-3.029937E-3,-1.1544198E-3,1.9516286E-2,1.4367469E-2,4.4800555E-3],"categories":[],"categories_nodes":[],"categories_segments":[],"categories_sizes":[],"default_left":[0,0,0,0,0,0,0,0,0,0,0,0,0,0,0,0,0,0,0,0,0,0,0,0,0,0,0,0,0,0,0,0,0,0,0,0,0,0,0,0,0,0,0,0,0,0,0,0,0,0,0,0,0,0,0,0,0,0,0,0,0],"id":3,"left_children":[1,3,5,7,9,11,13,15,17,19,21,23,25,27,29,31,33,35,37,39,41,43,-1,45,47,49,51,53,55,57,59,-1,-1,-1,-1,-1,-1,-1,-1,-1,-1,-1,-1,-1,-1,-1,-1,-1,-1,-1,-1,-1,-1,-1,-1,-1,-1,-1,-1,-1,-1],"loss_changes":[7.101963E2,2.808532E2,4.0930154E2,4.3710632E2,1.4521442E2,3.747174E2,2.260433E2,1.0376245E2,1.11128235E2,2.374646E2,7.76739E1,1.5073193E2,8.095458E1,1.6753984E2,4.3327484E1,3.4595577E1,8.367952E1,1.9673857E2,1.1239108E2,8.6515686E1,9.244461E1,9.218545E1,0E0,8.508392E1,1.345166E2,4.4558212E1,5.1868843E1,6.904346E1,7.8247055E1,3.5674786E1,4.9471344E1,0E0,0E0,0E0,0E0,0E0,0E0,0E0,0E0,0E0,0E0,0E0,0E0,0E0,0E0,0E0,0E0,0E0,0E0,0E0,0E0,0E0,0E0,0E0,0E0,0E0,0E0,0E0,0E0,0E0,0E0],"parents":[2147483647,0,0,1,1,2,2,3,3,4,4,5,5,6,6,7,7,8,8,9,9,10,10,11,11,12,12,13,13,14,14,15,15,16,16,17,17,18,18,19,19,20,20,21,21,23,23,24,24,25,25,26,26,27,27,28,28,29,29,30,30],"right_children":[2,4,6,8,10,12,14,16,18,20,22,24,26,28,30,32,34,36,38,40,42,44,-1,46,48,50,52,54,56,58,60,-1,-1,-1,-1,-1,-1,-1,-1,-1,-1,-1,-1,-1,-1,-1,-1,-1,-1,-1,-1,-1,-1,-1,-1,-1,-1,-1,-1,-1,-1],"split_conditions":[-3.9557664E-4,1.3E1,1.1246668E-2,1.0069901E-2,-2.0551273E-1,1.4E1,-3.151811E-1,1E0,-3.395141E-3,1.5059055E-2,6.8623265E-3,1E0,-2.042932E-1,6.395956E-4,1.1689137E-2,9.776724E-3,2.1530932E-3,1.895357E-2,2.1871196E-2,-4.0714386E-1,-1.6850886E-3,1.9679751E-2,4.645624E-2,1.0982435E-2,-2.790779E-1,-9.9962646E-1,2.7617665E-3,-3.2483545E-1,6.772872E-4,3.966528E-3,-3.0991846E-1,1.5900308E-3,-4.9901837E-3,-1.317974E-3,-1.3496039E-2,1.4654895E-2,8.7805E-4,2.0367862E-3,1.118819E-2,3.9945566E-3,1.8409634E-3,5.1283587E-2,1.7399004E-2,-5.425785E-4,-2.4093185E-2,-1.4465218E-4,-9.404446E-3,-2.946486E-3,-7.2234194E-4,-1.12839E-3,3.2327722E-3,6.738062E-5,-1.6752265E-2,1.7981969E-3,-1.2768904E-2,-2.3409292E-2,-3.029937E-3,-1.1544198E-3,1.9516286E-2,1.4367469E-2,4.4800555E-3],"split_indices":[83,46,84,84,64,46,65,47,82,84,82,47,72,82,84,84,82,84,84,9,82,84,0,84,65,50,82,65,82,82,65,0,0,0,0,0,0,0,0,0,0,0,0,0,0,0,0,0,0,0,0,0,0,0,0,0,0,0,0,0,0],"split_type":[0,0,0,0,0,0,0,0,0,0,0,0,0,0,0,0,0,0,0,0,0,0,0,0,0,0,0,0,0,0,0,0,0,0,0,0,0,0,0,0,0,0,0,0,0,0,0,0,0,0,0,0,0,0,0,0,0,0,0,0,0],"sum_hessian":[4.895555E5,2.0847173E5,2.8108378E5,1.302366E5,7.8235125E4,2.3617372E5,4.491006E4,8.1895664E4,4.834094E4,6.881295E4,9.422178E3,1.9091289E5,4.5260836E4,2.744391E4,1.7466148E4,1.6005242E4,6.589042E4,3.740533E3,4.4600406E4,6.829413E4,5.188209E2,9.392958E3,2.9219353E1,3.7143566E4,1.5376931E5,1.6836691E4,2.8424143E4,1.8399395E4,9.044517E3,1.7331854E3,1.5732964E4,1.5254452E4,7.507896E2,6.5380027E4,5.1039746E2,1.8433783E3,1.8971548E3,4.3358117E4,1.2422894E3,3.821846E4,3.0075668E4,8.818624E1,4.306347E2,9.242802E3,1.501563E2,3.6229645E4,9.139216E2,1.23178945E5,3.0590371E4,2.4584644E3,1.4378228E4,2.8260168E4,1.6397456E2,1.810418E4,2.952134E2,1.7143767E2,8.873079E3,1.6565074E3,7.667794E1,4.7106024E2,1.5261903E4],"tree_param":{"num_deleted":"0","num_feature":"86","num_nodes":"61","size_leaf_vector":"1"}},{"base_weights":[9.238548E-4,4.4907223E-2,-3.1175833E-2,1.3021469E-1,2.8477836E-2,-4.7449466E-2,5.466497E-2,1.3474086E-1,-9.3297565E-1,8.3240345E-3,1.0241254E-1,3.0954612E-2,-6.608547E-2,1.8932052E-3,1.3760908E-1,1.8125686E-1,6.389118E-2,-8.939579E-2,-1.0933299E0,5.805806E-2,-1.3771702E-2,2.3106012E-1,8.269828E-2,8.244823E-2,-1.6418425E-2,-3.0109085E-2,-8.9595236E-2,5.321717E-2,-1.0206511E-1,1.254096E-1,3.6565578E-1,6.083016E-3,-8.198444E-4,1.7066991E-3,1.5045556E-2,9.085066E-3,-1.961025E-2,-3.730088E-2,-1.4277348E-2,2.4092183E-3,-2.6002962E-3,1.6098312E-3,-9.032748E-4,4.9232803E-3,1.7859915E-2,3.8095552E-3,1.0464694E-3,6.3501496E-4,3.6896404E-3,-1.6412722E-3,8.337785E-4,-1.5094947E-3,5.029905E-4,-3.1052649E-3,-1.0357331E-3,1.8125453E-3,-1.1377813E-2,-1.8664323E-2,-2.5016097E-3,1.1897274E-2,3.4898543E-3,-2.4803014E-2,1.349177E-2],"categories":[],"categories_nodes":[],"categories_segments":[],"categories_sizes":[],"default_left":[0,0,0,0,0,0,0,0,0,0,0,0,0,0,0,0,0,0,0,0,0,0,0,0,0,0,0,0,0,0,0,0,0,0,0,0,0,0,0,0,0,0,0,0,0,0,0,0,0,0,0,0,0,0,0,0,0,0,0,0,0,0,0],"id":4,"left_children":[1,3,5,7,9,11,13,15,17,19,21,23,25,27,29,31,33,35,37,39,41,43,45,47,49,51,53,55,57,59,61,-1,-1,-1,-1,-1,-1,-1,-1,-1,-1,-1,-1,-1,-1,-1,-1,-1,-1,-1,-1,-1,-1,-1,-1,-1,-1,-1,-1,-1,-1,-1,-1],"loss_changes":[6.908533E2,2.8919275E2,3.9513394E2,1.5984308E2,2.578601E2,3.474845E2,1.9713287E2,1.091189E2,1.7641724E1,1.4956026E2,9.367319E1,1.1144587E2,1.6238214E2,1.4697739E2,4.8151276E1,9.004205E1,3.9725662E1,6.4199386E0,7.9328156E0,1.3482942E2,1.037489E2,1.1899698E2,6.7925476E1,5.422673E1,4.0272385E1,7.1981575E1,8.887799E1,5.7199535E1,8.7602356E1,4.035846E1,8.901562E1,0E0,0E0,0E0,0E0,0E0,0E0,0E0,0E0,0E0,0E0,0E0,0E0,0E0,0E0,0E0,0E0,0E0,0E0,0E0,0E0,0E0,0E0,0E0,0E0,0E0,0E0,0E0,0E0,0E0,0E0,0E0,0E0],"parents":[2147483647,0,0,1,1,2,2,3,3,4,4,5,5,6,6,7,7,8,8,9,9,10,10,11,11,12,12,13,13,14,14,15,15,16,16,17,17,18,18,19,19,20,20,21,21,22,22,23,23,24,24,25,25,26,26,27,27,28,28,29,29,30,30],"right_children":[2,4,6,8,10,12,14,16,18,20,22,24,26,28,30,32,34,36,38,40,42,44,46,48,50,52,54,56,58,60,62,-1,-1,-1,-1,-1,-1,-1,-1,-1,-1,-1,-1,-1,-1,-1,-1,-1,-1,-1,-1,-1,-1,-1,-1,-1,-1,-1,-1,-1,-1,-1,-1],"split_conditions":[-4.1302282E-4,2E0,1.1246668E-2,1.9679751E-2,1.1246668E-2,2E0,-3.151811E-1,-4.8680857E-1,-1.1491996E0,3E0,4E0,4.5348206E-1,2E0,6.395956E-4,2.3521308E-2,-2.0551273E-1,1.5059055E-2,-6.8916017E-1,3E0,8.850028E-3,1E0,1.5059055E-2,6.0674513E-4,2E0,-1.032583E-1,5.725855E-1,-2.790779E-1,-3.2483545E-1,7.0391956E-4,-3.0991846E-1,2E0,6.083016E-3,-8.198444E-4,1.7066991E-3,1.5045556E-2,9.085066E-3,-1.961025E-2,-3.730088E-2,-1.4277348E-2,2.4092183E-3,-2.6002962E-3,1.6098312E-3,-9.032748E-4,4.9232803E-3,1.7859915E-2,3.8095552E-3,1.0464694E-3,6.3501496E-4,3.6896404E-3,-1.6412722E-3,8.337785E-4,-1.5094947E-3,5.029905E-4,-3.1052649E-3,-1.0357331E-3,1.8125453E-3,-1.1377813E-2,-1.8664323E-2,-2.5016097E-3,1.1897274E-2,3.4898543E-3,-2.4803014E-2,1.349177E-2],"split_indices":[83,70,84,84,84,70,65,71,20,70,70,71,47,82,84,64,84,18,47,84,47,84,82,47,49,32,65,65,82,65,70,0,0,0,0,0,0,0,0,0,0,0,0,0,0,0,0,0,0,0,0,0,0,0,0,0,0,0,0,0,0,0,0],"split_type":[0,0,0,0,0,0,0,0,0,0,0,0,0,0,0,0,0,0,0,0,0,0,0,0,0,0,0,0,0,0,0,0,0,0,0,0,0,0,0,0,0,0,0,0,0,0,0,0,0,0,0,0,0,0,0,0,0,0,0,0,0,0,0],"sum_hessian":[4.893103E5,2.064544E5,2.828559E5,3.332806E4,1.7312634E5,2.3778866E5,4.5067242E4,3.3189453E4,1.3860533E2,1.3605498E5,3.7071367E4,4.565543E4,1.9213322E5,2.7551912E4,1.7515328E4,2.0024943E4,1.316451E4,2.3632488E1,1.1497284E2,4.186514E4,9.418984E4,4.916438E3,3.215493E4,2.1885705E4,2.3769727E4,7.595236E4,1.1618087E5,1.8452535E4,9.099376E3,1.6633021E4,8.8230676E2,1.815732E4,1.8676239E3,1.2961691E4,2.0281744E2,1.3442831E1,1.0189657E1,8.956197E1,2.5410864E1,3.6293715E4,5.571425E3,1.8356742E4,7.58331E4,4.1578887E3,7.585494E2,1.6680922E4,1.5474008E4,8.724787E3,1.3160917E4,1.2749598E4,1.1020128E4,5.3087984E4,2.2864377E4,9.273222E4,2.3448646E4,1.815429E4,2.9824704E2,3.11369E2,8.788007E3,5.326425E2,1.610038E4,5.616175E1,8.26145E2],"tree_param":{"num_deleted":"0","num_feature":"86","num_nodes":"63","size_leaf_vector":"1"}},{"base_weights":[-7.940843E-4,4.113461E-2,-3.238411E-2,2.4432031E-2,1.2738283E-1,-4.806816E-2,4.9686536E-2,5.6690355E-3,9.782146E-2,1.3168405E-1,-8.873627E-1,-6.562497E-2,2.5876563E-2,8.415902E-2,3.8078686E-3,-1.5833722E-2,5.4393996E-2,7.750463E-2,2.34876E-1,2.422482E-1,9.5940106E-2,-1.5293024E-1,-1.0569465E0,-4.3605242E-2,-9.851967E-2,8.240153E-2,-1.5255636E-2,5.819442E-2,1.5806694E-1,-1.9013487E-2,1.04596846E-1,1.3924716E-3,-9.292907E-4,2.2758606E-3,-2.44304E-3,3.5954348E-3,1.135426E-3,4.9865204E-3,1.7449971E-2,6.8249437E-4,7.8316135E-3,2.6218635E-3,1.1879531E-2,-2.3222128E-2,1.1172552E-2,-3.4524E-2,-0E0,-3.9234897E-3,-1.0849468E-3,-3.928796E-3,-1.4859975E-3,5.72809E-4,3.7167692E-3,-1.8046112E-3,9.89599E-4,3.3388112E-3,7.788604E-4,4.2416276E-3,1.0728273E-2,-3.6905115E-4,-7.2122267E-3,5.0206427E-3,-4.943566E-3],"categories":[],"categories_nodes":[],"categories_segments":[],"categories_sizes":[],"default_left":[0,0,0,0,0,0,0,0,0,0,0,0,0,0,0,0,0,0,0,0,0,0,0,0,0,0,0,0,0,0,0,0,0,0,0,0,0,0,0,0,0,0,0,0,0,0,0,0,0,0,0,0,0,0,0,0,0,0,0,0,0,0,0],"id":5,"left_children":[1,3,5,7,9,11,13,15,17,19,21,23,25,27,29,31,33,35,37,39,41,43,45,47,49,51,53,55,57,59,61,-1,-1,-1,-1,-1,-1,-1,-1,-1,-1,-1,-1,-1,-1,-1,-1,-1,-1,-1,-1,-1,-1,-1,-1,-1,-1,-1,-1,-1,-1,-1,-1],"loss_changes":[6.483077E2,3.0280066E2,3.593437E2,2.425206E2,1.4835321E2,3.0433057E2,7.073439E1,1.4707256E2,9.951596E1,1.3385736E2,1.6307922E1,1.370556E2,1.04608826E2,4.8807465E1,4.43132E1,9.175523E1,1.2534531E2,5.2297653E1,1.0912787E2,3.392575E1,6.5284256E1,1.0870811E1,1.0325211E1,7.343721E1,1.2047882E2,4.962439E1,5.638267E1,3.2248077E1,2.1475616E1,2.3026838E1,6.020981E1,0E0,0E0,0E0,0E0,0E0,0E0,0E0,0E0,0E0,0E0,0E0,0E0,0E0,0E0,0E0,0E0,0E0,0E0,0E0,0E0,0E0,0E0,0E0,0E0,0E0,0E0,0E0,0E0,0E0,0E0,0E0,0E0],"parents":[2147483647,0,0,1,1,2,2,3,3,4,4,5,5,6,6,7,7,8,8,9,9,10,10,11,11,12,12,13,13,14,14,15,15,16,16,17,17,18,18,19,19,20,20,21,21,22,22,23,23,24,24,25,25,26,26,27,27,28,28,29,29,30,30],"right_children":[2,4,6,8,10,12,14,16,18,20,22,24,26,28,30,32,34,36,38,40,42,44,46,48,50,52,54,56,58,60,62,-1,-1,-1,-1,-1,-1,-1,-1,-1,-1,-1,-1,-1,-1,-1,-1,-1,-1,-1,-1,-1,-1,-1,-1,-1,-1,-1,-1,-1,-1,-1,-1],"split_conditions":[-3.7809723E-4,1.4E1,1.1246668E-2,1.1411458E-2,1.9679751E-2,1.4E1,3.3536613E-1,1.3E1,1.2E1,-1.2156729E0,-7.9825515E-1,3E0,3.109655E-1,4.9832588E-1,1.2E1,1E0,8.850028E-3,-3.9142963E-2,1.5059055E-2,-1.5211896E0,1.3586688E-2,-4.9124092E-1,1.5271546E0,-1.4027637E0,-2.004499E-1,2E0,-1.4563307E-1,1.2913583E-2,1.7774614E-2,6.7613757E-1,4E0,1.3924716E-3,-9.292907E-4,2.2758606E-3,-2.44304E-3,3.5954348E-3,1.135426E-3,4.9865204E-3,1.7449971E-2,6.8249437E-4,7.8316135E-3,2.6218635E-3,1.1879531E-2,-2.3222128E-2,1.1172552E-2,-3.4524E-2,-0E0,-3.9234897E-3,-1.0849468E-3,-3.928796E-3,-1.4859975E-3,5.72809E-4,3.7167692E-3,-1.8046112E-3,9.89599E-4,3.3388112E-3,7.788604E-4,4.2416276E-3,1.0728273E-2,-3.6905115E-4,-7.2122267E-3,5.0206427E-3,-4.943566E-3],"split_indices":[83,46,84,84,84,46,11,46,46,71,26,47,71,67,46,47,84,67,84,50,84,9,40,50,48,47,49,84,84,25,47,0,0,0,0,0,0,0,0,0,0,0,0,0,0,0,0,0,0,0,0,0,0,0,0,0,0,0,0,0,0,0,0],"split_type":[0,0,0,0,0,0,0,0,0,0,0,0,0,0,0,0,0,0,0,0,0,0,0,0,0,0,0,0,0,0,0,0,0,0,0,0,0,0,0,0,0,0,0,0,0,0,0,0,0,0,0,0,0,0,0,0,0,0,0,0,0,0,0],"sum_hessian":[4.8946556E5,2.1030303E5,2.7916253E5,1.7619566E5,3.410738E4,2.343838E5,4.477872E4,1.4033333E5,3.5862324E4,3.3966133E4,1.4124684E2,1.8942264E5,4.496116E4,2.5554229E4,1.9224492E4,9.73519E4,4.298143E4,3.1241537E4,4.620788E3,8.288472E3,2.567766E4,2.8316076E1,1.1293076E2,1.1348847E5,7.593417E4,1.8946576E4,2.6014586E4,1.8923365E4,6.6308623E3,1.5668435E4,3.5560574E3,1.9034271E4,7.8317625E4,3.71224E4,5.859033E3,1.5094923E4,1.6146615E4,3.8620146E3,7.5877325E2,6.58624E2,7.629847E3,2.4972412E4,7.0524817E2,1.3413442E1,1.4902635E1,1.02745316E2,1.0185453E1,8.911053E3,1.04577414E5,4.5667855E4,3.0266314E4,7.5118257E3,1.143475E4,1.34848E4,1.2529785E4,7.134365E3,1.1789E4,6.1271353E3,5.0372705E2,1.521384E4,4.5459476E2,2.8877654E3,6.68292E2],"tree_param":{"num_deleted":"0","num_feature":"86","num_nodes":"63","size_leaf_vector":"1"}},{"base_weights":[6.0884363E-4,4.906138E-2,-2.3496505E-2,3.2207772E-2,1.3521957E-1,-4.4982683E-2,3.3335514E-2,1.5318935E-2,1.0351527E-1,1.394627E-1,-9.0864366E-1,-6.57233E-2,3.5385005E-2,1.2839441E-1,2.4089528E-2,3.0962643E-1,1.2487533E-2,1.4004229E-1,4.822057E-2,1.8111506E-1,5.206755E-2,-2.2900521E-3,-1.046403E0,2.2018747E-3,-8.221692E-2,3.8760718E-2,-7.207153E-1,2.0094675E-1,8.560212E-3,1.8503495E-2,2.5642374E-1,1.7538967E-2,7.929819E-4,2.1241496E-3,-5.3612723E-5,3.2565496E-3,9.503339E-3,-7.591394E-4,3.4745766E-3,6.139791E-3,-1.9564035E-3,1.3546997E-3,2.3557702E-2,-3.7296627E-2,-1.1218908E-2,-8.643665E-6,1.7978769E-2,-7.2423583E-3,-2.300734E-3,9.552803E-4,1.6261704E-2,-3.6368337E-2,-7.751864E-3,7.7240868E-3,-2.8721145E-3,1.06364675E-2,-1.532655E-3,1.2868374E-3,-4.4473558E-4,-4.867676E-2,8.466999E-3],"categories":[],"categories_nodes":[],"categories_segments":[],"categories_sizes":[],"default_left":[0,0,0,0,0,0,0,0,0,0,0,0,0,0,0,0,0,0,0,0,0,0,0,0,0,0,0,0,0,0,0,0,0,0,0,0,0,0,0,0,0,0,0,0,0,0,0,0,0,0,0,0,0,0,0,0,0,0,0,0,0],"id":6,"left_children":[1,3,5,7,9,11,13,15,17,19,21,23,25,27,29,31,33,35,37,39,41,-1,43,45,47,49,51,53,55,57,59,-1,-1,-1,-1,-1,-1,-1,-1,-1,-1,-1,-1,-1,-1,-1,-1,-1,-1,-1,-1,-1,-1,-1,-1,-1,-1,-1,-1,-1,-1],"loss_changes":[5.7184753E2,2.3602716E2,3.992204E2,1.637408E2,1.17316345E2,3.954954E2,7.866033E1,9.135279E1,5.239966E1,9.620709E1,1.0987305E1,2.1136389E2,1.2356854E2,6.8813614E1,1.05800514E2,8.073852E1,9.079092E1,8.672525E1,5.1658054E1,1.04194885E2,4.2488884E1,0E0,9.447266E0,5.5366238E1,1.3314075E2,1.680697E2,4.677761E1,8.305162E1,6.2280872E1,6.492175E1,9.24348E1,0E0,0E0,0E0,0E0,0E0,0E0,0E0,0E0,0E0,0E0,0E0,0E0,0E0,0E0,0E0,0E0,0E0,0E0,0E0,0E0,0E0,0E0,0E0,0E0,0E0,0E0,0E0,0E0,0E0,0E0],"parents":[2147483647,0,0,1,1,2,2,3,3,4,4,5,5,6,6,7,7,8,8,9,9,10,10,11,11,12,12,13,13,14,14,15,15,16,16,17,17,18,18,19,19,20,20,22,22,23,23,24,24,25,25,26,26,27,27,28,28,29,29,30,30],"right_children":[2,4,6,8,10,12,14,16,18,20,22,24,26,28,30,32,34,36,38,40,42,-1,44,46,48,50,52,54,56,58,60,-1,-1,-1,-1,-1,-1,-1,-1,-1,-1,-1,-1,-1,-1,-1,-1,-1,-1,-1,-1,-1,-1,-1,-1,-1,-1,-1,-1,-1,-1],"split_conditions":[-3.3276582E-1,1E0,9.727691E-3,1.1411458E-2,1.9679751E-2,1E0,-3.1647554E-3,-2.9702643E-3,3E0,-4.1515097E-1,-1.2249051E0,1E0,2.7617665E-3,1.895357E-2,2.1871196E-2,3E0,1E0,-1.9387329E-1,4E0,-2.01314E-1,1.5600569E-2,-2.2900521E-3,6.6540575E-1,9.68754E-3,-1.8377722E-3,1.9656818E-3,-3.2547664E-2,1E0,-2.9915967E-5,3E0,-2.9702643E-3,1.7538967E-2,7.929819E-4,2.1241496E-3,-5.3612723E-5,3.2565496E-3,9.503339E-3,-7.591394E-4,3.4745766E-3,6.139791E-3,-1.9564035E-3,1.3546997E-3,2.3557702E-2,-3.7296627E-2,-1.1218908E-2,-8.643665E-6,1.7978769E-2,-7.2423583E-3,-2.300734E-3,9.552803E-4,1.6261704E-2,-3.6368337E-2,-7.751864E-3,7.7240868E-3,-2.8721145E-3,1.06364675E-2,-1.532655E-3,1.2868374E-3,-4.4473558E-4,-4.867676E-2,8.466999E-3],"split_indices":[0,69,84,84,84,69,82,82,47,71,20,47,82,84,84,47,47,64,47,64,84,0,40,84,82,82,31,69,67,47,82,0,0,0,0,0,0,0,0,0,0,0,0,0,0,0,0,0,0,0,0,0,0,0,0,0,0,0,0,0,0],"split_type":[0,0,0,0,0,0,0,0,0,0,0,0,0,0,0,0,0,0,0,0,0,0,0,0,0,0,0,0,0,0,0,0,0,0,0,0,0,0,0,0,0,0,0,0,0,0,0,0,0,0,0,0,0,0,0,0,0,0,0,0,0],"sum_hessian":[4.895842E5,1.6266388E5,3.2692028E5,1.3606269E5,2.660119E4,2.3724453E5,8.9675766E4,1.10021164E5,2.604153E4,2.6496178E4,1.0501178E2,1.8858811E5,4.8656418E4,7.9373335E3,8.173843E4,1.0429486E3,1.0897821E5,1.5669375E4,1.0372154E4,1.7934867E4,8.561311E3,1.6384985E1,8.86268E1,3.6834566E4,1.5175355E5,4.8443355E4,2.1306187E2,4.937985E3,2.9993486E3,7.982564E4,1.9127922E3,5.26252E2,5.166966E2,2.1441867E4,8.753634E4,1.3307194E4,2.36218E3,4.961799E3,5.4103555E3,1.6374184E4,1.5606842E3,8.484822E3,7.648912E1,6.609618E1,2.2530615E1,3.6681918E4,1.5264732E2,5.0818403E3,1.466717E5,4.7790566E4,6.527903E2,1.0064428E2,1.12417595E2,4.150824E3,7.8716046E2,4.4206345E2,2.5572852E3,4.6109707E4,3.371593E4,2.3716417E1,1.8890758E3],"tree_param":{"num_deleted":"0","num_feature":"86","num_nodes":"61","size_leaf_vector":"1"}},{"base_weights":[-6.378191E-5,3.8945418E-2,-2.952657E-2,1.0962428E-2,8.3504E-2,-5.020333E-2,2.4708986E-2,-3.1572178E-2,8.427916E-2,1.4145939E-1,5.448378E-2,-9.0917446E-2,-6.418502E-3,-1.0070997E-2,8.269464E-2,-2.990286E-2,-7.5737005E-1,2.458874E-1,7.1733974E-2,1.0446744E-1,1.9066475E-1,6.921236E-2,-2.4534931E-2,-1.3093098E-1,-6.455563E-2,-8.3204085E-4,-2.5466263E-1,3.377953E-2,-6.812106E-2,1.9684532E-3,1.3858655E-1,1.0611954E-3,-1.3243163E-3,-2.6241131E-2,6.561701E-3,1.4239432E-2,5.7406025E-5,1.9202003E-3,1.1444059E-2,3.0175769E-3,2.3215367E-2,5.896092E-3,-1.1159023E-2,1.9285703E-3,2.1842554E-2,-8.7888975E-4,4.6565708E-2,-2.7133888E-3,-4.841816E-3,-2.5755018E-3,-7.206024E-4,1.5197323E-3,-8.4648764E-4,-5.574611E-3,-2.6586743E-2,2.0480992E-3,-5.87614E-5,-3.906232E-4,-3.962661E-3,1.1017933E-3,-4.451784E-3,7.768489E-3,3.3602836E-3],"categories":[],"categories_nodes":[],"categories_segments":[],"categories_sizes":[],"default_left":[0,0,0,0,0,0,0,0,0,0,0,0,0,0,0,0,0,0,0,0,0,0,0,0,0,0,0,0,0,0,0,0,0,0,0,0,0,0,0,0,0,0,0,0,0,0,0,0,0,0,0,0,0,0,0,0,0,0,0,0,0,0,0],"id":7,"left_children":[1,3,5,7,9,11,13,15,17,19,21,23,25,27,29,31,33,35,37,39,41,43,45,47,49,51,53,55,57,59,61,-1,-1,-1,-1,-1,-1,-1,-1,-1,-1,-1,-1,-1,-1,-1,-1,-1,-1,-1,-1,-1,-1,-1,-1,-1,-1,-1,-1,-1,-1,-1,-1],"loss_changes":[5.627352E2,2.625836E2,3.128619E2,4.0365247E2,1.3644434E2,3.599632E2,1.5533401E2,9.839175E1,9.600015E1,4.898828E1,6.3076843E1,1.1017334E2,1.3472742E2,1.2251145E2,1.3013954E2,7.597087E1,2.2394882E1,1.9022586E2,1.0507997E2,3.9202286E1,3.834204E1,1.4732536E2,6.2375435E1,5.0955994E1,5.435681E1,1.3420993E2,9.156535E1,3.384076E1,7.286327E1,6.168541E1,5.412628E1,0E0,0E0,0E0,0E0,0E0,0E0,0E0,0E0,0E0,0E0,0E0,0E0,0E0,0E0,0E0,0E0,0E0,0E0,0E0,0E0,0E0,0E0,0E0,0E0,0E0,0E0,0E0,0E0,0E0,0E0,0E0,0E0],"parents":[2147483647,0,0,1,1,2,2,3,3,4,4,5,5,6,6,7,7,8,8,9,9,10,10,11,11,12,12,13,13,14,14,15,15,16,16,17,17,18,18,19,19,20,20,21,21,22,22,23,23,24,24,25,25,26,26,27,27,28,28,29,29,30,30],"right_children":[2,4,6,8,10,12,14,16,18,20,22,24,26,28,30,32,34,36,38,40,42,44,46,48,50,52,54,56,58,60,62,-1,-1,-1,-1,-1,-1,-1,-1,-1,-1,-1,-1,-1,-1,-1,-1,-1,-1,-1,-1,-1,-1,-1,-1,-1,-1,-1,-1,-1,-1,-1,-1],"split_conditions":[-1.5137655E-1,1.3E1,9.727691E-3,9.913661E-3,-1.029537E0,1.3E1,-3.151811E-1,2.5949772E-3,-3.395141E-3,1.4E1,-2.0551273E-1,-3.838647E-1,9.374791E-3,1.7935978E-4,1.1689137E-2,-1.3595626E0,4.3966235E-3,1.895357E-2,2.1871196E-2,1.5059055E-2,8.365137E-1,1.5059055E-2,6.8623265E-3,3.3792946E-2,5.2610356E-1,1.0283888E-1,1.6348081E-3,3.453826E-1,1.24273775E-2,1.8793851E-3,1.24273775E-2,1.0611954E-3,-1.3243163E-3,-2.6241131E-2,6.561701E-3,1.4239432E-2,5.7406025E-5,1.9202003E-3,1.1444059E-2,3.0175769E-3,2.3215367E-2,5.896092E-3,-1.1159023E-2,1.9285703E-3,2.1842554E-2,-8.7888975E-4,4.6565708E-2,-2.7133888E-3,-4.841816E-3,-2.5755018E-3,-7.206024E-4,1.5197323E-3,-8.4648764E-4,-5.574611E-3,-2.6586743E-2,2.0480992E-3,-5.87614E-5,-3.906232E-4,-3.962661E-3,1.1017933E-3,-4.451784E-3,7.768489E-3,3.3602836E-3],"split_indices":[0,46,84,84,71,46,65,82,82,46,64,48,84,82,84,71,82,84,84,84,80,84,82,78,32,71,82,5,84,82,84,0,0,0,0,0,0,0,0,0,0,0,0,0,0,0,0,0,0,0,0,0,0,0,0,0,0,0,0,0,0,0,0],"split_type":[0,0,0,0,0,0,0,0,0,0,0,0,0,0,0,0,0,0,0,0,0,0,0,0,0,0,0,0,0,0,0,0,0,0,0,0,0,0,0,0,0,0,0,0,0,0,0,0,0,0,0,0,0,0,0,0,0,0,0,0,0,0,0],"sum_hessian":[4.896288E5,2.1066733E5,2.7896147E5,1.2941749E5,8.1249836E4,2.0197798E5,7.6983484E4,8.189419E4,4.7523305E4,2.7095676E4,5.415416E4,1.0464601E5,9.733198E4,4.811085E4,2.8872637E4,8.170972E4,1.8447006E2,3.4149312E3,4.4108375E4,1.5482615E4,1.1613061E4,4.5656906E4,8.497253E3,4.154329E4,6.310272E4,9.5195734E4,2.1362405E3,2.7398137E4,2.0712713E4,1.1820268E4,1.705237E4,1.4620599E4,6.708912E4,1.6577483E2,1.8695236E1,1.7593239E3,1.6556073E3,4.3040246E4,1.0681309E3,1.5397126E4,8.5489174E1,1.1496165E4,1.1689577E2,4.532173E4,3.3517755E2,8.47426E3,2.29935E1,1.7855031E4,2.3688258E4,4.1352312E4,2.1750406E4,3.303768E4,6.2158055E4,1.9300327E3,2.0620773E2,1.3955782E4,1.34423545E4,1.1137319E4,9.575395E3,9.607523E3,2.212744E3,3.0742976E3,1.3978071E4],"tree_param":{"num_deleted":"0","num_feature":"86","num_nodes":"63","size_leaf_vector":"1"}},{"base_weights":[2.8865584E-4,3.965725E-2,-2.7535006E-2,1.3291942E-2,8.389748E-2,-4.342362E-2,2.6275894E-2,2.060102E-1,6.247736E-3,1.4419688E-1,5.3054478E-2,-5.5932548E-2,2.0110194E-2,1.7193552E-2,1.753213E-1,3.3945724E-2,3.2326388E-1,6.186667E-2,-9.692715E-3,1.0837189E-1,1.9175847E-1,6.798456E-2,-2.76412E-2,1.1790238E-1,-6.081283E-2,4.7159404E-2,-8.908803E-2,2.2583183E-2,-1.8451308E-1,2.725195E-1,2.3386413E-2,-1.5459763E-2,4.6242564E-3,7.823698E-3,1.521357E-2,1.7741676E-2,1.7419273E-3,-8.891863E-4,9.955642E-4,4.5917933E-3,1.2518581E-3,6.1194887E-3,-1.5907696E-3,4.9600294E-3,1.4908582E-3,-9.830332E-4,4.1325606E-2,1.6697503E-3,7.898607E-3,-1.1648678E-3,-2.8148354E-3,-5.0339837E-5,2.9247822E-3,-2.298484E-3,-2.7389886E-2,1.6271847E-3,-4.7376062E-4,-1.039837E-2,2.6001924E-4,5.704968E-3,1.3967473E-2,1.6559282E-3,-3.3132724E-2],"categories":[],"categories_nodes":[],"categories_segments":[],"categories_sizes":[],"default_left":[0,0,0,0,0,0,0,0,0,0,0,0,0,0,0,0,0,0,0,0,0,0,0,0,0,0,0,0,0,0,0,0,0,0,0,0,0,0,0,0,0,0,0,0,0,0,0,0,0,0,0,0,0,0,0,0,0,0,0,0,0,0,0],"id":8,"left_children":[1,3,5,7,9,11,13,15,17,19,21,23,25,27,29,31,33,35,37,39,41,43,45,47,49,51,53,55,57,59,61,-1,-1,-1,-1,-1,-1,-1,-1,-1,-1,-1,-1,-1,-1,-1,-1,-1,-1,-1,-1,-1,-1,-1,-1,-1,-1,-1,-1,-1,-1,-1,-1],"loss_changes":[5.36126E2,2.363128E2,2.451837E2,1.7221394E2,1.4052173E2,1.7599088E2,8.8269516E1,8.988161E1,1.0869899E2,4.327002E1,6.0377518E1,1.5689679E2,1.0750508E2,6.682254E1,5.502867E1,1.1987765E2,2.948645E1,5.4273277E1,8.145E1,4.3319595E1,3.303415E1,7.5028824E1,5.5003506E1,4.532132E1,1.3046472E2,7.184555E1,7.307532E1,7.294351E1,5.0407425E1,3.5434235E1,5.174517E1,0E0,0E0,0E0,0E0,0E0,0E0,0E0,0E0,0E0,0E0,0E0,0E0,0E0,0E0,0E0,0E0,0E0,0E0,0E0,0E0,0E0,0E0,0E0,0E0,0E0,0E0,0E0,0E0,0E0,0E0,0E0,0E0],"parents":[2147483647,0,0,1,1,2,2,3,3,4,4,5,5,6,6,7,7,8,8,9,9,10,10,11,11,12,12,13,13,14,14,15,15,16,16,17,17,18,18,19,19,20,20,21,21,22,22,23,23,24,24,25,25,26,26,27,27,28,28,29,29,30,30],"right_children":[2,4,6,8,10,12,14,16,18,20,22,24,26,28,30,32,34,36,38,40,42,44,46,48,50,52,54,56,58,60,62,-1,-1,-1,-1,-1,-1,-1,-1,-1,-1,-1,-1,-1,-1,-1,-1,-1,-1,-1,-1,-1,-1,-1,-1,-1,-1,-1,-1,-1,-1,-1,-1],"split_conditions":[-4.4806386E-4,1.3E1,-2.790779E-1,-3.1647554E-3,-1.0418407E0,1.4E1,3.5839612E-3,-2.3488423E-1,-5.181649E-1,1.4E1,-2.0551273E-1,-2.8188159E-3,4E0,2.7617665E-3,3E0,-9.859245E-3,1.2E1,-9.924866E-4,4.021907E-1,3E0,-2.0551273E-1,-8.2869374E-4,6.8623265E-3,1.2E1,3E0,2E0,-2.8377396E-1,1.2421884E-2,-2.4848373E-1,3.0512745E-3,1.4E1,-1.5459763E-2,4.6242564E-3,7.823698E-3,1.521357E-2,1.7741676E-2,1.7419273E-3,-8.891863E-4,9.955642E-4,4.5917933E-3,1.2518581E-3,6.1194887E-3,-1.5907696E-3,4.9600294E-3,1.4908582E-3,-9.830332E-4,4.1325606E-2,1.6697503E-3,7.898607E-3,-1.1648678E-3,-2.8148354E-3,-5.0339837E-5,2.9247822E-3,-2.298484E-3,-2.7389886E-2,1.6271847E-3,-4.7376062E-4,-1.039837E-2,2.6001924E-4,5.704968E-3,1.3967473E-2,1.6559282E-3,-3.3132724E-2],"split_indices":[83,46,65,82,71,46,82,64,64,46,64,82,47,82,47,82,46,82,32,47,64,82,82,46,47,47,65,31,64,66,46,0,0,0,0,0,0,0,0,0,0,0,0,0,0,0,0,0,0,0,0,0,0,0,0,0,0,0,0,0,0,0,0],"split_type":[0,0,0,0,0,0,0,0,0,0,0,0,0,0,0,0,0,0,0,0,0,0,0,0,0,0,0,0,0,0,0,0,0,0,0,0,0,0,0,0,0,0,0,0,0,0,0,0,0,0,0,0,0,0,0,0,0,0,0,0,0,0,0],"sum_hessian":[4.894285E5,2.0268212E5,2.8674634E5,1.2701298E5,7.566916E4,2.2139467E5,6.5351688E4,4.471849E3,1.22541125E5,2.5593326E4,5.007583E4,1.8498889E5,3.640578E4,6.1606523E4,3.745161E3,1.8168344E3,2.6550146E3,2.730975E4,9.5231375E4,1.4613517E4,1.0979811E4,4.22682E4,7.8076304E3,5.04474E3,1.7994416E5,2.918639E4,7.219391E3,6.000979E4,1.5967367E3,2.2790205E3,1.4661405E3,3.2352032E2,1.4933141E3,1.9893202E3,6.6569446E2,1.9063075E2,2.711912E4,6.5011926E4,3.0219451E4,8.737175E3,5.8763423E3,1.0461769E4,5.1804144E2,6.6738794E3,3.559432E4,7.7819043E3,2.5726397E1,3.539153E3,1.5055872E3,1.0803854E5,7.190561E4,1.4804225E4,1.4382167E4,7.1150864E3,1.04304794E2,3.289742E4,2.7112365E4,8.7016345E2,7.2657324E2,1.6039718E3,6.7504877E2,1.428633E3,3.7507446E1],"tree_param":{"num_deleted":"0","num_feature":"86","num_nodes":"63","size_leaf_vector":"1"}},{"base_weights":[-9.827043E-4,3.588502E-2,-2.8368795E-2,2.1520803E-2,1.1036735E-1,-4.287675E-2,4.7900256E-2,-1.8765442E-3,7.2811544E-2,1.1447896E-1,-8.7121123E-1,-6.0805276E-2,3.253202E-2,1.0447502E-1,2.1996204E-2,-2.9111566E-2,5.2305292E-2,2.0064192E-1,6.2323E-2,1.5761927E-1,4.5054175E-2,-1.11805744E-1,-1.0367516E0,-1.1319269E-1,-4.8448488E-2,9.137018E-2,5.8258174E-4,9.303926E-2,2.9124615E-1,5.7743188E-2,-2.9901177E-2,1.2005693E-3,-1.3805965E-3,2.0363722E-3,-3.4602114E-3,1.0843317E-2,4.922978E-4,1.6262741E-3,1.0249597E-2,5.3165327E-3,-8.2284264E-4,1.0631095E-3,1.10100005E-2,2.3438724E-2,-2.5788872E-2,-2.020186E-2,-4.467336E-2,-1.8070128E-3,-4.4887485E-3,8.0840306E-5,-1.8203417E-3,9.2940836E-4,3.9341804E-3,1.2313078E-4,-1.45432595E-2,4.158403E-3,1.4349647E-3,9.6742045E-3,-3.176397E-2,7.770528E-4,6.203591E-3,-1.3178065E-3,1.1448684E-2],"categories":[],"categories_nodes":[],"categories_segments":[],"categories_sizes":[],"default_left":[0,0,0,0,0,0,0,0,0,0,0,0,0,0,0,0,0,0,0,0,0,0,0,0,0,0,0,0,0,0,0,0,0,0,0,0,0,0,0,0,0,0,0,0,0,0,0,0,0,0,0,0,0,0,0,0,0,0,0,0,0,0,0],"id":9,"left_children":[1,3,5,7,9,11,13,15,17,19,21,23,25,27,29,31,33,35,37,39,41,43,45,47,49,51,53,55,57,59,61,-1,-1,-1,-1,-1,-1,-1,-1,-1,-1,-1,-1,-1,-1,-1,-1,-1,-1,-1,-1,-1,-1,-1,-1,-1,-1,-1,-1,-1,-1,-1,-1],"loss_changes":[4.9442426E2,2.2315067E2,3.1092435E2,2.100528E2,1.3557336E2,3.1923196E2,6.566877E1,1.7727765E2,7.3222015E1,1.003923E2,1.6208847E1,1.2331445E2,8.514289E1,2.965303E1,5.719314E1,9.3486824E1,1.0487334E2,1.2253444E2,1.14430695E2,7.526172E1,3.9468925E1,2.0365414E1,1.44963455E1,6.9984955E1,9.66116E1,3.8124817E1,4.9774273E1,2.7168556E1,3.396312E1,8.639994E1,7.217411E1,0E0,0E0,0E0,0E0,0E0,0E0,0E0,0E0,0E0,0E0,0E0,0E0,0E0,0E0,0E0,0E0,0E0,0E0,0E0,0E0,0E0,0E0,0E0,0E0,0E0,0E0,0E0,0E0,0E0,0E0,0E0,0E0],"parents":[2147483647,0,0,1,1,2,2,3,3,4,4,5,5,6,6,7,7,8,8,9,9,10,10,11,11,12,12,13,13,14,14,15,15,16,16,17,17,18,18,19,19,20,20,21,21,22,22,23,23,24,24,25,25,26,26,27,27,28,28,29,29,30,30],"right_children":[2,4,6,8,10,12,14,16,18,20,22,24,26,28,30,32,34,36,38,40,42,44,46,48,50,52,54,56,58,60,62,-1,-1,-1,-1,-1,-1,-1,-1,-1,-1,-1,-1,-1,-1,-1,-1,-1,-1,-1,-1,-1,-1,-1,-1,-1,-1,-1,-1,-1,-1,-1,-1],"split_conditions":[-3.9557664E-4,1.4E1,1.1246668E-2,9.913661E-3,1.9679751E-2,1.4E1,-1.9926663E-1,1.3E1,-3.395141E-3,-4.5117313E-1,-6.2764627E-3,-5.332771E-1,1.0283888E-1,3.966528E-3,3E0,1E0,8.850028E-3,1.895357E-2,2.1871196E-2,-2.0551273E-1,1.3586688E-2,1.613332E-1,2.3521308E-2,2E0,1E0,2E0,2.7617665E-3,1.3083628E-2,7.328536E-1,1.2E1,2.3521308E-2,1.2005693E-3,-1.3805965E-3,2.0363722E-3,-3.4602114E-3,1.0843317E-2,4.922978E-4,1.6262741E-3,1.0249597E-2,5.3165327E-3,-8.2284264E-4,1.0631095E-3,1.10100005E-2,2.3438724E-2,-2.5788872E-2,-2.020186E-2,-4.467336E-2,-1.8070128E-3,-4.4887485E-3,8.0840306E-5,-1.8203417E-3,9.2940836E-4,3.9341804E-3,1.2313078E-4,-1.45432595E-2,4.158403E-3,1.4349647E-3,9.6742045E-3,-3.176397E-2,7.770528E-4,6.203591E-3,-1.3178065E-3,1.1448684E-2],"split_indices":[83,46,84,84,84,46,21,46,82,71,82,48,71,82,47,47,84,84,84,64,84,81,84,47,47,47,82,84,5,46,84,0,0,0,0,0,0,0,0,0,0,0,0,0,0,0,0,0,0,0,0,0,0,0,0,0,0,0,0,0,0,0,0],"split_type":[0,0,0,0,0,0,0,0,0,0,0,0,0,0,0,0,0,0,0,0,0,0,0,0,0,0,0,0,0,0,0,0,0,0,0,0,0,0,0,0,0,0,0,0,0,0,0,0,0,0,0,0,0,0,0,0,0,0,0,0,0,0,0],"sum_hessian":[4.896959E5,2.0870106E5,2.8099484E5,1.7497284E5,3.372821E4,2.3609808E5,4.489676E4,1.20147484E5,5.4825367E4,3.3590293E4,1.3791653E2,1.9075862E5,4.533944E4,1.4086658E4,3.0810104E4,7.996945E4,4.0178035E4,4.1473564E3,5.067801E4,2.070644E4,1.2883854E4,2.6364195E1,1.1155234E2,3.6388777E4,1.5436986E5,1.5943268E4,2.9396176E4,1.3281782E4,8.0487604E2,1.8255047E4,1.2555057E4,1.5703399E4,6.426605E4,3.6769418E4,3.408614E3,2.2105686E3,1.9367877E3,4.925329E4,1.4247205E3,1.8728393E4,1.9780486E3,1.2515321E4,3.6853238E2,1.1364861E1,1.4999334E1,6.584807E1,4.570427E1,1.4843956E4,2.154482E4,2.9774574E4,1.2459528E5,6.3418325E3,9.601435E3,2.9188426E4,2.0774905E2,6.6009663E3,6.6808154E3,7.888915E2,1.5984549E1,1.5049042E4,3.2060046E3,1.2145332E4,4.097251E2],"tree_param":{"num_deleted":"0","num_feature":"86","num_nodes":"63","size_leaf_vector":"1"}},{"base_weights":[-6.482062E-4,3.620734E-2,-2.8018912E-2,2.367103E-2,1.01048216E-1,-4.6422858E-2,2.3575697E-2,1.4930142E-3,7.4322484E-2,1.0499926E-1,-8.253727E-1,-8.592499E-2,-4.5232303E-3,-9.274873E-3,7.963786E-2,-2.2296324E-2,4.940755E-2,2.0424154E-1,6.3456774E-2,2.190271E-1,8.400254E-2,-9.707787E-1,-3.1781393E-1,-2.0345261E-2,-1.0159123E-1,1.0174089E-3,-2.5687847E-1,3.0471949E-2,-6.2092964E-2,8.890355E-3,1.319688E-1,1.2292658E-3,-1.1301817E-3,1.7792591E-3,-6.7228046E-3,1.8598401E-3,1.09357415E-2,1.6574677E-3,1.0121517E-2,7.1795965E-3,4.8227882E-4,3.2375203E-3,-3.1164786E-4,-6.8256343E-3,-3.5405416E-2,-1.7636042E-2,6.4236396E-3,-7.85563E-4,1.4351559E-2,-4.3976163E-3,-2.2474253E-3,1.1477765E-3,-8.273346E-4,-5.923784E-3,-2.454365E-2,4.952903E-4,4.4314438E-3,3.8523596E-2,-1.9504623E-3,-1.0372772E-3,4.2815534E-3,1.3587334E-2,3.6589634E-3],"categories":[],"categories_nodes":[],"categories_segments":[],"categories_sizes":[],"default_left":[0,0,0,0,0,0,0,0,0,0,0,0,0,0,0,0,0,0,0,0,0,0,0,0,0,0,0,0,0,0,0,0,0,0,0,0,0,0,0,0,0,0,0,0,0,0,0,0,0,0,0,0,0,0,0,0,0,0,0,0,0,0,0],"id":10,"left_children":[1,3,5,7,9,11,13,15,17,19,21,23,25,27,29,31,33,35,37,39,41,43,45,47,49,51,53,55,57,59,61,-1,-1,-1,-1,-1,-1,-1,-1,-1,-1,-1,-1,-1,-1,-1,-1,-1,-1,-1,-1,-1,-1,-1,-1,-1,-1,-1,-1,-1,-1,-1,-1],"loss_changes":[4.938172E2,1.694386E2,2.66781E2,1.9631183E2,1.2311264E2,3.4265775E2,1.3607758E2,1.3863812E2,7.4839935E1,8.0209045E1,8.62011E0,1.09371765E2,1.407856E2,9.776977E1,1.0091589E2,7.9042854E1,1.0915158E2,9.300192E1,1.1002205E2,2.1247437E1,6.4258286E1,1.4919891E1,5.8349743E0,5.9474518E1,1.0300549E2,1.0474453E2,7.0799835E1,4.3300545E1,7.763928E1,6.768987E1,4.966223E1,0E0,0E0,0E0,0E0,0E0,0E0,0E0,0E0,0E0,0E0,0E0,0E0,0E0,0E0,0E0,0E0,0E0,0E0,0E0,0E0,0E0,0E0,0E0,0E0,0E0,0E0,0E0,0E0,0E0,0E0,0E0,0E0],"parents":[2147483647,0,0,1,1,2,2,3,3,4,4,5,5,6,6,7,7,8,8,9,9,10,10,11,11,12,12,13,13,14,14,15,15,16,16,17,17,18,18,19,19,20,20,21,21,22,22,23,23,24,24,25,25,26,26,27,27,28,28,29,29,30,30],"right_children":[2,4,6,8,10,12,14,16,18,20,22,24,26,28,30,32,34,36,38,40,42,44,46,48,50,52,54,56,58,60,62,-1,-1,-1,-1,-1,-1,-1,-1,-1,-1,-1,-1,-1,-1,-1,-1,-1,-1,-1,-1,-1,-1,-1,-1,-1,-1,-1,-1,-1,-1,-1,-1],"split_conditions":[-3.9557664E-4,1.4E1,9.727691E-3,1.0006736E-2,1.9679751E-2,1.3E1,-3.151811E-1,1.3E1,-3.395141E-3,-1.2721704E0,3E0,1E0,9.374791E-3,1.5802708E-4,1.1689137E-2,1E0,9.374791E-3,-2.0551273E-1,2.1871196E-2,-2.0551273E-1,4E0,-6.2764627E-3,2.5410488E-2,1.8044641E-3,-4.0095612E-1,-1.6366249E-2,1.6348081E-3,-5.4560733E-5,-7.675593E-1,4E0,-3.0991846E-1,1.2292658E-3,-1.1301817E-3,1.7792591E-3,-6.7228046E-3,1.8598401E-3,1.09357415E-2,1.6574677E-3,1.0121517E-2,7.1795965E-3,4.8227882E-4,3.2375203E-3,-3.1164786E-4,-6.8256343E-3,-3.5405416E-2,-1.7636042E-2,6.4236396E-3,-7.85563E-4,1.4351559E-2,-4.3976163E-3,-2.2474253E-3,1.1477765E-3,-8.273346E-4,-5.923784E-3,-2.454365E-2,4.952903E-4,4.4314438E-3,3.8523596E-2,-1.9504623E-3,-1.0372772E-3,4.2815534E-3,1.3587334E-2,3.6589634E-3],"split_indices":[83,46,84,84,84,46,65,46,82,42,47,47,84,82,84,47,84,64,84,64,47,82,48,82,48,31,82,82,65,47,65,0,0,0,0,0,0,0,0,0,0,0,0,0,0,0,0,0,0,0,0,0,0,0,0,0,0,0,0,0,0,0,0],"split_type":[0,0,0,0,0,0,0,0,0,0,0,0,0,0,0,0,0,0,0,0,0,0,0,0,0,0,0,0,0,0,0,0,0,0,0,0,0,0,0,0,0,0,0,0,0,0,0,0,0,0,0,0,0,0,0,0,0,0,0,0,0,0,0],"sum_hessian":[4.8953188E5,2.086034E5,2.8092847E5,1.7482161E5,3.3781797E4,2.0708148E5,7.384697E4,1.2160013E5,5.322148E4,3.3641176E4,1.4062161E2,1.0657692E5,1.0050456E5,4.655255E4,2.729442E4,8.124338E4,4.0356754E4,4.09776E3,4.9123723E4,5.220963E3,2.842021E4,1.0635688E2,3.426473E1,2.0563871E4,8.6013055E4,9.83434E4,2.1611702E3,2.6552844E4,1.9999707E4,1.161426E4,1.568016E4,1.5870403E4,6.5372977E4,3.8951867E4,1.4048848E3,2.1758052E3,1.9219542E3,4.7700496E4,1.4232262E3,4.7415737E3,4.7938904E2,2.2683451E4,5.73676E3,2.5345026E1,8.101185E1,2.383417E1,1.0430558E1,2.0329709E4,2.3416241E2,3.1997172E4,5.4015883E4,4.2728727E4,5.5614668E4,1.9583269E3,2.0284328E2,2.3736867E4,2.815976E3,4.068212E1,1.9959025E4,8.762336E3,2.8519236E3,4.682592E2,1.52119E4],"tree_param":{"num_deleted":"0","num_feature":"86","num_nodes":"63","size_leaf_vector":"1"}},{"base_weights":[-6.115398E-4,3.488518E-2,-2.736139E-2,1.06461436E-1,2.1093335E-2,-4.5009643E-2,2.185366E-2,1.1032447E-1,-8.24707E-1,3.962588E-3,8.45469E-2,-5.2488125E-3,-8.251653E-2,-1.0118802E-2,7.654131E-2,1.521789E-1,4.372288E-2,-7.846212E-5,-9.2561877E-1,2.7608663E-1,1.2540485E-3,2.1025564E-1,6.528028E-2,2.424705E-4,-2.5644457E-1,-1.0837206E-1,-4.440823E-2,2.9002678E-2,-6.348835E-2,5.3527304E-3,1.2888615E-1,5.086937E-3,-5.998856E-4,1.1243664E-3,2.1176144E-2,-3.0444488E-2,-0E0,2.29752E-2,3.8617009E-3,-5.520557E-3,2.0191076E-4,4.5123734E-3,1.8657636E-2,3.3809657E-3,6.196224E-4,1.3749715E-3,-7.677482E-4,-2.527902E-2,-6.283323E-3,-3.2261803E-3,-4.3769088E-2,-8.904434E-4,-3.605617E-3,2.441613E-3,1.8336605E-4,-3.5687827E-4,-3.840436E-3,1.0178951E-3,-5.264858E-3,7.366816E-3,3.0533767E-3],"categories":[],"categories_nodes":[],"categories_segments":[],"categories_sizes":[],"default_left":[0,0,0,0,0,0,0,0,0,0,0,0,0,0,0,0,0,0,0,0,0,0,0,0,0,0,0,0,0,0,0,0,0,0,0,0,0,0,0,0,0,0,0,0,0,0,0,0,0,0,0,0,0,0,0,0,0,0,0,0,0],"id":11,"left_children":[1,3,5,7,9,11,13,15,17,19,21,23,25,27,29,31,33,-1,35,37,39,41,43,45,47,49,51,53,55,57,59,-1,-1,-1,-1,-1,-1,-1,-1,-1,-1,-1,-1,-1,-1,-1,-1,-1,-1,-1,-1,-1,-1,-1,-1,-1,-1,-1,-1,-1,-1],"loss_changes":[4.6476678E2,2.0750111E2,2.4247946E2,1.2165701E2,1.9162134E2,3.0634738E2,1.2887198E2,9.4097015E1,1.0640152E1,1.0209054E2,9.047186E1,1.3786253E2,1.040094E2,9.707833E1,1.0118388E2,6.2314514E1,5.323191E1,0E0,9.630646E0,9.7431656E1,1.393593E2,1.2155426E2,6.8653564E1,1.1500029E2,5.750026E1,6.894159E1,4.7557045E1,3.2058533E1,6.534068E1,5.946589E1,4.913211E1,0E0,0E0,0E0,0E0,0E0,0E0,0E0,0E0,0E0,0E0,0E0,0E0,0E0,0E0,0E0,0E0,0E0,0E0,0E0,0E0,0E0,0E0,0E0,0E0,0E0,0E0,0E0,0E0,0E0,0E0],"parents":[2147483647,0,0,1,1,2,2,3,3,4,4,5,5,6,6,7,7,8,8,9,9,10,10,11,11,12,12,13,13,14,14,15,15,16,16,18,18,19,19,20,20,21,21,22,22,23,23,24,24,25,25,26,26,27,27,28,28,29,29,30,30],"right_children":[2,4,6,8,10,12,14,16,18,20,22,24,26,28,30,32,34,-1,36,38,40,42,44,46,48,50,52,54,56,58,60,-1,-1,-1,-1,-1,-1,-1,-1,-1,-1,-1,-1,-1,-1,-1,-1,-1,-1,-1,-1,-1,-1,-1,-1,-1,-1,-1,-1,-1,-1],"split_conditions":[-3.7809723E-4,2E0,9.727691E-3,1.9679751E-2,1.1246668E-2,3E0,-3.151811E-1,-4.5117313E-1,-1.1193117E0,-2.8188159E-3,4E0,9.374791E-3,2.8457493E-1,1.7935978E-4,1.1689137E-2,-2.01314E-1,1.5600569E-2,-7.846212E-5,1.1993726E0,8.962756E-3,-1.8377722E-3,1.5600569E-2,4.1461186E-4,1.2841226E-1,9.418197E-3,3.2440922E-3,8.352824E-1,-2.6495558E-1,1.24273775E-2,2.2795363E-3,1.24273775E-2,5.086937E-3,-5.998856E-4,1.1243664E-3,2.1176144E-2,-3.0444488E-2,-0E0,2.29752E-2,3.8617009E-3,-5.520557E-3,2.0191076E-4,4.5123734E-3,1.8657636E-2,3.3809657E-3,6.196224E-4,1.3749715E-3,-7.677482E-4,-2.527902E-2,-6.283323E-3,-3.2261803E-3,-4.3769088E-2,-8.904434E-4,-3.605617E-3,2.441613E-3,1.8336605E-4,-3.5687827E-4,-3.840436E-3,1.0178951E-3,-5.264858E-3,7.366816E-3,3.0533767E-3],"split_indices":[83,70,84,84,84,70,65,71,21,82,70,84,32,82,84,64,84,0,17,84,82,84,82,71,84,82,51,29,84,82,84,0,0,0,0,0,0,0,0,0,0,0,0,0,0,0,0,0,0,0,0,0,0,0,0,0,0,0,0,0,0],"split_type":[0,0,0,0,0,0,0,0,0,0,0,0,0,0,0,0,0,0,0,0,0,0,0,0,0,0,0,0,0,0,0,0,0,0,0,0,0,0,0,0,0,0,0,0,0,0,0,0,0,0,0,0,0,0,0,0,0,0,0,0,0],"sum_hessian":[4.8947325E5,2.1032998E5,2.7914328E5,3.3966477E4,1.763635E5,2.0547981E5,7.366348E4,3.382897E4,1.3750575E2,1.3888594E5,3.7477562E4,9.975696E4,1.0572284E5,4.6475496E4,2.7187979E4,2.0763184E4,1.3065787E4,1.634123E1,1.2116451E2,1.3631256E3,1.3752281E5,4.9710786E3,3.2506484E4,9.762093E4,2.1360322E3,6.2969598E4,4.2753246E4,2.6807193E4,1.96683E4,1.15293955E4,1.5658583E4,1.8864178E4,1.8990045E3,1.2947318E4,1.18468506E2,1.0981638E2,1.1348133E1,3.1177597E2,1.0513496E3,3.9410999E3,1.3358172E5,4.3446616E3,6.264168E2,1.5747821E4,1.6758664E4,3.532296E4,6.2297973E4,1.544612E2,1.9815709E3,6.2933695E4,3.5902344E1,3.580997E4,6.9432764E3,8.1370073E3,1.8670186E4,1.0939447E4,8.728854E3,9.96233E3,1.5670658E3,2.9421016E3,1.2716481E4],"tree_param":{"num_deleted":"0","num_feature":"86","num_nodes":"61","size_leaf_vector":"1"}},{"base_weights":[6.0031173E-4,3.483415E-2,-2.5234213E-2,2.1124091E-2,1.05595686E-1,-3.8006343E-2,4.1810263E-2,-4.3554258E-4,6.849302E-2,1.09482855E-1,-8.2437235E-1,-5.2993882E-2,2.5091946E-2,3.4822747E-3,8.178786E-2,-2.5251957E-2,4.872197E-2,1.7783836E-1,5.9569944E-2,1.506556E-1,4.7825627E-2,1.1005627E-3,-9.378685E-1,-7.23292E-2,-1.869585E-2,6.989254E-2,-1.0814689E-2,4.4844706E-2,-5.7563055E-2,1.2175953E-1,1.3507878E-3,1.3314522E-3,-1.2688446E-3,2.568645E-3,-1.9513498E-4,9.492998E-3,5.612084E-4,1.561925E-3,9.721582E-3,5.0531966E-3,-8.0591644E-4,1.1295362E-3,1.1630894E-2,-3.1552956E-2,-5.9569585E-3,-8.059843E-4,-2.6083014E-3,1.8026377E-4,-1.6726911E-3,-1.246993E-3,2.6566316E-3,-2.2609714E-4,-1.4023599E-2,3.5836915E-3,3.2271672E-4,-2.200767E-3,4.213817E-3,3.321165E-3,1.3042131E-2,-9.506918E-3,4.7928386E-4],"categories":[],"categories_nodes":[],"categories_segments":[],"categories_sizes":[],"default_left":[0,0,0,0,0,0,0,0,0,0,0,0,0,0,0,0,0,0,0,0,0,0,0,0,0,0,0,0,0,0,0,0,0,0,0,0,0,0,0,0,0,0,0,0,0,0,0,0,0,0,0,0,0,0,0,0,0,0,0,0,0],"id":12,"left_children":[1,3,5,7,9,11,13,15,17,19,21,23,25,27,29,31,33,35,37,39,41,-1,43,45,47,49,51,53,55,57,59,-1,-1,-1,-1,-1,-1,-1,-1,-1,-1,-1,-1,-1,-1,-1,-1,-1,-1,-1,-1,-1,-1,-1,-1,-1,-1,-1,-1,-1,-1],"loss_changes":[4.3302496E2,2.0417094E2,2.3892207E2,1.8024252E2,1.2297754E2,2.2168378E2,6.830867E1,1.4786821E2,5.3596832E1,8.616977E1,1.4786964E1,1.2551581E2,7.240952E1,5.7570126E1,7.008101E1,9.562431E1,8.293149E1,9.1291046E1,1.00919785E2,6.453088E1,4.670284E1,0E0,8.943382E0,8.0345215E1,6.2588486E1,4.170102E1,3.6873657E1,3.446631E1,2.8734734E1,4.9794342E1,3.3495487E1,0E0,0E0,0E0,0E0,0E0,0E0,0E0,0E0,0E0,0E0,0E0,0E0,0E0,0E0,0E0,0E0,0E0,0E0,0E0,0E0,0E0,0E0,0E0,0E0,0E0,0E0,0E0,0E0,0E0,0E0],"parents":[2147483647,0,0,1,1,2,2,3,3,4,4,5,5,6,6,7,7,8,8,9,9,10,10,11,11,12,12,13,13,14,14,15,15,16,16,17,17,18,18,19,19,20,20,22,22,23,23,24,24,25,25,26,26,27,27,28,28,29,29,30,30],"right_children":[2,4,6,8,10,12,14,16,18,20,22,24,26,28,30,32,34,36,38,40,42,-1,44,46,48,50,52,54,56,58,60,-1,-1,-1,-1,-1,-1,-1,-1,-1,-1,-1,-1,-1,-1,-1,-1,-1,-1,-1,-1,-1,-1,-1,-1,-1,-1,-1,-1,-1,-1],"split_conditions":[-3.7809723E-4,1.4E1,1.1246668E-2,9.913661E-3,1.9679751E-2,1.4E1,8.525027E-2,1.3E1,-3.395141E-3,-4.8680857E-1,-1.1193117E0,4.021907E-1,3.7633187E-1,4.7449836E-1,1.1879596E-1,1E0,3E0,1.895357E-2,2.1871196E-2,-2.01314E-1,1.3586688E-2,1.1005627E-3,7.924538E-1,-6.9162214E-1,3E0,-9.9962646E-1,2.7617665E-3,1.2913583E-2,2.3521308E-2,3.966528E-3,3.8541982E-1,1.3314522E-3,-1.2688446E-3,2.568645E-3,-1.9513498E-4,9.492998E-3,5.612084E-4,1.561925E-3,9.721582E-3,5.0531966E-3,-8.0591644E-4,1.1295362E-3,1.1630894E-2,-3.1552956E-2,-5.9569585E-3,-8.059843E-4,-2.6083014E-3,1.8026377E-4,-1.6726911E-3,-1.246993E-3,2.6566316E-3,-2.2609714E-4,-1.4023599E-2,3.5836915E-3,3.2271672E-4,-2.200767E-3,4.213817E-3,3.321165E-3,1.3042131E-2,-9.506918E-3,4.7928386E-4],"split_indices":[83,46,84,84,84,46,67,46,82,71,21,32,71,76,31,47,47,84,84,64,84,0,21,43,47,50,82,84,84,82,85,0,0,0,0,0,0,0,0,0,0,0,0,0,0,0,0,0,0,0,0,0,0,0,0,0,0,0,0,0,0],"split_type":[0,0,0,0,0,0,0,0,0,0,0,0,0,0,0,0,0,0,0,0,0,0,0,0,0,0,0,0,0,0,0,0,0,0,0,0,0,0,0,0,0,0,0,0,0,0,0,0,0,0,0,0,0,0,0,0,0,0,0,0,0],"sum_hessian":[4.896026E5,2.1058727E5,2.7901534E5,1.7642217E5,3.4165094E4,2.34381E5,4.463434E4,1.212273E5,5.5194875E4,3.402571E4,1.3938385E2,1.8940773E5,4.497326E4,2.280119E4,2.1833148E4,8.057272E4,4.0654582E4,4.153014E3,5.1041863E4,2.0390484E4,1.3635228E4,1.5364101E1,1.24019745E2,1.2110444E5,6.83033E4,2.0020146E4,2.4953115E4,1.3601885E4,9.199306E3,1.4576283E4,7.2568647E3,1.5830521E4,6.4742195E4,2.4381262E4,1.6273319E4,2.2153242E3,1.93769E3,4.963932E4,1.4025427E3,1.8538947E4,1.8515377E3,1.3243919E4,3.9130798E2,1.05559395E2,1.8460346E1,2.9477473E4,9.162696E4,4.0968367E4,2.733493E4,2.8632405E3,1.7156906E4,2.4779451E4,1.7366382E2,4.2547085E3,9.347177E3,8.525553E3,6.7375287E2,1.40847295E4,4.9155386E2,3.1402203E2,6.942843E3],"tree_param":{"num_deleted":"0","num_feature":"86","num_nodes":"61","size_leaf_vector":"1"}},{"base_weights":[-4.2354772E-4,4.3025248E-2,-1.91453E-2,1.6797422E-2,8.541285E-2,-3.711006E-2,2.835987E-2,-1.6765377E-2,7.740772E-2,9.852848E-2,-2.8168762E-2,-7.367049E-2,2.0416274E-3,6.856915E-2,4.3778247E-3,-1.471716E-2,-7.245793E-1,6.410918E-2,2.2215399E-1,9.4656E-2,6.2506574E-1,-1.5148199E-2,-7.715276E-1,-6.2476834E-3,-8.981952E-2,7.3876856E-3,-2.3756221E-1,3.701815E-2,1.4835499E-1,3.2877844E-2,-3.5268184E-2,1.2758061E-2,-5.084291E-4,6.5357406E-3,-2.443162E-2,1.3025752E-3,4.1309455E-3,1.0325229E-2,1.1022267E-3,3.506846E-3,1.175463E-3,4.4094708E-2,1.3187892E-2,-1.4018121E-2,4.3903525E-5,-3.6619745E-2,2.5691255E-3,-3.9143622E-4,1.6291494E-2,-3.8193408E-3,-1.9210705E-3,-3.1320543E-3,5.110246E-4,-1.2257796E-2,-1.6062302E-3,7.895937E-4,5.1666135E-3,4.6127387E-3,-1.3148256E-2,1.7477501E-3,-5.22005E-4,-1.3711386E-3,1.2330001E-2],"categories":[],"categories_nodes":[],"categories_segments":[],"categories_sizes":[],"default_left":[0,0,0,0,0,0,0,0,0,0,0,0,0,0,0,0,0,0,0,0,0,0,0,0,0,0,0,0,0,0,0,0,0,0,0,0,0,0,0,0,0,0,0,0,0,0,0,0,0,0,0,0,0,0,0,0,0,0,0,0,0,0,0],"id":13,"left_children":[1,3,5,7,9,11,13,15,17,19,21,23,25,27,29,31,33,35,37,39,41,43,45,47,49,51,53,55,57,59,61,-1,-1,-1,-1,-1,-1,-1,-1,-1,-1,-1,-1,-1,-1,-1,-1,-1,-1,-1,-1,-1,-1,-1,-1,-1,-1,-1,-1,-1,-1,-1,-1],"loss_changes":[3.979891E2,1.6368546E2,2.9185355E2,1.8524173E2,8.394632E1,3.5527393E2,9.0398224E1,8.4164085E1,6.2155853E1,1.0209216E2,5.553936E1,1.3963513E2,1.5325137E2,8.800081E1,6.642408E1,5.6931362E1,1.5134323E1,4.5075645E1,6.121411E1,6.166205E1,5.419095E1,4.3464745E1,3.9402008E1,9.216843E1,9.9867004E1,1.2631033E2,8.167096E1,3.6125736E1,3.1288925E1,4.370632E1,1.14116E2,0E0,0E0,0E0,0E0,0E0,0E0,0E0,0E0,0E0,0E0,0E0,0E0,0E0,0E0,0E0,0E0,0E0,0E0,0E0,0E0,0E0,0E0,0E0,0E0,0E0,0E0,0E0,0E0,0E0,0E0,0E0,0E0],"parents":[2147483647,0,0,1,1,2,2,3,3,4,4,5,5,6,6,7,7,8,8,9,9,10,10,11,11,12,12,13,13,14,14,15,15,16,16,17,17,18,18,19,19,20,20,21,21,22,22,23,23,24,24,25,25,26,26,27,27,28,28,29,29,30,30],"right_children":[2,4,6,8,10,12,14,16,18,20,22,24,26,28,30,32,34,36,38,40,42,44,46,48,50,52,54,56,58,60,62,-1,-1,-1,-1,-1,-1,-1,-1,-1,-1,-1,-1,-1,-1,-1,-1,-1,-1,-1,-1,-1,-1,-1,-1,-1,-1,-1,-1,-1,-1,-1,-1],"split_conditions":[-3.960479E-1,1.3E1,9.727691E-3,1.0069901E-2,-2.0881008E-1,1.3E1,-2.6495558E-1,2.5949772E-3,-1.630847E-1,1.5059055E-2,1.9679751E-2,1E0,9.374791E-3,8.934748E-2,3E0,-2.9702643E-3,8.262123E-3,4E0,3E0,-3.670095E-1,-1.3015188E-3,-4.6674297E-3,3.7758764E-2,1.8044641E-3,-2.2364324E-1,-1.4027637E0,1.4E1,1.835588E-2,2.1289911E0,1.12133905E-1,2.3521308E-2,1.2758061E-2,-5.084291E-4,6.5357406E-3,-2.443162E-2,1.3025752E-3,4.1309455E-3,1.0325229E-2,1.1022267E-3,3.506846E-3,1.175463E-3,4.4094708E-2,1.3187892E-2,-1.4018121E-2,4.3903525E-5,-3.6619745E-2,2.5691255E-3,-3.9143622E-4,1.6291494E-2,-3.8193408E-3,-1.9210705E-3,-3.1320543E-3,5.110246E-4,-1.2257796E-2,-1.6062302E-3,7.895937E-4,5.1666135E-3,4.6127387E-3,-1.3148256E-2,1.7477501E-3,-5.22005E-4,-1.3711386E-3,1.2330001E-2],"split_indices":[1,46,84,84,64,46,29,82,64,84,84,47,84,32,47,82,84,47,47,71,82,82,64,82,32,50,46,84,43,31,84,0,0,0,0,0,0,0,0,0,0,0,0,0,0,0,0,0,0,0,0,0,0,0,0,0,0,0,0,0,0,0,0],"split_type":[0,0,0,0,0,0,0,0,0,0,0,0,0,0,0,0,0,0,0,0,0,0,0,0,0,0,0,0,0,0,0,0,0,0,0,0,0,0,0,0,0,0,0,0,0,0,0,0,0,0,0,0,0,0,0,0,0,0,0,0,0,0,0],"sum_hessian":[4.8929347E5,1.4732673E5,3.4196675E5,9.10283E4,5.629843E4,2.4814766E5,9.38191E4,5.85766E4,3.2451695E4,5.047858E4,5.819851E3,1.2833257E5,1.1981508E5,3.503409E4,5.878501E4,5.841103E4,1.6557094E2,2.9730045E4,2.7216504E3,5.0114266E4,3.6431262E2,5.7229937E3,9.685711E1,2.4810889E4,1.0352168E5,1.17206086E5,2.6089988E3,2.5117092E4,9.916997E3,3.421483E4,2.4570184E4,2.9044232E2,5.812059E4,1.318825E1,1.5238269E2,2.3218729E4,6.511317E3,1.6371417E3,1.0845085E3,3.5758742E4,1.4355522E4,6.2122326E1,3.0219028E2,2.0302992E2,5.519964E3,6.3764698E1,3.3092415E1,2.4511219E4,2.9967087E2,4.2164438E4,6.1357242E4,9.300665E3,1.07905414E5,1.3481453E3,1.2608535E3,2.3284416E4,1.832676E3,9.829645E3,8.735231E1,2.2750088E4,1.146474E4,2.4012658E4,5.575245E2],"tree_param":{"num_deleted":"0","num_feature":"86","num_nodes":"63","size_leaf_vector":"1"}},{"base_weights":[8.2743925E-4,-2.1284414E-2,4.161145E-2,-3.392192E-2,4.3735262E-2,2.4896992E-2,1.0489478E-1,1.2889872E-1,-3.9109226E-2,7.04061E-2,-6.513849E-2,-4.109655E-3,5.735591E-2,1.3558283E-1,5.9946097E-2,6.698116E-1,9.723971E-2,8.4914E-3,-5.2329395E-2,7.3153734E-2,-1.1468607E0,-4.5314543E-2,-6.250303E-1,1.1868094E-1,-1.35114845E-2,9.7152285E-2,9.666631E-3,2.4039327E-1,9.2216544E-2,4.4207193E-2,5.1130277E-1,1.1816997E-4,2.9151473E-2,-2.1221703E-2,3.422419E-3,9.811849E-4,-8.4224856E-4,-1.992235E-3,-2.2603801E-4,1.9697307E-3,1.3167307E-2,-4.4308968E-2,-4.0666778E-3,-9.679569E-4,-2.4782939E-2,-2.2958932E-2,9.033776E-3,2.1723425E-3,1.3674702E-2,-1.1283765E-4,-5.164301E-3,3.169287E-3,-1.1685855E-2,-3.0140346E-3,1.1363851E-3,5.9701344E-3,1.7272156E-2,1.3642621E-4,5.825782E-3,2.1914036E-3,-4.149078E-3,4.008946E-2,1.1170765E-2],"categories":[],"categories_nodes":[],"categories_segments":[],"categories_sizes":[],"default_left":[0,0,0,0,0,0,0,0,0,0,0,0,0,0,0,0,0,0,0,0,0,0,0,0,0,0,0,0,0,0,0,0,0,0,0,0,0,0,0,0,0,0,0,0,0,0,0,0,0,0,0,0,0,0,0,0,0,0,0,0,0,0,0],"id":14,"left_children":[1,3,5,7,9,11,13,15,17,19,21,23,25,27,29,31,33,35,37,39,41,43,45,47,49,51,53,55,57,59,61,-1,-1,-1,-1,-1,-1,-1,-1,-1,-1,-1,-1,-1,-1,-1,-1,-1,-1,-1,-1,-1,-1,-1,-1,-1,-1,-1,-1,-1,-1,-1,-1],"loss_changes":[4.4128638E2,2.6069116E2,1.8183932E2,2.2429251E2,1.4990361E2,1.2820407E2,4.935269E1,1.394693E2,1.620614E2,1.377961E2,1.1193773E2,8.286033E1,1.2182645E2,9.66124E1,1.0308421E2,8.970749E1,1.045532E2,4.9544907E1,1.2700842E2,1.12889755E2,2.8932724E1,9.901303E1,4.5773758E1,7.902017E1,1.0308183E2,1.4447137E2,9.079916E1,8.55643E1,1.3482758E2,7.421309E1,5.340451E1,0E0,0E0,0E0,0E0,0E0,0E0,0E0,0E0,0E0,0E0,0E0,0E0,0E0,0E0,0E0,0E0,0E0,0E0,0E0,0E0,0E0,0E0,0E0,0E0,0E0,0E0,0E0,0E0,0E0,0E0,0E0,0E0],"parents":[2147483647,0,0,1,1,2,2,3,3,4,4,5,5,6,6,7,7,8,8,9,9,10,10,11,11,12,12,13,13,14,14,15,15,16,16,17,17,18,18,19,19,20,20,21,21,22,22,23,23,24,24,25,25,26,26,27,27,28,28,29,29,30,30],"right_children":[2,4,6,8,10,12,14,16,18,20,22,24,26,28,30,32,34,36,38,40,42,44,46,48,50,52,54,56,58,60,62,-1,-1,-1,-1,-1,-1,-1,-1,-1,-1,-1,-1,-1,-1,-1,-1,-1,-1,-1,-1,-1,-1,-1,-1,-1,-1,-1,-1,-1,-1,-1,-1],"split_conditions":[-2.790779E-1,1.4E1,1.1411458E-2,-2.8188159E-3,4E0,1.3E1,3E0,8.962756E-3,-9.4538165E-4,1.9679751E-2,1.1773147E-2,-2.5911126E-1,-1.2294158E-2,1.2777005E-2,2.3521308E-2,2E0,9.208712E-3,3E0,9.727691E-3,1.2777005E-2,5.831599E-1,-2.8377396E-1,-3.8212976E-1,1.687025E-3,1.687025E-3,1.0982435E-2,-2.3318847E-1,3.0019048E-3,1.5923144E-2,1.3E1,-2.5622946E-1,1.1816997E-4,2.9151473E-2,-2.1221703E-2,3.422419E-3,9.811849E-4,-8.4224856E-4,-1.992235E-3,-2.2603801E-4,1.9697307E-3,1.3167307E-2,-4.4308968E-2,-4.0666778E-3,-9.679569E-4,-2.4782939E-2,-2.2958932E-2,9.033776E-3,2.1723425E-3,1.3674702E-2,-1.1283765E-4,-5.164301E-3,3.169287E-3,-1.1685855E-2,-3.0140346E-3,1.1363851E-3,5.9701344E-3,1.7272156E-2,1.3642621E-4,5.825782E-3,2.1914036E-3,-4.149078E-3,4.008946E-2,1.1170765E-2],"split_indices":[65,46,84,82,47,46,47,84,83,84,84,65,31,84,84,47,84,47,84,84,15,65,65,82,82,84,65,82,84,46,65,0,0,0,0,0,0,0,0,0,0,0,0,0,0,0,0,0,0,0,0,0,0,0,0,0,0,0,0,0,0,0,0],"split_type":[0,0,0,0,0,0,0,0,0,0,0,0,0,0,0,0,0,0,0,0,0,0,0,0,0,0,0,0,0,0,0,0,0,0,0,0,0,0,0,0,0,0,0,0,0,0,0,0,0,0,0,0,0,0,0,0,0,0,0,0,0,0,0],"sum_hessian":[4.8930753E5,3.1726988E5,1.7203766E5,2.6565278E5,5.161709E4,1.3610742E5,3.5930242E4,8.194701E3,2.5745808E5,4.146844E4,1.0148647E4,7.1860664E4,6.4246754E4,2.1336668E4,1.4593576E4,4.4913123E2,7.7455703E3,5.5945473E4,2.0151261E5,4.1377746E4,9.069704E1,9.805417E3,3.4322995E2,5.1016772E3,6.6758984E4,3.500897E4,2.9237787E4,6.2351084E3,1.5101559E4,1.41061045E4,4.8747147E2,1.4177473E2,3.0735648E2,1.5589296E2,7.5896772E3,3.3673773E4,2.2271697E4,1.5330688E5,4.8205727E4,4.0551746E4,8.2599976E2,6.693781E1,2.3759226E1,9.64754E3,1.5787689E2,2.9932407E2,4.39059E1,4.49076E3,6.109175E2,6.290115E4,3.857836E3,3.4412234E4,5.9673364E2,5.9541265E3,2.328366E4,5.5555977E3,6.795106E2,8.126821E3,6.9747383E3,1.2187029E4,1.9190757E3,6.6742096E1,4.2072937E2],"tree_param":{"num_deleted":"0","num_feature":"86","num_nodes":"63","size_leaf_vector":"1"}},{"base_weights":[1.0787689E-3,-2.0054778E-2,4.00639E-2,-3.262706E-2,4.4695918E-2,2.3809921E-2,1.0155095E-1,1.2713227E-1,-3.7717976E-2,1.3353956E-1,1.02402475E-2,-3.7020817E-3,5.4652013E-2,1.5525107E-1,8.010843E-2,6.830397E-1,9.4690286E-2,7.5269807E-3,-5.031253E-2,-2.004999E-1,1.4505376E-1,1.3012586E-2,-1.1000904E0,1.2034862E-1,-1.3229015E-2,7.527485E-2,-3.8742065E-2,1.1668333E-1,5.0223285E-1,1.4511424E-2,1.3774945E-1,1.3187435E-2,4.272981E-2,-1.9672425E-2,3.2992084E-3,1.2776054E-3,-2.6168846E-4,-1.9332889E-3,-1.6004273E-4,-6.3060044E-4,-2.3934407E-2,8.0309585E-3,3.766804E-3,6.0909195E-4,-7.0437845E-3,-4.1432522E-2,-4.6708942E-3,2.167451E-3,1.4050883E-2,-1.20432145E-4,-4.895543E-3,3.5932874E-3,7.6496095E-4,-8.478288E-3,7.388035E-5,4.260068E-3,-1.9692115E-2,-1.847328E-2,1.7479783E-2,-1.9281087E-2,8.789958E-4,8.795207E-3,3.591439E-3],"categories":[],"categories_nodes":[],"categories_segments":[],"categories_sizes":[],"default_left":[0,0,0,0,0,0,0,0,0,0,0,0,0,0,0,0,0,0,0,0,0,0,0,0,0,0,0,0,0,0,0,0,0,0,0,0,0,0,0,0,0,0,0,0,0,0,0,0,0,0,0,0,0,0,0,0,0,0,0,0,0,0,0],"id":15,"left_children":[1,3,5,7,9,11,13,15,17,19,21,23,25,27,29,31,33,35,37,39,41,43,45,47,49,51,53,55,57,59,61,-1,-1,-1,-1,-1,-1,-1,-1,-1,-1,-1,-1,-1,-1,-1,-1,-1,-1,-1,-1,-1,-1,-1,-1,-1,-1,-1,-1,-1,-1,-1,-1],"loss_changes":[4.0322256E2,2.5832236E2,1.71819E2,2.1606241E2,1.5776349E2,1.1553107E2,4.114496E1,1.4700269E2,1.4680771E2,5.5414856E1,1.1338923E2,8.4886955E1,1.2365846E2,1.363741E2,9.7074265E1,7.8134155E1,8.852106E1,3.1976944E1,1.27986725E2,5.039212E1,3.284558E1,6.680292E1,2.2374588E1,8.5128265E1,9.212814E1,1.1632303E2,1.1685745E2,1.8025812E2,9.255374E1,1.1642181E2,3.786035E1,0E0,0E0,0E0,0E0,0E0,0E0,0E0,0E0,0E0,0E0,0E0,0E0,0E0,0E0,0E0,0E0,0E0,0E0,0E0,0E0,0E0,0E0,0E0,0E0,0E0,0E0,0E0,0E0,0E0,0E0,0E0,0E0],"parents":[2147483647,0,0,1,1,2,2,3,3,4,4,5,5,6,6,7,7,8,8,9,9,10,10,11,11,12,12,13,13,14,14,15,15,16,16,17,17,18,18,19,19,20,20,21,21,22,22,23,23,24,24,25,25,26,26,27,27,28,28,29,29,30,30],"right_children":[2,4,6,8,10,12,14,16,18,20,22,24,26,28,30,32,34,36,38,40,42,44,46,48,50,52,54,56,58,60,62,-1,-1,-1,-1,-1,-1,-1,-1,-1,-1,-1,-1,-1,-1,-1,-1,-1,-1,-1,-1,-1,-1,-1,-1,-1,-1,-1,-1,-1,-1,-1,-1],"split_conditions":[-2.790779E-1,1.4E1,1.1411458E-2,-2.8188159E-3,-3.550528E-1,1.3E1,1.2643769E-2,8.962756E-3,-9.4538165E-4,-2.664996E-3,1.9679751E-2,-2.5911126E-1,8.850028E-3,3.0019048E-3,1.5059055E-2,-5.1081777E-1,9.208712E-3,-4.2542616E-1,9.727691E-3,-2.9702643E-3,-1.3774981E0,2.0437799E0,5.7115364E-1,1.687025E-3,1.687025E-3,-2.8597036E-2,-2.2498994E-1,2.7617665E-3,1.1502491E-2,-2.7133882E-1,-2.5622946E-1,1.3187435E-2,4.272981E-2,-1.9672425E-2,3.2992084E-3,1.2776054E-3,-2.6168846E-4,-1.9332889E-3,-1.6004273E-4,-6.3060044E-4,-2.3934407E-2,8.0309585E-3,3.766804E-3,6.0909195E-4,-7.0437845E-3,-4.1432522E-2,-4.6708942E-3,2.167451E-3,1.4050883E-2,-1.20432145E-4,-4.895543E-3,3.5932874E-3,7.6496095E-4,-8.478288E-3,7.388035E-5,4.260068E-3,-1.9692115E-2,-1.847328E-2,1.7479783E-2,-1.9281087E-2,8.789958E-4,8.795207E-3,3.591439E-3],"split_indices":[65,46,84,82,71,46,84,84,83,82,84,65,84,82,84,65,84,43,84,82,71,25,15,82,82,31,65,82,84,65,65,0,0,0,0,0,0,0,0,0,0,0,0,0,0,0,0,0,0,0,0,0,0,0,0,0,0,0,0,0,0,0,0],"split_type":[0,0,0,0,0,0,0,0,0,0,0,0,0,0,0,0,0,0,0,0,0,0,0,0,0,0,0,0,0,0,0,0,0,0,0,0,0,0,0,0,0,0,0,0,0,0,0,0,0,0,0,0,0,0,0,0,0,0,0,0,0,0,0],"sum_hessian":[4.893825E5,3.1733362E5,1.7204888E5,2.6575072E5,5.1582906E4,1.360922E5,3.5956656E4,8.199379E3,2.5755133E5,1.4404989E4,3.7177918E4,7.191308E4,6.417913E4,1.0243636E4,2.5713021E4,4.4820798E2,7.7511714E3,5.60647E4,2.0148664E5,4.760011E2,1.3928988E4,3.708819E4,8.972677E1,5.1197905E3,6.679329E4,5.2579805E4,1.1599326E4,9.223931E3,1.0197047E3,1.2035807E4,1.3677215E4,3.408114E2,1.07396576E2,1.517299E2,7.5994414E3,1.7774281E4,3.8290418E4,1.5330158E5,4.8185055E4,3.6889935E2,1.0710175E2,1.8997671E3,1.2029222E4,3.6033938E4,1.0542532E3,6.762271E1,2.2104053E1,4.50274E3,6.170507E2,6.2934742E4,3.8585464E3,2.7748707E4,2.4831096E4,1.678397E3,9.920929E3,8.934256E3,2.8967474E2,6.67042E1,9.5300055E2,2.6150925E2,1.1774298E4,1.4131053E3,1.2264109E4],"tree_param":{"num_deleted":"0","num_feature":"86","num_nodes":"63","size_leaf_vector":"1"}},{"base_weights":[-2.7754364E-4,-2.031028E-2,3.6628883E-2,-3.2361142E-2,4.156455E-2,2.0701881E-2,9.687542E-2,-4.873898E-2,1.0996582E-2,1.430709E-1,1.46164E-2,4.6929564E-2,-1.496867E-2,1.2574966E-1,5.4394595E-2,1.3173058E-2,-6.403732E-2,-8.394392E-3,8.1885576E-2,1.75394E-1,1.0523643E-2,1.704381E-2,-9.901796E-1,1.0387658E-2,9.084744E-2,-2.6466663E-3,-9.505414E-2,2.5130394E-1,9.067541E-2,4.006953E-2,4.8302636E-1,2.8664753E-4,2.1549517E-2,-1.765766E-3,-8.096507E-3,9.705391E-4,-3.7940159E-3,3.1446225E-3,-6.4927815E-3,5.8223982E-3,-1.6886581E-3,-3.2722324E-2,6.766862E-4,1.2306672E-3,-2.417279E-3,-3.7784822E-2,-3.203853E-3,-7.475934E-4,1.8006578E-3,2.970193E-3,-1.1462045E-2,-2.075178E-4,8.415716E-3,-2.0430584E-3,-1.3949011E-2,5.670069E-3,2.0713544E-2,6.8749307E-4,5.558036E-3,2.0734638E-3,-4.2701974E-3,2.3321338E-2,2.9005494E-3],"categories":[],"categories_nodes":[],"categories_segments":[],"categories_sizes":[],"default_left":[0,0,0,0,0,0,0,0,0,0,0,0,0,0,0,0,0,0,0,0,0,0,0,0,0,0,0,0,0,0,0,0,0,0,0,0,0,0,0,0,0,0,0,0,0,0,0,0,0,0,0,0,0,0,0,0,0,0,0,0,0,0,0],"id":16,"left_children":[1,3,5,7,9,11,13,15,17,19,21,23,25,27,29,31,33,35,37,39,41,43,45,47,49,51,53,55,57,59,61,-1,-1,-1,-1,-1,-1,-1,-1,-1,-1,-1,-1,-1,-1,-1,-1,-1,-1,-1,-1,-1,-1,-1,-1,-1,-1,-1,-1,-1,-1,-1,-1],"loss_changes":[3.6159836E2,2.3639537E2,1.6498135E2,1.884837E2,1.4117563E2,1.2736502E2,4.3918182E1,1.8250638E2,1.0006868E2,4.621672E1,9.867151E1,1.25796036E2,5.679667E1,9.3828766E1,8.890114E1,9.660865E1,1.643092E2,2.7485583E2,1.0691021E2,3.783191E1,2.7229004E1,9.534055E1,2.1552544E1,7.5105194E1,1.3721841E2,6.017145E1,7.594403E1,1.2647333E2,1.070294E2,7.466947E1,5.2282288E1,0E0,0E0,0E0,0E0,0E0,0E0,0E0,0E0,0E0,0E0,0E0,0E0,0E0,0E0,0E0,0E0,0E0,0E0,0E0,0E0,0E0,0E0,0E0,0E0,0E0,0E0,0E0,0E0,0E0,0E0,0E0,0E0],"parents":[2147483647,0,0,1,1,2,2,3,3,4,4,5,5,6,6,7,7,8,8,9,9,10,10,11,11,12,12,13,13,14,14,15,15,16,16,17,17,18,18,19,19,20,20,21,21,22,22,23,23,24,24,25,25,26,26,27,27,28,28,29,29,30,30],"right_children":[2,4,6,8,10,12,14,16,18,20,22,24,26,28,30,32,34,36,38,40,42,44,46,48,50,52,54,56,58,60,62,-1,-1,-1,-1,-1,-1,-1,-1,-1,-1,-1,-1,-1,-1,-1,-1,-1,-1,-1,-1,-1,-1,-1,-1,-1,-1,-1,-1,-1,-1,-1,-1],"split_conditions":[-2.790779E-1,1.4E1,1.1411458E-2,9.727691E-3,-5.804746E-1,-8.216627E-3,3E0,1E0,4E0,4E0,1.9679751E-2,1.3E1,1.2889127E-3,1.24273775E-2,2.3521308E-2,9.68754E-3,-2.9068747E-1,3E0,1.3E1,-1.9647096E-1,-4.6674297E-3,4E0,5.8596873E-1,-7.178988E-2,1.0982435E-2,1.2046252E-3,1.09137995E-2,1.2278936E-2,1.5923144E-2,1.3E1,-1.8852624E-1,2.8664753E-4,2.1549517E-2,-1.765766E-3,-8.096507E-3,9.705391E-4,-3.7940159E-3,3.1446225E-3,-6.4927815E-3,5.8223982E-3,-1.6886581E-3,-3.2722324E-2,6.766862E-4,1.2306672E-3,-2.417279E-3,-3.7784822E-2,-3.203853E-3,-7.475934E-4,1.8006578E-3,2.970193E-3,-1.1462045E-2,-2.075178E-4,8.415716E-3,-2.0430584E-3,-1.3949011E-2,5.670069E-3,2.0713544E-2,6.8749307E-4,5.558036E-3,2.0734638E-3,-4.2701974E-3,2.3321338E-2,2.9005494E-3],"split_indices":[65,46,84,84,71,31,47,47,47,47,84,46,82,84,84,84,65,47,46,64,82,47,17,32,84,82,84,84,84,46,64,0,0,0,0,0,0,0,0,0,0,0,0,0,0,0,0,0,0,0,0,0,0,0,0,0,0,0,0,0,0,0,0],"split_type":[0,0,0,0,0,0,0,0,0,0,0,0,0,0,0,0,0,0,0,0,0,0,0,0,0,0,0,0,0,0,0,0,0,0,0,0,0,0,0,0,0,0,0,0,0,0,0,0,0,0,0,0,0,0,0,0,0,0,0,0,0,0,0],"sum_hessian":[4.8910288E5,3.170414E5,1.7206147E5,2.653738E5,5.16676E4,1.3610067E5,3.5960797E4,1.9263222E5,7.2741586E4,1.0829626E4,4.0837977E4,7.844752E4,5.765314E4,2.1392709E4,1.456809E4,3.8154953E4,1.5447727E5,5.7107938E4,1.5633647E4,8.699875E3,2.1297507E3,4.074251E4,9.5465485E1,4.2833293E4,3.5614234E4,4.997804E4,7.675101E3,4.6623135E3,1.6730395E4,1.4101337E4,4.6675296E2,3.7963605E4,1.9134843E2,1.506937E5,3.7835598E3,4.2451387E4,1.4656549E4,1.45218125E4,1.111835E3,8.054865E3,6.4501025E2,2.0182278E1,2.1095684E3,3.271749E4,8.025022E3,7.164101E1,2.3824484E1,2.501773E4,1.7815562E4,3.501385E4,6.003821E2,4.9240902E4,7.3713666E2,7.1585913E3,5.1650995E2,4.0875525E3,5.747612E2,9.755405E3,6.9749893E3,1.217015E4,1.9311868E3,2.6229727E2,2.044557E2],"tree_param":{"num_deleted":"0","num_feature":"86","num_nodes":"63","size_leaf_vector":"1"}},{"base_weights":[-6.998491E-4,3.0094163E-2,-2.3919072E-2,1.7969321E-2,9.120323E-2,-3.6790855E-2,3.850434E-2,-1.2121934E-3,6.388768E-2,9.461803E-2,-8.326501E-1,-4.925226E-2,1.6034167E-2,-2.3533236E-3,1.0104775E-1,-2.413467E-2,4.327628E-2,1.7412834E-1,5.533159E-2,9.270868E-2,1.0752301E0,-2.0372958E-1,-1.0089006E0,-6.585884E-2,-1.5961532E-2,1.7296297E-2,-1.2219824E0,1.023294E-2,-3.5778698E-1,9.020329E-2,2.9171047E-1,-6.7989924E-4,-2.0812627E-2,1.6902653E-3,-3.1327293E-3,9.89941E-3,-5.804304E-4,1.438292E-3,1.0002548E-2,3.6706468E-3,9.452491E-4,1.0004831E-2,3.9219923E-2,8.721684E-3,-1.5307572E-2,-1.1717635E-3,-3.4585144E-2,-1.050064E-3,-2.5273752E-3,-6.4991225E-5,-2.2140353E-3,1.9866356E-3,-4.2609236E-4,-4.1263882E-2,-1.7823547E-2,1.4397954E-3,-1.9893672E-3,-8.534119E-3,-3.867892E-2,1.0399919E-2,2.4560632E-3,1.0920164E-2,-2.3898771E-2],"categories":[],"categories_nodes":[],"categories_segments":[],"categories_sizes":[],"default_left":[0,0,0,0,0,0,0,0,0,0,0,0,0,0,0,0,0,0,0,0,0,0,0,0,0,0,0,0,0,0,0,0,0,0,0,0,0,0,0,0,0,0,0,0,0,0,0,0,0,0,0,0,0,0,0,0,0,0,0,0,0,0,0],"id":17,"left_children":[1,3,5,7,9,11,13,15,17,19,21,23,25,27,29,31,33,35,37,39,41,43,45,47,49,51,53,55,57,59,61,-1,-1,-1,-1,-1,-1,-1,-1,-1,-1,-1,-1,-1,-1,-1,-1,-1,-1,-1,-1,-1,-1,-1,-1,-1,-1,-1,-1,-1,-1,-1,-1],"loss_changes":[3.4987622E2,1.557348E2,2.2417715E2,1.5466661E2,1.0923743E2,1.5230566E2,1.2194691E2,1.2622936E2,4.854901E1,6.3574127E1,1.2489265E1,1.0339865E2,6.7805756E1,1.2934547E2,3.8542435E1,7.9764084E1,8.1175095E1,1.1239665E2,9.825113E1,6.2652557E1,8.8834915E0,5.308248E0,1.2356758E1,7.071808E1,4.9648975E1,6.8011024E1,6.528168E-1,8.047591E1,6.522884E1,3.765663E1,7.950857E1,0E0,0E0,0E0,0E0,0E0,0E0,0E0,0E0,0E0,0E0,0E0,0E0,0E0,0E0,0E0,0E0,0E0,0E0,0E0,0E0,0E0,0E0,0E0,0E0,0E0,0E0,0E0,0E0,0E0,0E0,0E0,0E0],"parents":[2147483647,0,0,1,1,2,2,3,3,4,4,5,5,6,6,7,7,8,8,9,9,10,10,11,11,12,12,13,13,14,14,15,15,16,16,17,17,18,18,19,19,20,20,21,21,22,22,23,23,24,24,25,25,26,26,27,27,28,28,29,29,30,30],"right_children":[2,4,6,8,10,12,14,16,18,20,22,24,26,28,30,32,34,36,38,40,42,44,46,48,50,52,54,56,58,60,62,-1,-1,-1,-1,-1,-1,-1,-1,-1,-1,-1,-1,-1,-1,-1,-1,-1,-1,-1,-1,-1,-1,-1,-1,-1,-1,-1,-1,-1,-1,-1,-1],"split_conditions":[-1.5001369E-1,1.4E1,1.1246668E-2,9.913661E-3,1.9679751E-2,1.4E1,-3.151811E-1,1.3E1,-3.395141E-3,4.3966235E-3,-7.528776E-1,4.8042014E-1,1.1180418E-2,-3.2483545E-1,2.3521308E-2,2.5949772E-3,8.850028E-3,1.895357E-2,2.1871196E-2,2.5545496E-1,-9.5868284E-1,-6.1917186E-1,-1.3204585E0,-3.5631984E-1,1.3835821E0,-1.3397774E-1,3.0083057E-1,6.395956E-4,1.3E1,-3.0991846E-1,1.4E1,-6.7989924E-4,-2.0812627E-2,1.6902653E-3,-3.1327293E-3,9.89941E-3,-5.804304E-4,1.438292E-3,1.0002548E-2,3.6706468E-3,9.452491E-4,1.0004831E-2,3.9219923E-2,8.721684E-3,-1.5307572E-2,-1.1717635E-3,-3.4585144E-2,-1.050064E-3,-2.5273752E-3,-6.4991225E-5,-2.2140353E-3,1.9866356E-3,-4.2609236E-4,-4.1263882E-2,-1.7823547E-2,1.4397954E-3,-1.9893672E-3,-8.534119E-3,-3.867892E-2,1.0399919E-2,2.4560632E-3,1.0920164E-2,-2.3898771E-2],"split_indices":[1,46,84,84,84,46,65,46,82,82,26,32,84,65,84,82,84,84,84,72,0,40,19,43,21,72,30,82,46,65,46,0,0,0,0,0,0,0,0,0,0,0,0,0,0,0,0,0,0,0,0,0,0,0,0,0,0,0,0,0,0,0,0],"split_type":[0,0,0,0,0,0,0,0,0,0,0,0,0,0,0,0,0,0,0,0,0,0,0,0,0,0,0,0,0,0,0,0,0,0,0,0,0,0,0,0,0,0,0,0,0,0,0,0,0,0,0,0,0,0,0,0,0,0,0,0,0,0,0],"sum_hessian":[4.893331E5,2.1033588E5,2.7899725E5,1.755278E5,3.480807E4,2.3131636E5,4.768087E4,1.2379498E5,5.173282E4,3.468275E4,1.2531878E2,1.8717978E5,4.413658E4,2.8831854E4,1.8849018E4,8.171507E4,4.207991E4,3.7147417E3,4.801808E4,3.4618555E4,6.419698E1,2.9617876E1,9.57009E1,1.2486216E5,6.2317625E4,4.4094406E4,4.217343E1,2.7844963E4,9.868892E2,1.7842375E4,1.0066419E3,8.153946E4,1.7560637E2,3.866733E4,3.4125842E3,2.059498E3,1.6552437E3,4.6781086E4,1.2369924E3,2.3309031E4,1.1309522E4,1.748893E1,4.670805E1,1.012535E1,1.9492525E1,1.3594199E1,8.2106705E1,4.664448E4,7.821768E4,5.033237E4,1.1985257E4,1.728181E4,2.6812596E4,3.0695787E1,1.1477646E1,1.8655764E4,9.1892E3,9.182972E2,6.859208E1,5.552631E2,1.7287113E4,9.460486E2,6.0593353E1],"tree_param":{"num_deleted":"0","num_feature":"86","num_nodes":"63","size_leaf_vector":"1"}},{"base_weights":[1.4172908E-4,4.0918075E-2,-1.6788479E-2,2.0338558E-2,7.932611E-2,-3.177694E-2,2.3988286E-2,-1.3786164E-2,6.464429E-2,9.846473E-2,4.3145837E-3,-4.272269E-2,2.2824774E-2,7.303603E-3,1.04516566E-1,4.4014957E-2,-2.7950699E-2,4.7958747E-2,1.3596596E-1,9.266398E-2,3.602388E-1,2.8936569E-2,-4.1644537E-1,-5.8035385E-2,2.017792E-3,4.782082E-2,-7.86245E-2,3.2424483E-2,-2.868703E-2,1.3267078E-1,5.586538E-3,3.6567347E-3,-2.7065133E-4,-1.4856854E-4,-2.0171346E-3,6.30598E-4,4.370022E-3,5.5721793E-3,3.6191873E-4,4.68644E-3,2.1333266E-3,1.73735E-2,-4.5344164E-3,6.9498754E-4,3.847254E-2,-5.417729E-3,-2.8653372E-2,-1.8229186E-5,-2.1665874E-3,-5.05473E-4,2.1077613E-3,1.4987842E-3,-3.1700984E-2,-1.8806489E-3,-1.7634554E-2,-7.293796E-5,2.0926404E-3,-1.5180972E-3,6.229035E-4,7.6192184E-3,3.0896557E-3,1.9747617E-3,-1.454147E-2],"categories":[],"categories_nodes":[],"categories_segments":[],"categories_sizes":[],"default_left":[0,0,0,0,0,0,0,0,0,0,0,0,0,0,0,0,0,0,0,0,0,0,0,0,0,0,0,0,0,0,0,0,0,0,0,0,0,0,0,0,0,0,0,0,0,0,0,0,0,0,0,0,0,0,0,0,0,0,0,0,0,0,0],"id":18,"left_children":[1,3,5,7,9,11,13,15,17,19,21,23,25,27,29,31,33,35,37,39,41,43,45,47,49,51,53,55,57,59,61,-1,-1,-1,-1,-1,-1,-1,-1,-1,-1,-1,-1,-1,-1,-1,-1,-1,-1,-1,-1,-1,-1,-1,-1,-1,-1,-1,-1,-1,-1,-1,-1],"loss_changes":[3.3781293E2,1.133777E2,2.1131241E2,1.4141905E2,7.177911E1,1.511236E2,1.2471626E2,4.322181E1,4.8231796E1,6.0040497E1,1.05215034E2,1.4435196E2,1.0700144E2,6.95993E1,4.4244843E1,4.2990704E1,3.8263866E1,8.667251E1,4.7302505E1,5.3201904E1,9.688279E1,6.830129E1,6.982743E1,1.2775867E2,6.9181984E1,7.9108185E1,6.691961E1,5.9075882E1,3.4307404E1,4.422693E1,1.0420741E2,0E0,0E0,0E0,0E0,0E0,0E0,0E0,0E0,0E0,0E0,0E0,0E0,0E0,0E0,0E0,0E0,0E0,0E0,0E0,0E0,0E0,0E0,0E0,0E0,0E0,0E0,0E0,0E0,0E0,0E0,0E0,0E0],"parents":[2147483647,0,0,1,1,2,2,3,3,4,4,5,5,6,6,7,7,8,8,9,9,10,10,11,11,12,12,13,13,14,14,15,15,16,16,17,17,18,18,19,19,20,20,21,21,22,22,23,23,24,24,25,25,26,26,27,27,28,28,29,29,30,30],"right_children":[2,4,6,8,10,12,14,16,18,20,22,24,26,28,30,32,34,36,38,40,42,44,46,48,50,52,54,56,58,60,62,-1,-1,-1,-1,-1,-1,-1,-1,-1,-1,-1,-1,-1,-1,-1,-1,-1,-1,-1,-1,-1,-1,-1,-1,-1,-1,-1,-1,-1,-1,-1,-1],"split_conditions":[-1.0542615E-3,1.3E1,-2.790779E-1,9.913661E-3,4E0,1.4E1,1.1689137E-2,1E0,-2.3488423E-1,1.4254519E-2,-1.4759474E-1,9.727691E-3,4E0,1.4472214E-2,4E0,-4.4524586E-1,1.20368E-1,4E0,3.7758764E-2,-1.3253003E0,1.7774614E-2,2.3521308E-2,1.1180418E-2,1E0,4E0,1.9679751E-2,1.1773147E-2,1.3E1,6.578701E-1,1.24273775E-2,1.3E1,3.6567347E-3,-2.7065133E-4,-1.4856854E-4,-2.0171346E-3,6.30598E-4,4.370022E-3,5.5721793E-3,3.6191873E-4,4.68644E-3,2.1333266E-3,1.73735E-2,-4.5344164E-3,6.9498754E-4,3.847254E-2,-5.417729E-3,-2.8653372E-2,-1.8229186E-5,-2.1665874E-3,-5.05473E-4,2.1077613E-3,1.4987842E-3,-3.1700984E-2,-1.8806489E-3,-1.7634554E-2,-7.293796E-5,2.0926404E-3,-1.5180972E-3,6.229035E-4,7.6192184E-3,3.0896557E-3,1.9747617E-3,-1.454147E-2],"split_indices":[83,46,65,84,47,46,84,47,64,84,64,84,47,31,47,64,51,47,64,71,84,84,84,47,47,84,84,46,32,84,46,0,0,0,0,0,0,0,0,0,0,0,0,0,0,0,0,0,0,0,0,0,0,0,0,0,0,0,0,0,0,0,0],"split_type":[0,0,0,0,0,0,0,0,0,0,0,0,0,0,0,0,0,0,0,0,0,0,0,0,0,0,0,0,0,0,0,0,0,0,0,0,0,0,0,0,0,0,0,0,0,0,0,0,0,0,0,0,0,0,0,0,0,0,0,0,0,0,0],"sum_hessian":[4.8929538E5,1.4356817E5,3.4572722E5,9.3499195E4,5.0068977E4,2.5282162E5,9.2905586E4,5.2806164E4,4.069303E4,3.9879953E4,1.0189023E4,2.1061864E5,4.2202984E4,7.697227E4,1.5933313E4,1.037877E4,4.2427395E4,3.2991992E4,7.701037E3,3.9021785E4,8.581696E2,9.62975E3,5.592735E2,1.5693012E5,5.368851E4,3.386894E4,8.334041E3,4.534805E4,3.1624223E4,1.2395052E4,3.5382612E3,4.211333E3,6.167437E3,2.6778908E4,1.5648484E4,2.5871691E4,7.1203027E3,5.4875386E3,2.213498E3,9.867606E3,2.9154178E4,6.021391E2,2.5603052E2,9.588444E3,4.1305E1,3.9211404E2,1.671595E2,3.1097562E4,1.2583257E5,4.2049688E4,1.1638825E4,3.3806297E4,6.2643227E1,8.0852095E3,2.488321E2,2.343838E4,2.1909672E4,2.1926625E4,9.697597E3,2.4271506E3,9.967901E3,3.154472E3,3.8378946E2],"tree_param":{"num_deleted":"0","num_feature":"86","num_nodes":"63","size_leaf_vector":"1"}},{"base_weights":[-2.353334E-5,-1.8872654E-2,3.472702E-2,-3.0080076E-2,3.8758643E-2,2.0815099E-2,8.743314E-2,1.2093954E-1,-3.4879047E-2,1.0882659E-1,3.1406062E-3,8.346428E-2,6.0169427E-3,1.1928273E-1,4.048869E-2,6.6699016E-1,8.860091E-2,-1.5416977E-2,-6.42164E-2,1.3530119E-1,1.6297662E-3,5.309038E-3,-8.70761E-1,6.5669544E-2,1.580213E-1,1.1471436E-2,-1.2176279E-1,2.4472532E-1,8.436797E-2,2.768066E-2,4.0332994E-1,2.3715041E-4,2.8954767E-2,-1.729697E-2,3.0664941E-3,-8.294319E-4,1.2095177E-3,-1.976473E-3,1.7460264E-2,2.5104622E-3,5.653972E-3,-3.0262927E-2,4.2418815E-4,7.905285E-4,-2.4220538E-3,3.533111E-5,-3.631026E-2,7.0093176E-4,2.9696643E-3,5.8800955E-3,1.9297668E-3,-1.11888054E-4,1.4510369E-3,-1.8736804E-2,-2.2398848E-3,5.5764476E-3,1.9664977E-2,6.776905E-4,5.1236935E-3,1.8006584E-3,-2.016124E-3,2.1064194E-2,4.879289E-4],"categories":[],"categories_nodes":[],"categories_segments":[],"categories_sizes":[],"default_left":[0,0,0,0,0,0,0,0,0,0,0,0,0,0,0,0,0,0,0,0,0,0,0,0,0,0,0,0,0,0,0,0,0,0,0,0,0,0,0,0,0,0,0,0,0,0,0,0,0,0,0,0,0,0,0,0,0,0,0,0,0,0,0],"id":19,"left_children":[1,3,5,7,9,11,13,15,17,19,21,23,25,27,29,31,33,35,37,39,41,43,45,47,49,51,53,55,57,59,61,-1,-1,-1,-1,-1,-1,-1,-1,-1,-1,-1,-1,-1,-1,-1,-1,-1,-1,-1,-1,-1,-1,-1,-1,-1,-1,-1,-1,-1,-1,-1,-1],"loss_changes":[3.2055084E2,2.0494687E2,1.26069595E2,1.9246346E2,1.2878296E2,1.261492E2,5.353891E1,1.4350662E2,1.4693939E2,4.9233963E1,6.4052826E1,3.425688E1,7.667417E1,9.3303894E1,6.7097855E1,8.844948E1,6.958896E1,1.05529236E2,1.1010184E2,3.7961685E1,4.2704945E1,6.1818016E1,2.5981064E1,2.948603E1,1.7502792E1,5.930801E1,1.05839294E2,1.1130011E2,8.917523E1,4.3100246E1,5.625479E1,0E0,0E0,0E0,0E0,0E0,0E0,0E0,0E0,0E0,0E0,0E0,0E0,0E0,0E0,0E0,0E0,0E0,0E0,0E0,0E0,0E0,0E0,0E0,0E0,0E0,0E0,0E0,0E0,0E0,0E0,0E0,0E0],"parents":[2147483647,0,0,1,1,2,2,3,3,4,4,5,5,6,6,7,7,8,8,9,9,10,10,11,11,12,12,13,13,14,14,15,15,16,16,17,17,18,18,19,19,20,20,21,21,22,22,23,23,24,24,25,25,26,26,27,27,28,28,29,29,30,30],"right_children":[2,4,6,8,10,12,14,16,18,20,22,24,26,28,30,32,34,36,38,40,42,44,46,48,50,52,54,56,58,60,62,-1,-1,-1,-1,-1,-1,-1,-1,-1,-1,-1,-1,-1,-1,-1,-1,-1,-1,-1,-1,-1,-1,-1,-1,-1,-1,-1,-1,-1,-1,-1,-1],"split_conditions":[-2.790779E-1,1E0,1.1411458E-2,-2.8188159E-3,-1.8041743E-1,-1.3253003E0,3E0,8.962756E-3,3E0,4E0,1.9679751E-2,1E0,2.1530932E-3,1.24273775E-2,2.3521308E-2,2E0,9.208712E-3,1.0656944E-2,2.3521308E-2,2E0,-4.6674297E-3,4E0,2E0,-5.0857764E-1,2.1637768E-1,4.916348E-1,7.7513065E-3,1.2278936E-2,1.5923144E-2,2.7617665E-3,-1.8852624E-1,2.3715041E-4,2.8954767E-2,-1.729697E-2,3.0664941E-3,-8.294319E-4,1.2095177E-3,-1.976473E-3,1.7460264E-2,2.5104622E-3,5.653972E-3,-3.0262927E-2,4.2418815E-4,7.905285E-4,-2.4220538E-3,3.533111E-5,-3.631026E-2,7.0093176E-4,2.9696643E-3,5.8800955E-3,1.9297668E-3,-1.11888054E-4,1.4510369E-3,-1.8736804E-2,-2.2398848E-3,5.5764476E-3,1.9664977E-2,6.776905E-4,5.1236935E-3,1.8006584E-3,-2.016124E-3,2.1064194E-2,4.879289E-4],"split_indices":[65,69,84,82,71,71,47,84,47,47,84,69,82,84,84,47,84,84,84,47,82,47,47,32,51,32,84,84,84,82,64,0,0,0,0,0,0,0,0,0,0,0,0,0,0,0,0,0,0,0,0,0,0,0,0,0,0,0,0,0,0,0,0],"split_type":[0,0,0,0,0,0,0,0,0,0,0,0,0,0,0,0,0,0,0,0,0,0,0,0,0,0,0,0,0,0,0,0,0,0,0,0,0,0,0,0,0,0,0,0,0,0,0,0,0,0,0,0,0,0,0,0,0,0,0,0,0,0,0],"sum_hessian":[4.893978E5,3.1731306E5,1.7208477E5,2.656676E5,5.164544E4,1.3616533E5,3.5919434E4,8.174243E3,2.5749336E5,1.7394576E4,3.4250867E4,2.6002941E4,1.1016239E5,2.1385797E4,1.4533638E4,4.5311084E2,7.7211323E3,1.5482278E5,1.0267058E5,1.3941552E4,3.4530237E3,3.4169215E4,8.1652695E1,2.1006447E4,4.9964937E3,1.0566169E5,4.500701E3,4.647498E3,1.6738299E4,1.4042845E4,4.9079355E2,1.4282068E2,3.1029016E2,1.5174475E2,7.5693877E3,1.2697692E5,2.7845857E4,1.024099E5,2.606808E2,7.0857417E3,6.8558096E3,3.9304047E1,3.4137197E3,2.7465578E4,6.7036377E3,2.261995E1,5.9032745E1,9.269926E3,1.1736521E4,3.5461272E3,1.4503665E3,7.481374E4,3.084795E4,3.815766E2,4.1191245E3,4.0698306E3,5.7766754E2,9.769037E3,6.9692607E3,1.0481516E4,3.5613289E3,2.745967E2,2.1619682E2],"tree_param":{"num_deleted":"0","num_feature":"86","num_nodes":"63","size_leaf_vector":"1"}},{"base_weights":[-1.0759125E-3,3.7126835E-2,-1.7841712E-2,1.5019298E-2,7.295695E-2,-3.373438E-2,2.3396028E-2,-1.3128383E-2,6.5952845E-2,8.420276E-2,-2.457667E-2,-6.771441E-2,2.4653212E-3,7.783822E-2,1.1187358E-2,-1.0064761E-2,-4.464734E-1,5.2600514E-2,2.104141E-1,1.9593535E-1,6.808674E-2,-3.014002E-2,4.4182304E-2,-1.0100483E-1,-4.497036E-2,8.0006085E-3,-2.7196938E-1,6.3025415E-2,2.5445595E-1,2.4798902E-2,-3.685468E-2,1.2212885E-2,-3.6589784E-4,1.2380898E-3,-1.581102E-2,4.8126215E-3,1.2060662E-3,4.3012053E-3,1.5143094E-2,5.5168997E-3,3.6873713E-2,3.7066685E-3,1.521307E-3,-5.5719184E-4,-2.3454936E-2,-1.8975142E-3,-3.9857356E-3,-3.2588275E-4,-2.1650924E-3,-2.9974752E-3,5.189308E-4,-1.2507755E-2,-5.275777E-4,2.8962768E-3,7.933034E-5,6.361021E-3,2.136457E-2,3.832924E-3,4.9881346E-4,-1.3721472E-3,5.9499955E-3],"categories":[],"categories_nodes":[],"categories_segments":[],"categories_sizes":[],"default_left":[0,0,0,0,0,0,0,0,0,0,0,0,0,0,0,0,0,0,0,0,0,0,0,0,0,0,0,0,0,0,0,0,0,0,0,0,0,0,0,0,0,0,0,0,0,0,0,0,0,0,0,0,0,0,0,0,0,0,0,0,0],"id":20,"left_children":[1,3,5,7,9,11,13,15,17,19,21,23,25,27,29,31,33,35,37,39,41,43,-1,45,47,49,51,53,55,57,59,-1,-1,-1,-1,-1,-1,-1,-1,-1,-1,-1,-1,-1,-1,-1,-1,-1,-1,-1,-1,-1,-1,-1,-1,-1,-1,-1,-1,-1,-1],"loss_changes":[3.1366016E2,1.1821748E2,2.2309277E2,1.325043E2,6.25542E1,3.0231064E2,6.2835102E1,7.851571E1,6.316809E1,9.171094E1,4.764656E1,9.582037E1,1.804481E2,4.4979355E1,5.057006E1,5.2154335E1,1.6847504E1,4.005304E1,5.3993675E1,7.813286E1,4.2861847E1,5.0149494E1,0E0,6.1636963E1,6.9798325E1,1.169193E2,8.614751E1,3.2267757E1,2.469101E1,5.0579468E1,3.551159E1,0E0,0E0,0E0,0E0,0E0,0E0,0E0,0E0,0E0,0E0,0E0,0E0,0E0,0E0,0E0,0E0,0E0,0E0,0E0,0E0,0E0,0E0,0E0,0E0,0E0,0E0,0E0,0E0,0E0,0E0],"parents":[2147483647,0,0,1,1,2,2,3,3,4,4,5,5,6,6,7,7,8,8,9,9,10,10,11,11,12,12,13,13,14,14,15,15,16,16,17,17,18,18,19,19,20,20,21,21,23,23,24,24,25,25,26,26,27,27,28,28,29,29,30,30],"right_children":[2,4,6,8,10,12,14,16,18,20,22,24,26,28,30,32,34,36,38,40,42,44,-1,46,48,50,52,54,56,58,60,-1,-1,-1,-1,-1,-1,-1,-1,-1,-1,-1,-1,-1,-1,-1,-1,-1,-1,-1,-1,-1,-1,-1,-1,-1,-1,-1,-1,-1,-1],"split_conditions":[-3.8872102E-1,1.3E1,9.68754E-3,1.0069901E-2,-2.0881008E-1,1.3E1,-7.882271E-1,2.1530932E-3,-1.630847E-1,-8.694495E-4,6.8623265E-3,-3.809723E-1,9.374791E-3,1.835588E-2,3.4420146E-3,-2.9702643E-3,-7.573481E-1,1.0444561E-2,1.2E1,1.5059055E-2,-8.7198335E-1,1.9679751E-2,4.4182304E-2,3.3792946E-2,-2.7710563E-1,-1.4027637E0,-1.630847E-1,6.395956E-4,7.889399E-1,-3.1647554E-3,9.578112E-3,1.2212885E-2,-3.6589784E-4,1.2380898E-3,-1.581102E-2,4.8126215E-3,1.2060662E-3,4.3012053E-3,1.5143094E-2,5.5168997E-3,3.6873713E-2,3.7066685E-3,1.521307E-3,-5.5719184E-4,-2.3454936E-2,-1.8975142E-3,-3.9857356E-3,-3.2588275E-4,-2.1650924E-3,-2.9974752E-3,5.189308E-4,-1.2507755E-2,-5.275777E-4,2.8962768E-3,7.933034E-5,6.361021E-3,2.136457E-2,3.832924E-3,4.9881346E-4,-1.3721472E-3,5.9499955E-3],"split_indices":[0,46,84,84,64,46,43,82,64,82,82,48,84,84,83,82,64,84,46,84,73,84,0,78,51,50,64,82,66,82,82,0,0,0,0,0,0,0,0,0,0,0,0,0,0,0,0,0,0,0,0,0,0,0,0,0,0,0,0,0,0],"split_type":[0,0,0,0,0,0,0,0,0,0,0,0,0,0,0,0,0,0,0,0,0,0,0,0,0,0,0,0,0,0,0,0,0,0,0,0,0,0,0,0,0,0,0,0,0,0,0,0,0,0,0,0,0,0,0,0,0,0,0,0,0],"sum_hessian":[4.8973775E5,1.4935458E5,3.4038316E5,9.238367E4,5.6970906E4,2.4571236E5,9.467081E4,5.948951E4,3.2894156E4,5.109059E4,5.880316E3,1.2675529E5,1.1895707E5,1.732421E4,7.73466E4,5.9076215E4,4.1329733E2,3.0119873E4,2.7742834E3,6.4296133E3,4.4660977E4,5.861166E3,1.9149792E1,5.142855E4,7.5326734E4,1.1661064E5,2.3464253E3,1.5991398E4,1.3328118E3,6.028741E4,1.7059191E4,2.9604794E2,5.8780168E4,5.6966167E1,3.5633118E2,3.0955251E3,2.7024348E4,2.2648313E3,5.0945218E2,6.358844E3,7.0769264E1,1.0636768E4,3.402421E4,5.7756704E3,8.549575E1,2.3551312E4,2.7877238E4,3.3436926E4,4.188981E4,9.2391875E3,1.0737145E5,1.4913801E3,8.5504517E2,1.0271818E4,5.71958E3,1.2244355E3,1.0837627E2,4.4217197E3,5.586569E4,1.644393E4,6.1526025E2],"tree_param":{"num_deleted":"0","num_feature":"86","num_nodes":"61","size_leaf_vector":"1"}},{"base_weights":[-2.8943346E-4,-1.8796036E-2,3.3780072E-2,2.8236525E-2,-3.0663721E-2,1.947012E-2,8.796267E-2,1.1890581E-2,1.1229793E-1,1.9128956E-2,-4.223283E-2,4.0598974E-2,-1.771547E-2,1.4788982E-1,6.392806E-2,3.7325606E-2,-3.494401E-2,1.3372153E-1,-3.1104475E-1,-2.1109E-2,5.3198647E-2,-5.126474E-2,1.8097783E-2,6.945664E-3,8.060681E-2,1.247342E-1,-2.5781501E-2,2.8112102E-1,6.051519E-2,-2.849028E-4,1.20373E-1,2.2595092E-3,-1.0405774E-4,-1.8175024E-3,7.478383E-3,1.3513287E-2,3.2166103E-3,-2.8044668E-3,-2.3734203E-2,-1.8344413E-3,3.7072285E-4,1.2867015E-3,8.835616E-3,-1.9346451E-3,2.2117763E-4,-2.0943905E-4,7.3512425E-3,-5.7992944E-4,1.6822973E-3,2.6325192E-3,-9.850616E-3,-2.9619443E-3,5.987865E-3,8.747385E-4,-1.3332784E-3,6.0220384E-3,1.6134785E-2,3.4776705E-3,-6.2067886E-3,-2.4885988E-2,3.456983E-4,4.5648073E-3,5.0517725E-4],"categories":[],"categories_nodes":[],"categories_segments":[],"categories_sizes":[],"default_left":[0,0,0,0,0,0,0,0,0,0,0,0,0,0,0,0,0,0,0,0,0,0,0,0,0,0,0,0,0,0,0,0,0,0,0,0,0,0,0,0,0,0,0,0,0,0,0,0,0,0,0,0,0,0,0,0,0,0,0,0,0,0,0],"id":21,"left_children":[1,3,5,7,9,11,13,15,17,19,21,23,25,27,29,31,33,35,37,39,41,43,45,47,49,51,53,55,57,59,61,-1,-1,-1,-1,-1,-1,-1,-1,-1,-1,-1,-1,-1,-1,-1,-1,-1,-1,-1,-1,-1,-1,-1,-1,-1,-1,-1,-1,-1,-1,-1,-1],"loss_changes":[3.0843033E2,1.7695544E2,1.3338686E2,8.762096E1,1.4586137E2,1.0705243E2,5.15596E1,6.3707817E1,9.410188E1,6.544847E1,1.1198447E2,1.1689017E2,5.6600494E1,1.1928937E2,9.3196335E1,5.3805195E1,1.3690082E2,8.235202E1,5.10495E1,2.9349545E1,6.395076E1,1.38629E2,1.5242896E2,6.098011E1,1.15744446E2,4.426869E1,4.7901505E1,8.295657E1,9.204447E1,1.1840803E2,4.4830383E1,0E0,0E0,0E0,0E0,0E0,0E0,0E0,0E0,0E0,0E0,0E0,0E0,0E0,0E0,0E0,0E0,0E0,0E0,0E0,0E0,0E0,0E0,0E0,0E0,0E0,0E0,0E0,0E0,0E0,0E0,0E0,0E0],"parents":[2147483647,0,0,1,1,2,2,3,3,4,4,5,5,6,6,7,7,8,8,9,9,10,10,11,11,12,12,13,13,14,14,15,15,16,16,17,17,18,18,19,19,20,20,21,21,22,22,23,23,24,24,25,25,26,26,27,27,28,28,29,29,30,30],"right_children":[2,4,6,8,10,12,14,16,18,20,22,24,26,28,30,32,34,36,38,40,42,44,46,48,50,52,54,56,58,60,62,-1,-1,-1,-1,-1,-1,-1,-1,-1,-1,-1,-1,-1,-1,-1,-1,-1,-1,-1,-1,-1,-1,-1,-1,-1,-1,-1,-1,-1,-1,-1,-1],"split_conditions":[-2.790779E-1,1E0,1.1411458E-2,1.4E1,-1.1700238E-3,2.4725603E-2,1.2643769E-2,3.4306964E-4,-2.9068747E-1,1.2E1,1.1246668E-2,1.3E1,-2.685898E-1,2E0,1.5059055E-2,8.015524E-3,-2.9556218E-1,-5.349181E-1,4.4345118E-2,-1.0371576E-1,1.1876319E-2,1.4E1,-3.151811E-1,1.19617835E-1,1.0982435E-2,1E0,-1.0792435E0,1.3E1,1.3E1,-2.7359724E-1,4E0,2.2595092E-3,-1.0405774E-4,-1.8175024E-3,7.478383E-3,1.3513287E-2,3.2166103E-3,-2.8044668E-3,-2.3734203E-2,-1.8344413E-3,3.7072285E-4,1.2867015E-3,8.835616E-3,-1.9346451E-3,2.2117763E-4,-2.0943905E-4,7.3512425E-3,-5.7992944E-4,1.6822973E-3,2.6325192E-3,-9.850616E-3,-2.9619443E-3,5.987865E-3,8.747385E-4,-1.3332784E-3,6.0220384E-3,1.6134785E-2,3.4776705E-3,-6.2067886E-3,-2.4885988E-2,3.456983E-4,4.5648073E-3,5.0517725E-4],"split_indices":[65,47,84,46,83,31,84,82,65,46,84,46,65,47,84,84,65,64,31,19,84,46,65,32,84,47,71,46,46,65,47,0,0,0,0,0,0,0,0,0,0,0,0,0,0,0,0,0,0,0,0,0,0,0,0,0,0,0,0,0,0,0,0],"split_type":[0,0,0,0,0,0,0,0,0,0,0,0,0,0,0,0,0,0,0,0,0,0,0,0,0,0,0,0,0,0,0,0,0,0,0,0,0,0,0,0,0,0,0,0,0,0,0,0,0,0,0,0,0,0,0,0,0,0,0,0,0,0,0],"sum_hessian":[4.891951E5,3.1701978E5,1.7217533E5,6.385811E4,2.5316166E5,1.3622E5,3.5955344E4,5.3474117E4,1.0383993E4,4.7714383E4,2.0544728E5,8.6880945E4,4.9339043E4,1.0277595E4,2.5677748E4,3.46682E4,1.8805918E4,9.887365E3,4.966277E2,2.1863703E4,2.5850682E4,1.7871003E5,2.673725E4,4.720281E4,3.967814E4,2.63585E3,4.6703195E4,4.0643242E3,6.2132705E3,1.2004944E4,1.3672804E4,1.7962584E4,1.6705617E4,1.7254504E4,1.551413E3,7.580473E2,9.129318E3,3.448335E2,1.5179419E2,9.967213E3,1.189649E4,2.4797885E4,1.052797E3,1.4583853E5,3.28715E4,2.4074371E4,2.6628782E3,3.0741967E4,1.646084E4,3.900088E4,6.772617E2,6.5792053E2,1.9779297E3,1.1827526E4,3.4875668E4,3.1007834E3,9.6354083E2,5.150878E3,1.062393E3,1.6779033E2,1.1837154E4,1.0452921E4,3.2198833E3],"tree_param":{"num_deleted":"0","num_feature":"86","num_nodes":"63","size_leaf_vector":"1"}},{"base_weights":[-5.734447E-4,6.351113E-2,-9.086985E-3,4.6754215E-2,1.4786941E-1,-2.4675207E-2,1.8793972E-2,9.536499E-4,8.3011284E-2,-7.967434E-2,1.6065864E-1,1.0161955E-1,-2.9272111E-2,4.053506E-2,-1.3464633E-2,8.901204E-2,-2.2010533E-2,1.04254276E-1,1.9904135E-3,-2.1491279E-1,1.11966E-1,1.9194822E-1,8.9191295E-2,8.4893275E-3,1.6265586E-1,-1.3698071E-1,-2.4207061E-2,6.051171E-2,-1.6530252E-3,2.4791574E-2,-3.2039233E-2,2.3287288E-3,1.3337171E-2,7.536048E-4,-1.4111818E-3,3.8123555E-3,1.4551086E-3,1.84253E-3,-1.5483544E-3,-1.4177051E-2,-1.4241056E-3,6.155519E-3,-1.5143777E-2,5.9238654E-3,-8.908024E-3,2.500638E-5,4.4729984E-3,-1.0442037E-2,1.7226349E-3,6.8968358E-3,-1.2235262E-3,-8.584623E-3,-3.4276375E-3,-1.0576573E-3,9.187225E-4,2.335183E-3,7.895989E-4,2.3324188E-4,-3.1646346E-3,8.7410543E-4,-1.4469693E-2,-1.0991739E-3,4.012142E-3],"categories":[],"categories_nodes":[],"categories_segments":[],"categories_sizes":[],"default_left":[0,0,0,0,0,0,0,0,0,0,0,0,0,0,0,0,0,0,0,0,0,0,0,0,0,0,0,0,0,0,0,0,0,0,0,0,0,0,0,0,0,0,0,0,0,0,0,0,0,0,0,0,0,0,0,0,0,0,0,0,0,0,0],"id":22,"left_children":[1,3,5,7,9,11,13,15,17,19,21,23,25,27,29,31,33,35,37,39,41,43,45,47,49,51,53,55,57,59,61,-1,-1,-1,-1,-1,-1,-1,-1,-1,-1,-1,-1,-1,-1,-1,-1,-1,-1,-1,-1,-1,-1,-1,-1,-1,-1,-1,-1,-1,-1,-1,-1],"loss_changes":[2.6695688E2,8.090042E1,1.8777066E2,7.942878E1,2.7746704E1,1.6082106E2,1.08667816E2,4.2882477E1,4.5870255E1,1.3177202E1,1.9804337E1,5.510795E1,1.4571153E2,7.806322E1,4.4314007E1,1.7177727E1,1.9823685E1,2.6730362E1,1.7730003E1,1.2309223E1,1.1762449E1,1.68555E1,1.442342E1,6.707666E1,8.048134E1,4.0217514E1,1.5472444E2,3.711595E1,2.9201725E1,4.444336E1,3.1932274E1,0E0,0E0,0E0,0E0,0E0,0E0,0E0,0E0,0E0,0E0,0E0,0E0,0E0,0E0,0E0,0E0,0E0,0E0,0E0,0E0,0E0,0E0,0E0,0E0,0E0,0E0,0E0,0E0,0E0,0E0,0E0,0E0],"parents":[2147483647,0,0,1,1,2,2,3,3,4,4,5,5,6,6,7,7,8,8,9,9,10,10,11,11,12,12,13,13,14,14,15,15,16,16,17,17,18,18,19,19,20,20,21,21,22,22,23,23,24,24,25,25,26,26,27,27,28,28,29,29,30,30],"right_children":[2,4,6,8,10,12,14,16,18,20,22,24,26,28,30,32,34,36,38,40,42,44,46,48,50,52,54,56,58,60,62,-1,-1,-1,-1,-1,-1,-1,-1,-1,-1,-1,-1,-1,-1,-1,-1,-1,-1,-1,-1,-1,-1,-1,-1,-1,-1,-1,-1,-1,-1,-1,-1],"split_conditions":[-1.2156729E0,1.4E1,4.021907E-1,-5.0857764E-1,-1.8322779E0,-2.9702643E-3,3E0,-1.0060775E0,7.5626063E-1,-3.579225E-1,2.0517802E-1,-2.0551273E-1,-1.966776E0,9.1255015E-1,-6.065776E-2,3.1107678E0,-4.3116876E-1,1.6221954E-1,4.3379426E-1,-6.1574215E-1,1.2266132E0,7.605841E-1,2E0,-9.859245E-3,-1.02539286E-1,5.516447E-1,1.4E1,1.9425125E-1,1.9340825E0,5E0,2.362843E0,2.3287288E-3,1.3337171E-2,7.536048E-4,-1.4111818E-3,3.8123555E-3,1.4551086E-3,1.84253E-3,-1.5483544E-3,-1.4177051E-2,-1.4241056E-3,6.155519E-3,-1.5143777E-2,5.9238654E-3,-8.908024E-3,2.500638E-5,4.4729984E-3,-1.0442037E-2,1.7226349E-3,6.8968358E-3,-1.2235262E-3,-8.584623E-3,-3.4276375E-3,-1.0576573E-3,9.187225E-4,2.335183E-3,7.895989E-4,2.3324188E-4,-3.1646346E-3,8.7410543E-4,-1.4469693E-2,-1.0991739E-3,4.012142E-3],"split_indices":[71,46,32,32,50,82,47,23,38,32,51,64,50,71,29,34,30,51,43,52,58,80,47,82,64,85,46,51,14,47,39,0,0,0,0,0,0,0,0,0,0,0,0,0,0,0,0,0,0,0,0,0,0,0,0,0,0,0,0,0,0,0,0],"split_type":[0,0,0,0,0,0,0,0,0,0,0,0,0,0,0,0,0,0,0,0,0,0,0,0,0,0,0,0,0,0,0,0,0,0,0,0,0,0,0,0,0,0,0,0,0,0,0,0,0,0,0,0,0,0,0,0,0,0,0,0,0,0,0],"sum_hessian":[4.89398E5,5.7376137E4,4.3202188E5,4.7880184E4,9.495954E3,2.7712025E5,1.5490161E5,2.1168896E4,2.6711285E4,5.0060675E2,8.995348E3,9.723319E3,2.6739694E5,9.255411E4,6.2347508E4,4.3864443E3,1.6782453E4,2.1152393E4,5.558894E3,2.9640927E2,2.0419746E2,6.244179E3,2.7511682E3,3.856963E3,5.8663564E3,1.1998503E4,2.5539842E5,6.2827324E4,2.9726785E4,2.0359865E4,4.198764E4,4.255403E3,1.3104126E2,5.807207E3,1.0975246E4,1.4993554E4,6.158838E3,2.644916E3,2.913978E3,1.12965164E2,1.8344412E2,1.799548E2,2.4242662E1,6.17774E3,6.6439316E1,1.1192035E3,1.6319648E3,4.6149207E2,3.3954707E3,4.4126074E3,1.4537489E3,1.5773903E3,1.0421112E4,2.1258303E5,4.281539E4,4.1675277E4,2.1152049E4,2.7245254E4,2.4815327E3,2.0190715E4,1.6914955E2,4.086143E4,1.1262104E3],"tree_param":{"num_deleted":"0","num_feature":"86","num_nodes":"63","size_leaf_vector":"1"}},{"base_weights":[-3.812848E-4,3.837842E-2,-1.469983E-2,1.7933652E-2,7.161982E-2,-2.919051E-2,2.3130618E-2,-1.2771346E-2,6.937458E-2,8.367775E-2,-3.675377E-2,1.5089061E-2,-4.0328093E-2,7.410084E-3,8.3334714E-2,4.8573863E-2,-2.781283E-2,5.0650913E-2,1.630629E-1,8.0220066E-2,5.5245614E-1,-2.5937362E-2,-6.55028E-1,-2.8905566E-4,9.4194725E-2,-4.9588855E-2,1.4369169E-2,2.9486466E-2,-2.4414385E-2,1.7915581E-1,6.2042154E-2,3.9073555E-3,-1.8692178E-4,3.1040615E-4,-1.3993589E-3,7.986117E-4,4.0818155E-3,1.3514464E-2,4.2491597E-3,2.9000547E-3,4.006544E-4,7.501133E-3,2.9079858E-2,-3.5718922E-3,1.2798427E-3,-3.22696E-2,7.469571E-3,6.8074634E-4,-1.3540087E-3,3.4091487E-3,-9.43872E-3,-1.8639321E-3,2.0078573E-4,-3.1141113E-4,6.827532E-3,1.06569E-4,1.772445E-3,3.0097673E-3,-1.0092083E-3,1.4032011E-2,2.8002525E-3,-9.946305E-6,3.5068754E-3],"categories":[],"categories_nodes":[],"categories_segments":[],"categories_sizes":[],"default_left":[0,0,0,0,0,0,0,0,0,0,0,0,0,0,0,0,0,0,0,0,0,0,0,0,0,0,0,0,0,0,0,0,0,0,0,0,0,0,0,0,0,0,0,0,0,0,0,0,0,0,0,0,0,0,0,0,0,0,0,0,0,0,0],"id":23,"left_children":[1,3,5,7,9,11,13,15,17,19,21,23,25,27,29,31,33,35,37,39,41,43,45,47,49,51,53,55,57,59,61,-1,-1,-1,-1,-1,-1,-1,-1,-1,-1,-1,-1,-1,-1,-1,-1,-1,-1,-1,-1,-1,-1,-1,-1,-1,-1,-1,-1,-1,-1,-1,-1],"loss_changes":[2.7170172E2,8.965755E1,1.9601273E2,1.2924545E2,6.574625E1,1.27532196E2,9.361322E1,4.7232437E1,5.3420776E1,7.26196E1,3.289934E1,6.3284813E1,1.0468823E2,5.5174572E1,4.153508E1,4.520334E1,2.9601171E1,5.217147E1,3.0588959E1,4.929196E1,3.9752884E1,3.1668316E1,3.358897E1,4.483494E1,6.7158844E1,1.24790436E2,1.5800714E2,3.5535923E1,3.6932175E1,9.135271E1,5.7506218E1,0E0,0E0,0E0,0E0,0E0,0E0,0E0,0E0,0E0,0E0,0E0,0E0,0E0,0E0,0E0,0E0,0E0,0E0,0E0,0E0,0E0,0E0,0E0,0E0,0E0,0E0,0E0,0E0,0E0,0E0,0E0,0E0],"parents":[2147483647,0,0,1,1,2,2,3,3,4,4,5,5,6,6,7,7,8,8,9,9,10,10,11,11,12,12,13,13,14,14,15,15,16,16,17,17,18,18,19,19,20,20,21,21,22,22,23,23,24,24,25,25,26,26,27,27,28,28,29,29,30,30],"right_children":[2,4,6,8,10,12,14,16,18,20,22,24,26,28,30,32,34,36,38,40,42,44,46,48,50,52,54,56,58,60,62,-1,-1,-1,-1,-1,-1,-1,-1,-1,-1,-1,-1,-1,-1,-1,-1,-1,-1,-1,-1,-1,-1,-1,-1,-1,-1,-1,-1,-1,-1,-1,-1],"split_conditions":[-4.6613526E-1,1.3E1,-2.790779E-1,9.913661E-3,-2.0881008E-1,1E0,1.1689137E-2,1E0,-2.3488423E-1,1.5059055E-2,1.9679751E-2,1.4E1,1.1246668E-2,1.4472214E-2,1.24273775E-2,-4.4524586E-1,-1.2007525E0,4E0,1.0339037E-2,4E0,-4.158992E-1,-1.670091E-1,3.7758764E-2,-3.8356546E-1,-2.9068747E-1,1.4E1,-3.151811E-1,1.3E1,-2.685898E-1,1E0,1.48289455E-2,3.9073555E-3,-1.8692178E-4,3.1040615E-4,-1.3993589E-3,7.986117E-4,4.0818155E-3,1.3514464E-2,4.2491597E-3,2.9000547E-3,4.006544E-4,7.501133E-3,2.9079858E-2,-3.5718922E-3,1.2798427E-3,-3.22696E-2,7.469571E-3,6.8074634E-4,-1.3540087E-3,3.4091487E-3,-9.43872E-3,-1.8639321E-3,2.0078573E-4,-3.1141113E-4,6.827532E-3,1.06569E-4,1.772445E-3,3.0097673E-3,-1.0092083E-3,1.4032011E-2,2.8002525E-3,-9.946305E-6,3.5068754E-3],"split_indices":[0,46,65,84,64,47,84,47,64,84,84,46,84,31,84,64,71,47,84,47,64,64,64,65,65,46,65,46,65,47,84,0,0,0,0,0,0,0,0,0,0,0,0,0,0,0,0,0,0,0,0,0,0,0,0,0,0,0,0,0,0,0,0],"split_type":[0,0,0,0,0,0,0,0,0,0,0,0,0,0,0,0,0,0,0,0,0,0,0,0,0,0,0,0,0,0,0,0,0,0,0,0,0,0,0,0,0,0,0,0,0,0,0,0,0,0,0,0,0,0,0,0,0,0,0,0,0,0,0],"sum_hessian":[4.896066E5,1.3205797E5,3.5754862E5,8.178819E4,5.026978E4,2.5854262E5,9.9006E4,5.1205676E4,3.0582512E4,4.524535E4,5.02443E3,5.1942973E4,2.0659966E5,7.852132E4,2.0484684E4,1.0069061E4,4.1136613E4,2.5500062E4,5.082448E3,4.491851E4,3.2684125E2,4.941679E3,8.2750984E1,4.3479855E4,8.463119E3,1.7670098E5,2.989867E4,4.6379676E4,3.2141645E4,3.7131082E3,1.6771576E4,4.0496511E3,6.019409E3,1.3575916E4,2.75607E4,1.9912023E4,5.5880396E3,3.4654922E2,4.735899E3,3.60376E4,8.880912E3,1.9266887E2,1.341724E2,2.1016746E3,2.8400044E3,5.697004E1,2.5780941E1,2.873387E4,1.4745985E4,8.0825977E3,3.8052112E2,1.4451402E5,3.2186975E4,2.6786559E4,3.1121104E3,2.4737873E4,2.16418E4,2.2046902E3,2.9936955E4,8.463671E2,2.866741E3,7.8402485E3,8.931326E3],"tree_param":{"num_deleted":"0","num_feature":"86","num_nodes":"63","size_leaf_vector":"1"}},{"base_weights":[-2.2621373E-4,2.4986802E-2,-2.322618E-2,5.0652702E-3,5.648825E-2,-3.819815E-2,1.560178E-2,-2.4456989E-2,5.629006E-2,6.849908E-2,-2.3526475E-2,-6.626963E-2,-7.987444E-3,6.2310837E-2,1.3183389E-3,3.417799E-2,-3.879766E-2,3.832737E-2,1.19140334E-1,6.5294296E-2,5.400758E-1,-1.4912397E-1,1.9827828E-2,-1.0339279E-1,-4.2473543E-2,-2.789571E-3,-2.347252E-1,3.7668772E-2,1.3848971E-1,-4.485971E-2,1.6896464E-2,1.2596262E-3,-7.817588E-3,-1.0907643E-3,-1.2361902E-2,2.1901845E-3,-1.988419E-3,3.8450852E-3,-1.1327906E-2,-2.8656563E-2,1.9967307E-3,3.927502E-2,9.166597E-3,1.2582412E-2,-5.9800744E-3,-1.5508844E-2,1.0677226E-3,-2.1296078E-3,-4.572319E-3,-8.256894E-4,-3.293522E-3,7.5598573E-4,-1.3301708E-3,-2.453384E-2,-5.5515375E-3,2.0315996E-3,-1.631207E-3,3.619381E-3,1.7109854E-2,-2.8379122E-3,-7.127075E-5,8.650489E-4,-2.32418E-3],"categories":[],