{"learner":{"attributes":{"best_iteration":"5","best_score":"0.5994854212333924"},"feature_names":[],"feature_types":[],"gradient_booster":{"model":{"cats":{"enc":[],"feature_segments":[],"sorted_idx":[]},"gbtree_model_param":{"num_parallel_tree":"1","num_trees":"56"},"iteration_indptr":[0,1,2,3,4,5,6,7,8,9,10,11,12,13,14,15,16,17,18,19,20,21,22,23,24,25,26,27,28,29,30,31,32,33,34,35,36,37,38,39,40,41,42,43,44,45,46,47,48,49,50,51,52,53,54,55,56],"tree_info":[0,0,0,0,0,0,0,0,0,0,0,0,0,0,0,0,0,0,0,0,0,0,0,0,0,0,0,0,0,0,0,0,0,0,0,0,0,0,0,0,0,0,0,0,0,0,0,0,0,0,0,0,0,0,0,0],"trees":[{"base_weights":[3.0332848E-3,1.89362E-2,-2.5830306E-2,7.638916E-3,4.6036392E-2,-7.329408E-3,-6.857205E-2,1.7222397E-2,-2.9074594E-2,1.0489503E-1,3.2217046E-3,-0E0,-1.124629E-1,-0E0,-8.914271E-2,5.506543E-2,5.7298536E-3,-4.2771503E-2,7.5277515E-2,1.3891402E-1,2.6443051E-2,3.2221124E-2,-2.7155757E-2,-1.2808625E-2,4.9178164E-2,-0E0,-5.0589843E-3,4.0583584E-2,-2.6926599E-3,-0E0,-1.086523E-1,2.888361E-3,5.440228E-5,-4.2876432E-4,7.01181E-4,-2.337138E-3,-1.4119482E-4,-0E0,3.4131976E-3,-0E0,4.5641526E-3,1.708411E-3,-7.4917893E-4,-0E0,2.253788E-3,-5.0643985E-3,-2.2498585E-5,-9.0526853E-4,7.245907E-4,3.034205E-3,-0E0,-0E0,3.2513803E-3,-2.4880278E-3,1.0975085E-3,-3.7442255E-3,-0E0],"categories":[],"categories_nodes":[],"categories_segments":[],"categories_sizes":[],"default_left":[0,0,0,0,0,0,0,0,0,0,0,0,0,0,0,0,0,0,0,0,0,0,0,0,0,0,0,0,0,0,0,0,0,0,0,0,0,0,0,0,0,0,0,0,0,0,0,0,0,0,0,0,0,0,0,0,0],"id":0,"left_children":[1,3,5,7,9,11,13,15,17,19,21,23,25,27,29,31,33,35,37,39,41,43,45,47,49,-1,-1,51,-1,53,55,-1,-1,-1,-1,-1,-1,-1,-1,-1,-1,-1,-1,-1,-1,-1,-1,-1,-1,-1,-1,-1,-1,-1,-1,-1,-1],"loss_changes":[1.3337224E0,5.289218E-1,7.25938E-1,4.7226903E-1,1.2371786E0,5.31966E-1,4.726317E-1,4.2208028E-1,3.503806E-1,4.011438E-1,2.8967822E-1,4.229439E-1,2.3377132E-1,1.9445157E-1,3.9677107E-1,4.249317E-1,3.1892994E-1,2.4104881E-1,3.2568857E-2,2.9056692E-1,1.5463863E-1,3.1813443E-1,3.5785156E-1,3.5944682E-1,4.2819914E-1,0E0,0E0,2.0565417E-1,0E0,1.4166053E-1,3.938985E-1,0E0,0E0,0E0,0E0,0E0,0E0,0E0,0E0,0E0,0E0,0E0,0E0,0E0,0E0,0E0,0E0,0E0,0E0,0E0,0E0,0E0,0E0,0E0,0E0,0E0,0E0],"parents":[2147483647,0,0,1,1,2,2,3,3,4,4,5,5,6,6,7,7,8,8,9,9,10,10,11,11,12,12,13,13,14,14,15,15,16,16,17,17,18,18,19,19,20,20,21,21,22,22,23,23,24,24,27,27,29,29,30,30],"right_children":[2,4,6,8,10,12,14,16,18,20,22,24,26,28,30,32,34,36,38,40,42,44,46,48,50,-1,-1,52,-1,54,56,-1,-1,-1,-1,-1,-1,-1,-1,-1,-1,-1,-1,-1,-1,-1,-1,-1,-1,-1,-1,-1,-1,-1,-1,-1,-1],"split_conditions":[2.6641038E-1,1.4E1,1.4E1,6.1926556E-1,-1.6971607E-3,2.182692E0,-4.8511732E-1,-9.2137015E-1,1.3047808E0,-9.9615514E-2,-1.4690863E-1,8.73888E-3,4.5046157E-1,1.3333584E0,-6.418049E-1,-3.4779158E-1,-4.7631538E-1,-3.7945184E-1,8.805063E-1,-1.2740145E0,4.2537746E-1,7.534139E-3,-4.01183E-1,8.8834375E-1,-2.3301665E-2,-0E0,-5.0589843E-3,3.305918E-1,-2.6926599E-3,-2.3051876E-1,1.2840546E0,2.888361E-3,5.440228E-5,-4.2876432E-4,7.01181E-4,-2.337138E-3,-1.4119482E-4,-0E0,3.4131976E-3,-0E0,4.5641526E-3,1.708411E-3,-7.4917893E-4,-0E0,2.253788E-3,-5.0643985E-3,-2.2498585E-5,-9.0526853E-4,7.245907E-4,3.034205E-3,-0E0,-0E0,3.2513803E-3,-2.4880278E-3,1.0975085E-3,-3.7442255E-3,-0E0],"split_indices":[4,46,46,62,72,38,48,50,2,29,14,72,15,67,51,64,37,9,25,43,54,73,57,18,24,0,0,6,0,35,62,0,0,0,0,0,0,0,0,0,0,0,0,0,0,0,0,0,0,0,0,0,0,0,0,0,0],"split_type":[0,0,0,0,0,0,0,0,0,0,0,0,0,0,0,0,0,0,0,0,0,0,0,0,0,0,0,0,0,0,0,0,0,0,0,0,0,0,0,0,0,0,0,0,0,0,0,0,0,0,0,0,0,0,0,0,0],"sum_hessian":[2.916505E3,1.9032234E3,1.0132815E3,1.3711108E3,5.321125E2,7.251412E2,2.8814035E2,1.1097324E3,2.613784E2,2.1301622E2,3.1909625E2,6.819931E2,4.314804E1,5.897868E1,2.2916167E2,2.3647241E2,8.732601E2,2.4056572E2,2.0812668E1,1.3861906E2,7.4397156E1,1.8003046E2,1.390658E2,5.46309E2,1.3568408E2,1.6846928E1,2.6301113E1,4.6822952E1,1.2155727E1,4.1952164E1,1.872095E2,1.21807495E2,1.14664925E2,3.8267767E2,4.9058237E2,1.1035064E2,1.3021509E2,1.0309802E1,1.0502866E1,1.0830129E1,1.2778894E2,5.8766327E1,1.5630827E1,9.217884E1,8.7851616E1,1.4204937E1,1.24860855E2,3.903292E2,1.5597986E2,7.2412186E1,6.3271896E1,2.4468706E1,2.2354246E1,1.2470009E1,2.9482155E1,1.6668408E2,2.0525429E1],"tree_param":{"num_deleted":"0","num_feature":"75","num_nodes":"57","size_leaf_vector":"1"}},{"base_weights":[-1.0978945E-3,3.1966005E-2,-3.203065E-2,4.9652997E-2,-5.693252E-4,5.071873E-2,-4.166648E-2,7.545463E-2,2.1339275E-2,-3.9304797E-2,1.8132837E-2,-0E0,1.06589384E-1,-5.411039E-2,3.1124745E-2,8.416483E-2,-6.611859E-2,3.7322883E-2,-3.0582154E-2,1.6800726E-2,-6.290543E-2,8.638878E-2,-0E0,3.4244765E-2,-9.065028E-2,1.4388424E-1,-1.6046092E-2,6.704159E-3,-5.8878582E-2,7.517984E-2,-2.3684165E-2,2.8526315E-3,-1.6110638E-4,-3.861776E-3,-0E0,1.6811046E-4,2.398331E-3,2.6917378E-3,-1.6466354E-3,-1.4263256E-3,1.9276068E-3,-2.5584677E-3,7.830719E-4,-8.2138824E-5,3.6763088E-3,-5.7905435E-4,2.51715E-3,-0E0,5.6829825E-3,-6.971845E-3,-0E0,-0E0,5.198794E-3,-1.7721135E-3,-0E0,2.3469804E-3,-1.9018737E-3,7.367078E-4,-1.8698727E-3,-0E0,5.52538E-3,5.269593E-5,-4.6131555E-3],"categories":[],"categories_nodes":[],"categories_segments":[],"categories_sizes":[],"default_left":[0,0,0,0,0,0,0,0,0,0,0,0,0,0,0,0,0,0,0,0,0,0,0,0,0,0,0,0,0,0,0,0,0,0,0,0,0,0,0,0,0,0,0,0,0,0,0,0,0,0,0,0,0,0,0,0,0,0,0,0,0,0,0],"id":1,"left_children":[1,3,5,7,9,11,13,15,17,19,21,23,25,27,29,31,33,35,37,39,41,43,45,47,49,51,53,55,57,59,61,-1,-1,-1,-1,-1,-1,-1,-1,-1,-1,-1,-1,-1,-1,-1,-1,-1,-1,-1,-1,-1,-1,-1,-1,-1,-1,-1,-1,-1,-1,-1,-1],"loss_changes":[4.503812E0,1.264986E0,1.8216674E0,9.14484E-1,5.486529E-1,7.5390476E-1,1.8956513E0,9.013839E-1,5.761575E-1,3.851879E-1,6.5098715E-1,4.1190878E-1,6.730913E-1,5.6762886E-1,7.5728524E-1,7.49753E-1,2.0753665E-1,6.4109737E-1,4.055302E-1,2.1940614E-1,4.4624084E-1,4.6880484E-1,5.5012596E-1,4.1266912E-1,3.3836988E-1,4.974227E-1,3.6509093E-2,6.0433376E-1,5.19104E-1,1.2318969E0,5.530116E-1,0E0,0E0,0E0,0E0,0E0,0E0,0E0,0E0,0E0,0E0,0E0,0E0,0E0,0E0,0E0,0E0,0E0,0E0,0E0,0E0,0E0,0E0,0E0,0E0,0E0,0E0,0E0,0E0,0E0,0E0,0E0,0E0],"parents":[2147483647,0,0,1,1,2,2,3,3,4,4,5,5,6,6,7,7,8,8,9,9,10,10,11,11,12,12,13,13,14,14,15,15,16,16,17,17,18,18,19,19,20,20,21,21,22,22,23,23,24,24,25,25,26,26,27,27,28,28,29,29,30,30],"right_children":[2,4,6,8,10,12,14,16,18,20,22,24,26,28,30,32,34,36,38,40,42,44,46,48,50,52,54,56,58,60,62,-1,-1,-1,-1,-1,-1,-1,-1,-1,-1,-1,-1,-1,-1,-1,-1,-1,-1,-1,-1,-1,-1,-1,-1,-1,-1,-1,-1,-1,-1,-1,-1],"split_conditions":[-9.370525E-2,-6.514735E-5,-6.199658E-1,6.3986976E-5,2.0374825E-2,-2.7916541E-2,1.0813183E0,-1.4578539E-1,-1.5761087E-2,-4.3490493E-1,1.6249678E-1,-2.9401893E-2,-3.203901E-1,-5.472086E-3,4.103064E-1,1.4264479E0,-5.241404E-1,-3.2383716E-1,-5.9359926E-1,-7.091858E-1,3.619409E-1,-4.7080705E-1,1.3860877E0,7.9613376E-1,-3.1695777E-1,-1.8085794E-1,-1.6619007E-1,-5.1031953E-1,-1.1946013E0,-2.0537183E-1,-8.029503E-2,2.8526315E-3,-1.6110638E-4,-3.861776E-3,-0E0,1.6811046E-4,2.398331E-3,2.6917378E-3,-1.6466354E-3,-1.4263256E-3,1.9276068E-3,-2.5584677E-3,7.830719E-4,-8.2138824E-5,3.6763088E-3,-5.7905435E-4,2.51715E-3,-0E0,5.6829825E-3,-6.971845E-3,-0E0,-0E0,5.198794E-3,-1.7721135E-3,-0E0,2.3469804E-3,-1.9018737E-3,7.367078E-4,-1.8698727E-3,-0E0,5.52538E-3,5.269593E-5,-4.6131555E-3],"split_indices":[8,67,4,71,67,2,45,64,31,33,67,44,67,71,43,19,20,18,48,45,57,48,74,43,20,31,7,27,62,64,41,0,0,0,0,0,0,0,0,0,0,0,0,0,0,0,0,0,0,0,0,0,0,0,0,0,0,0,0,0,0,0,0],"split_type":[0,0,0,0,0,0,0,0,0,0,0,0,0,0,0,0,0,0,0,0,0,0,0,0,0,0,0,0,0,0,0,0,0,0,0,0,0,0,0,0,0,0,0,0,0,0,0,0,0,0,0,0,0,0,0,0,0,0,0,0,0,0,0],"sum_hessian":[4.399531E3,2.1108533E3,2.2886775E3,1.3866956E3,7.241577E2,2.2699681E2,2.0616807E3,7.053124E2,6.8138324E2,2.5248445E2,4.7167325E2,1.10790794E2,1.16206024E2,1.7728562E3,2.888246E2,6.718517E2,3.3460724E1,5.361545E2,1.4522876E2,6.2384056E1,1.901004E2,1.06097084E2,3.6557614E2,7.342923E1,3.7361565E1,9.509443E1,2.1111593E1,1.1358851E2,1.6592677E3,1.6982338E2,1.1900121E2,6.086444E2,6.320727E1,1.9879997E1,1.3580726E1,3.2214056E2,2.140139E2,1.6589497E1,1.2863925E2,1.7532711E1,4.4851345E1,1.6095462E2,2.9145782E1,2.3169863E1,8.2927216E1,3.057183E2,5.9857872E1,6.1464382E1,1.1964847E1,1.0254303E1,2.7107262E1,1.3594767E1,8.1499664E1,1.01685095E1,1.0943085E1,6.3167267E1,5.042124E1,5.3899387E1,1.6053683E3,1.06879036E2,6.2944344E1,9.475604E1,2.4245167E1],"tree_param":{"num_deleted":"0","num_feature":"75","num_nodes":"63","size_leaf_vector":"1"}},{"base_weights":[-1.1563732E-3,2.633258E-2,-4.7034588E-2,2.181606E-3,6.395094E-2,-6.699321E-2,2.7335256E-2,-7.526417E-3,4.692465E-2,7.933177E-2,-4.3148197E-2,2.5167204E-2,-7.9104E-2,1.03934936E-1,-1.06927445E-2,1.7345043E-2,-4.09901E-2,-3.7274652E-3,5.9406754E-2,-1.8721707E-2,9.62272E-2,-0E0,-1.3946934E-1,1.3342363E-1,-3.5882145E-2,-0E0,-9.1107056E-2,2.2396575E-1,1.2433294E-2,-9.519609E-2,1.2406435E-2,1.4507966E-3,-7.139952E-4,-2.022119E-3,3.194656E-4,2.5909694E-4,3.1917524E-3,-2.8363424E-3,1.5591293E-3,-0E0,3.185757E-3,-2.408058E-3,1.182264E-3,-5.8951164E-3,-0E0,-0E0,5.2516367E-3,3.440605E-4,-3.3843608E-3,1.2565204E-3,-1.5558114E-3,-3.0084867E-3,-2.5253027E-4,-0E0,8.526237E-3,-7.5123674E-4,3.576873E-3,-0E0,-5.3961007E-3,-2.287207E-3,1.7218837E-3],"categories":[],"categories_nodes":[],"categories_segments":[],"categories_sizes":[],"default_left":[0,0,0,0,0,0,0,0,0,0,0,0,0,0,0,0,0,0,0,0,0,0,0,0,0,0,0,0,0,0,0,0,0,0,0,0,0,0,0,0,0,0,0,0,0,0,0,0,0,0,0,0,0,0,0,0,0,0,0,0,0],"id":2,"left_children":[1,3,5,7,9,11,13,15,17,19,21,23,25,27,29,31,33,-1,35,37,39,41,43,45,47,49,51,53,55,57,59,-1,-1,-1,-1,-1,-1,-1,-1,-1,-1,-1,-1,-1,-1,-1,-1,-1,-1,-1,-1,-1,-1,-1,-1,-1,-1,-1,-1,-1,-1],"loss_changes":[5.49422E0,2.3869586E0,2.4772387E0,7.623876E-1,1.7554712E0,1.5133419E0,1.0793625E0,1.1484382E0,6.231816E-1,1.6017265E0,5.035771E-1,1.054718E0,1.1480451E0,1.0866034E0,5.1224536E-1,9.9482614E-1,8.6730963E-1,0E0,5.9993327E-1,7.37894E-1,8.435683E-1,2.875989E-1,1.5577543E-1,3.674754E-1,4.2211762E-1,3.249972E-1,6.595516E-1,3.582759E-1,4.022604E-1,5.6967115E-1,6.451985E-1,0E0,0E0,0E0,0E0,0E0,0E0,0E0,0E0,0E0,0E0,0E0,0E0,0E0,0E0,0E0,0E0,0E0,0E0,0E0,0E0,0E0,0E0,0E0,0E0,0E0,0E0,0E0,0E0,0E0,0E0],"parents":[2147483647,0,0,1,1,2,2,3,3,4,4,5,5,6,6,7,7,8,8,9,9,10,10,11,11,12,12,13,13,14,14,15,15,16,16,18,18,19,19,20,20,21,21,22,22,23,23,24,24,25,25,26,26,27,27,28,28,29,29,30,30],"right_children":[2,4,6,8,10,12,14,16,18,20,22,24,26,28,30,32,34,-1,36,38,40,42,44,46,48,50,52,54,56,58,60,-1,-1,-1,-1,-1,-1,-1,-1,-1,-1,-1,-1,-1,-1,-1,-1,-1,-1,-1,-1,-1,-1,-1,-1,-1,-1,-1,-1,-1,-1],"split_conditions":[-8.8865966E-2,1.4E1,8.73888E-3,6.019884E-1,7.360331E-1,-4.889563E-1,-4.2424563E-1,-3.7761396E-1,-2.4944873E0,5.796975E-3,1.3193383E0,7.261113E-1,-1.2252899E-1,-3.310721E-1,-1.7038004E-3,-2.8436807E-1,-1.3421886E-1,-3.7274652E-3,2.21511E-1,-3.262403E-1,-9.389745E-1,-3.6691383E-1,-2.0153604E-1,1.0968151E-2,-7.667396E-2,-1.5702973E-1,9.476005E-1,2.2260073E-1,9.7483546E-2,-3.410545E-3,-1.5810543E-1,1.4507966E-3,-7.139952E-4,-2.022119E-3,3.194656E-4,2.5909694E-4,3.1917524E-3,-2.8363424E-3,1.5591293E-3,-0E0,3.185757E-3,-2.408058E-3,1.182264E-3,-5.8951164E-3,-0E0,-0E0,5.2516367E-3,3.440605E-4,-3.3843608E-3,1.2565204E-3,-1.5558114E-3,-3.0084867E-3,-2.5253027E-4,-0E0,8.526237E-3,-7.5123674E-4,3.576873E-3,-0E0,-5.3961007E-3,-2.287207E-3,1.7218837E-3],"split_indices":[7,46,72,2,9,4,27,64,8,73,9,17,8,44,71,34,53,0,35,53,49,58,44,38,58,62,45,38,31,61,39,0,0,0,0,0,0,0,0,0,0,0,0,0,0,0,0,0,0,0,0,0,0,0,0,0,0,0,0,0,0],"split_type":[0,0,0,0,0,0,0,0,0,0,0,0,0,0,0,0,0,0,0,0,0,0,0,0,0,0,0,0,0,0,0,0,0,0,0,0,0,0,0,0,0,0,0,0,0,0,0,0,0,0,0,0,0,0,0,0,0,0,0,0,0],"sum_hessian":[4.3361567E3,2.6984036E3,1.6377533E3,1.6608422E3,1.0375614E3,1.3019846E3,3.3576874E2,1.3477343E3,3.131079E2,9.1588416E2,1.216772E2,1.413808E2,1.1606038E3,1.1896603E2,2.1680269E2,7.565318E2,5.912025E2,1.4618184E1,2.9848972E2,1.25887276E2,7.899969E2,8.595118E1,3.5726025E1,5.6031506E1,8.53493E1,1.478485E2,1.0127553E3,4.5480766E1,7.348526E1,5.4494728E1,1.6230797E2,4.4502637E2,3.1150543E2,4.0354144E2,1.8766106E2,1.5483354E2,1.4365619E2,6.7239235E1,5.8648045E1,6.6856865E1,7.2314E2,2.8245413E1,5.7705765E1,2.1038685E1,1.4687339E1,1.2327951E1,4.3703552E1,4.583844E1,3.951086E1,8.7175285E1,6.0673218E1,9.0032904E2,1.12426254E2,1.3559729E1,3.1921038E1,4.859923E1,2.4886028E1,2.3062418E1,3.1432312E1,4.6691513E1,1.1561645E2],"tree_param":{"num_deleted":"0","num_feature":"75","num_nodes":"61","size_leaf_vector":"1"}},{"base_weights":[-3.327326E-3,2.6255867E-2,-5.2352864E-2,2.1737386E-3,5.9039995E-2,3.4378473E-2,-8.032626E-2,4.4576164E-2,-1.641463E-2,9.167683E-2,-0E0,-2.4317432E-2,8.0972105E-2,-1.1006049E-1,9.602466E-3,8.565545E-2,-3.4692217E-2,-5.7683498E-2,1.230358E-2,1.2977687E-1,4.9602404E-2,3.008298E-2,-6.3255504E-2,-0E0,-1.3612454E-1,1.460786E-1,6.149295E-3,-0E0,-1.1926816E-1,2.9454973E-2,-1.7067808E-1,-2.7111932E-4,3.37921E-3,4.336481E-5,-3.2322742E-3,-2.106916E-3,2.3603216E-3,-5.726057E-4,1.7098512E-3,-8.603383E-4,4.2741834E-3,-2.5563522E-3,1.9817285E-3,1.8210053E-3,-1.9798032E-3,-3.844061E-3,-0E0,-3.841237E-3,7.85469E-4,-0E0,-5.805853E-3,5.4291E-3,-0E0,-3.8207553E-3,1.4394296E-3,1.4770977E-3,-2.4804564E-3,-3.6826925E-3,-0E0,-4.835395E-4,2.8016798E-3,-7.0964037E-3,-0E0],"categories":[],"categories_nodes":[],"categories_segments":[],"categories_sizes":[],"default_left":[0,0,0,0,0,0,0,0,0,0,0,0,0,0,0,0,0,0,0,0,0,0,0,0,0,0,0,0,0,0,0,0,0,0,0,0,0,0,0,0,0,0,0,0,0,0,0,0,0,0,0,0,0,0,0,0,0,0,0,0,0,0,0],"id":3,"left_children":[1,3,5,7,9,11,13,15,17,19,21,23,25,27,29,31,33,35,37,39,41,43,45,47,49,51,53,55,57,59,61,-1,-1,-1,-1,-1,-1,-1,-1,-1,-1,-1,-1,-1,-1,-1,-1,-1,-1,-1,-1,-1,-1,-1,-1,-1,-1,-1,-1,-1,-1,-1,-1],"loss_changes":[6.232939E0,2.035841E0,3.9897227E0,1.252228E0,2.0777447E0,1.1232116E0,3.4094372E0,1.651456E0,1.3071852E0,9.4022846E-1,7.5017405E-1,5.4237634E-1,9.496666E-1,8.730202E-1,9.4532853E-1,9.5251083E-1,5.296788E-1,7.74263E-1,9.0208316E-1,8.402157E-1,7.7171457E-1,8.29033E-1,4.9692196E-1,3.7525028E-1,2.731986E-1,7.034495E-1,5.731477E-1,3.5494494E-1,2.916851E-1,8.892522E-1,1.09197736E-1,0E0,0E0,0E0,0E0,0E0,0E0,0E0,0E0,0E0,0E0,0E0,0E0,0E0,0E0,0E0,0E0,0E0,0E0,0E0,0E0,0E0,0E0,0E0,0E0,0E0,0E0,0E0,0E0,0E0,0E0,0E0,0E0],"parents":[2147483647,0,0,1,1,2,2,3,3,4,4,5,5,6,6,7,7,8,8,9,9,10,10,11,11,12,12,13,13,14,14,15,15,16,16,17,17,18,18,19,19,20,20,21,21,22,22,23,23,24,24,25,25,26,26,27,27,28,28,29,29,30,30],"right_children":[2,4,6,8,10,12,14,16,18,20,22,24,26,28,30,32,34,36,38,40,42,44,46,48,50,52,54,56,58,60,62,-1,-1,-1,-1,-1,-1,-1,-1,-1,-1,-1,-1,-1,-1,-1,-1,-1,-1,-1,-1,-1,-1,-1,-1,-1,-1,-1,-1,-1,-1,-1,-1],"split_conditions":[-7.9847544E-2,1.4E1,-4.889563E-1,-9.074085E-1,-3.10951E-4,-3.6484994E-2,1.0623817E0,-3.663744E-1,-6.094686E-1,-4.603245E-1,2.4011675E-1,1.1681865E0,9.8482674E-1,-5.472086E-3,2.5224488E0,-5.930391E-3,-4.6828488E-1,1.5639955E0,-2.2325522E-1,-1.0805608E0,-1.2671759E0,7.360331E-1,1.2712064E-1,-1.3067248E0,-3.4254712E-1,5.983315E-1,-8.1675035E-1,-6.8959606E-1,1.0251475E-2,-1.7836466E-1,1.6029967E-1,-2.7111932E-4,3.37921E-3,4.336481E-5,-3.2322742E-3,-2.106916E-3,2.3603216E-3,-5.726057E-4,1.7098512E-3,-8.603383E-4,4.2741834E-3,-2.5563522E-3,1.9817285E-3,1.8210053E-3,-1.9798032E-3,-3.844061E-3,-0E0,-3.841237E-3,7.85469E-4,-0E0,-5.805853E-3,5.4291E-3,-0E0,-3.8207553E-3,1.4394296E-3,1.4770977E-3,-2.4804564E-3,-3.6826925E-3,-0E0,-4.835395E-4,2.8016798E-3,-7.0964037E-3,-0E0],"split_indices":[8,46,4,50,72,2,45,64,51,32,50,16,61,71,9,72,14,2,54,44,60,9,25,55,45,34,63,25,71,64,19,0,0,0,0,0,0,0,0,0,0,0,0,0,0,0,0,0,0,0,0,0,0,0,0,0,0,0,0,0,0,0,0],"split_type":[0,0,0,0,0,0,0,0,0,0,0,0,0,0,0,0,0,0,0,0,0,0,0,0,0,0,0,0,0,0,0,0,0,0,0,0,0,0,0,0,0,0,0,0,0,0,0,0,0,0,0,0,0,0,0,0,0,0,0,0,0,0,0],"sum_hessian":[4.275705E3,2.654467E3,1.6212382E3,1.549149E3,1.1053181E3,3.8654657E2,1.2346915E3,4.8768307E2,1.061466E3,7.0446045E2,4.008576E2,1.6198343E2,2.2456314E2,9.359118E2,2.9877975E2,3.294212E2,1.5826189E2,4.4901822E2,6.1244775E2,3.5503036E2,3.4943008E2,2.7890738E2,1.2195023E2,1.2947993E2,3.2503494E1,1.11913185E2,1.12649956E2,7.7853485E1,8.580583E2,2.7564578E2,2.3133991E1,6.513348E1,2.6428772E2,9.8035355E1,6.022653E1,4.1878754E2,3.0230686E1,3.4728885E2,2.651589E2,2.0306528E1,3.3472385E2,3.0491526E1,3.1893854E2,2.1995721E2,5.8950165E1,5.847254E1,6.3477688E1,1.6062717E1,1.1341722E2,1.01386E1,2.2364893E1,9.370151E1,1.8211676E1,2.0196733E1,9.2453224E1,4.4379677E1,3.3473812E1,8.292301E2,2.882822E1,1.5267352E2,1.22972244E2,1.3036823E1,1.0097167E1],"tree_param":{"num_deleted":"0","num_feature":"75","num_nodes":"63","size_leaf_vector":"1"}},{"base_weights":[-9.3750353E-4,2.3925604E-2,-4.7000013E-2,3.582248E-2,-2.2281015E-2,2.713974E-2,-7.342871E-2,5.036659E-2,-4.6336064E-3,9.959987E-2,-4.0275875E-2,8.756203E-2,-8.851321E-3,-1.0924264E-1,1.9053351E-2,3.687607E-2,1.19550295E-1,6.6010854E-3,-8.5296415E-2,1.4601943E-1,-0E0,6.692706E-2,-4.885168E-2,1.0889799E-1,-2.0290527E-3,-5.343539E-3,2.845465E-3,-0E0,-1.1223459E-1,-1.7799778E-2,9.6147925E-2,8.474153E-4,3.8738314E-3,4.1304487E-3,-0E0,-1.9806642E-4,2.6086732E-3,2.1180227E-4,-4.8083765E-3,-0E0,6.135148E-3,5.5605397E-3,-0E0,-1.0648703E-3,-3.964457E-3,4.1064317E-3,-0E0,1.3905807E-3,-1.4301898E-3,-1.6560125E-4,-3.474123E-3,1.1978445E-3,-2.718092E-3,4.31652E-3,-5.153526E-4],"categories":[],"categories_nodes":[],"categories_segments":[],"categories_sizes":[],"default_left":[0,0,0,0,0,0,0,0,0,0,0,0,0,0,0,0,0,0,0,0,0,0,0,0,0,0,0,0,0,0,0,0,0,0,0,0,0,0,0,0,0,0,0,0,0,0,0,0,0,0,0,0,0,0,0],"id":4,"left_children":[1,3,5,7,9,11,13,15,17,19,21,23,25,27,29,31,33,35,37,39,-1,41,43,45,-1,-1,47,-1,49,51,53,-1,-1,-1,-1,-1,-1,-1,-1,-1,-1,-1,-1,-1,-1,-1,-1,-1,-1,-1,-1,-1,-1,-1,-1],"loss_changes":[4.8882732E0,1.5240432E0,2.9958172E0,1.3411703E0,1.146306E0,9.209138E-1,3.799675E0,1.362802E0,5.92412E-1,3.8256085E-1,4.337718E-1,5.687815E-1,6.389954E-1,3.7516117E-1,9.5172966E-1,9.378636E-1,5.5345297E-1,5.986701E-1,7.107099E-1,3.7088633E-1,0E0,3.0834907E-1,3.328259E-1,4.3801737E-1,0E0,0E0,4.7574583E-1,0E0,1.826849E-1,8.987934E-1,7.165459E-1,0E0,0E0,0E0,0E0,0E0,0E0,0E0,0E0,0E0,0E0,0E0,0E0,0E0,0E0,0E0,0E0,0E0,0E0,0E0,0E0,0E0,0E0,0E0,0E0],"parents":[2147483647,0,0,1,1,2,2,3,3,4,4,5,5,6,6,7,7,8,8,9,9,10,10,11,11,12,12,13,13,14,14,15,15,16,16,17,17,18,18,19,19,21,21,22,22,23,23,26,26,28,28,29,29,30,30],"right_children":[2,4,6,8,10,12,14,16,18,20,22,24,26,28,30,32,34,36,38,40,-1,42,44,46,-1,-1,48,-1,50,52,54,-1,-1,-1,-1,-1,-1,-1,-1,-1,-1,-1,-1,-1,-1,-1,-1,-1,-1,-1,-1,-1,-1,-1,-1],"split_conditions":[-4.295067E-2,-2.2090659E-1,-4.889563E-1,2.1821482E-1,-1.0516787E0,2.0017275E-1,8.73888E-3,1.3368367E0,-1.1096922E-1,4.7276163E-1,-1.562432E0,-3.7945184E-1,3.1830716E-1,-4.8131442E-1,1.98926E-2,1.7827234E-1,6.135458E-1,-2.3619361E-1,-4.9405783E-1,-7.8540194E-1,-0E0,1.3478287E0,8.9278644E-1,5.081461E-1,-2.0290527E-3,-5.343539E-3,-2.5462964E-1,-0E0,-7.6536673E-1,2.1076095E-1,3.8453224E-1,8.474153E-4,3.8738314E-3,4.1304487E-3,-0E0,-1.9806642E-4,2.6086732E-3,2.1180227E-4,-4.8083765E-3,-0E0,6.135148E-3,5.5605397E-3,-0E0,-1.0648703E-3,-3.964457E-3,4.1064317E-3,-0E0,1.3905807E-3,-1.4301898E-3,-1.6560125E-4,-3.474123E-3,1.1978445E-3,-2.718092E-3,4.31652E-3,-5.153526E-4],"split_indices":[8,64,4,62,3,51,72,74,26,58,38,9,51,39,73,23,61,42,20,26,0,41,24,58,0,0,44,0,15,15,19,0,0,0,0,0,0,0,0,0,0,0,0,0,0,0,0,0,0,0,0,0,0,0,0],"split_type":[0,0,0,0,0,0,0,0,0,0,0,0,0,0,0,0,0,0,0,0,0,0,0,0,0,0,0,0,0,0,0,0,0,0,0,0,0,0,0,0,0,0,0,0,0,0,0,0,0,0,0,0,0,0,0],"sum_hessian":[4.2441646E3,2.7428894E3,1.5012749E3,2.1988423E3,5.440473E2,3.8456714E2,1.1167078E3,1.6352075E3,5.6363477E2,6.167506E1,4.8237225E2,1.5286096E2,2.3170618E2,8.125111E2,3.0419662E2,1.3830409E3,2.5216661E2,4.8545917E2,7.817557E1,4.5567837E1,1.6107224E1,2.6084473E1,4.5628778E2,1.4057523E2,1.22857275E1,1.8663301E1,2.1304288E2,1.306493E1,7.9944617E2,1.9807771E2,1.06118935E2,1.2770431E3,1.05997795E2,2.1882831E2,3.3338314E1,4.0783716E2,7.7622E1,2.9865484E1,4.8310085E1,1.4448824E1,3.1119013E1,1.0637012E1,1.5447461E1,4.0603998E2,5.0247803E1,1.1161741E2,2.895782E1,1.25188446E2,8.785442E1,3.510765E1,7.643385E2,1.0331979E2,9.475791E1,8.049647E1,2.5622467E1],"tree_param":{"num_deleted":"0","num_feature":"75","num_nodes":"55","size_leaf_vector":"1"}},{"base_weights":[2.2988126E-3,2.6460271E-2,-5.4558E-2,3.0045193E-3,6.0108878E-2,-7.651059E-2,4.7215533E-2,5.530143E-2,-1.3119946E-2,7.365515E-2,-7.67297E-2,-4.995678E-4,-1.12716064E-1,7.796536E-2,-4.8641883E-2,1.2700726E-1,-0E0,-2.6167586E-2,5.4981373E-2,1.6459438E-1,5.6394387E-2,-0E0,-1.4938405E-1,-2.274736E-2,7.6480664E-2,-3.7785135E-2,-1.2554139E-1,1.3114157E-1,-0E0,3.973404E-3,-1.5391399E-1,-0E0,4.947061E-3,-1.3359857E-3,2.6450022E-3,-1.6559049E-3,-1.3642099E-4,4.5452965E-3,3.3876038E-4,5.820614E-3,-0E0,2.8156515E-3,9.138405E-5,2.598296E-3,-1.8891598E-3,-5.875229E-3,-0E0,5.465523E-4,-1.9298205E-3,6.4506363E-3,-0E0,-2.798153E-3,3.9104016E-5,-0E0,-3.9037764E-3,-0E0,5.0261286E-3,3.519654E-3,-1.2189635E-3,-6.912511E-3,-0E0],"categories":[],"categories_nodes":[],"categories_segments":[],"categories_sizes":[],"default_left":[0,0,0,0,0,0,0,0,0,0,0,0,0,0,0,0,0,0,0,0,0,0,0,0,0,0,0,0,0,0,0,0,0,0,0,0,0,0,0,0,0,0,0,0,0,0,0,0,0,0,0,0,0,0,0,0,0,0,0,0,0],"id":5,"left_children":[1,3,5,7,9,11,13,15,17,19,21,23,25,27,29,31,33,35,37,39,41,43,45,47,49,51,53,55,57,-1,59,-1,-1,-1,-1,-1,-1,-1,-1,-1,-1,-1,-1,-1,-1,-1,-1,-1,-1,-1,-1,-1,-1,-1,-1,-1,-1,-1,-1,-1,-1],"loss_changes":[5.7878094E0,2.2910845E0,2.829805E0,1.5425302E0,2.247014E0,2.7412248E0,6.70594E-1,1.8148034E0,1.1697221E0,1.4975295E0,5.3708297E-1,5.416023E-1,4.938202E-1,6.793678E-1,9.3053675E-1,1.0804403E0,9.222163E-1,6.570803E-1,6.969576E-1,9.350138E-1,1.7858608E0,2.9861662E-1,3.720901E-1,5.2491254E-1,8.6844516E-1,3.430127E-1,3.384533E-1,4.2188466E-1,3.7750655E-1,0E0,2.8475106E-1,0E0,0E0,0E0,0E0,0E0,0E0,0E0,0E0,0E0,0E0,0E0,0E0,0E0,0E0,0E0,0E0,0E0,0E0,0E0,0E0,0E0,0E0,0E0,0E0,0E0,0E0,0E0,0E0,0E0,0E0],"parents":[2147483647,0,0,1,1,2,2,3,3,4,4,5,5,6,6,7,7,8,8,9,9,10,10,11,11,12,12,13,13,14,14,15,15,16,16,17,17,18,18,19,19,20,20,21,21,22,22,23,23,24,24,25,25,26,26,27,27,28,28,30,30],"right_children":[2,4,6,8,10,12,14,16,18,20,22,24,26,28,30,32,34,36,38,40,42,44,46,48,50,52,54,56,58,-1,60,-1,-1,-1,-1,-1,-1,-1,-1,-1,-1,-1,-1,-1,-1,-1,-1,-1,-1,-1,-1,-1,-1,-1,-1,-1,-1,-1,-1,-1,-1],"split_conditions":[8.053094E-2,1.4E1,9.073209E-3,-1.0521065E0,2.595499E-1,-2.0916253E-1,1.6469083E0,-3.3293954E-1,1.2670829E0,-9.724759E-1,2.621405E-1,6.550391E-1,-9.370525E-2,4.103064E-1,-1.774463E-1,-1.0890646E-3,6.985772E-1,-4.7745544E-1,-4.3772864E-1,7.437606E-2,-5.069498E-1,-2.7109036E-1,6.273121E-1,-3.9439682E-2,-6.627345E-1,-2.443987E-1,-7.021745E-3,7.4414885E-1,-3.5853156E-1,3.973404E-3,1.0732174E0,-0E0,4.947061E-3,-1.3359857E-3,2.6450022E-3,-1.6559049E-3,-1.3642099E-4,4.5452965E-3,3.3876038E-4,5.820614E-3,-0E0,2.8156515E-3,9.138405E-5,2.598296E-3,-1.8891598E-3,-5.875229E-3,-0E0,5.465523E-4,-1.9298205E-3,6.4506363E-3,-0E0,-2.798153E-3,3.9104016E-5,-0E0,-3.9037764E-3,-0E0,5.0261286E-3,3.519654E-3,-1.2189635E-3,-6.912511E-3,-0E0],"split_indices":[39,46,72,50,67,4,66,49,2,9,45,36,8,43,15,71,2,51,41,36,51,5,19,51,4,57,71,3,48,0,16,0,0,0,0,0,0,0,0,0,0,0,0,0,0,0,0,0,0,0,0,0,0,0,0,0,0,0,0,0,0],"split_type":[0,0,0,0,0,0,0,0,0,0,0,0,0,0,0,0,0,0,0,0,0,0,0,0,0,0,0,0,0,0,0,0,0,0,0,0,0,0,0,0,0,0,0,0,0,0,0,0,0,0,0,0,0,0,0,0,0,0,0,0,0],"sum_hessian":[4.2295176E3,2.9812742E3,1.2482433E3,1.7755043E3,1.20577E3,1.0352596E3,2.1298372E2,4.3189285E2,1.3436113E3,1.1046473E3,1.0112269E2,3.4358115E2,6.9167847E2,1.6943622E2,4.3547497E1,1.9276697E2,2.3912587E2,1.1409336E3,2.0267778E2,1.6425497E2,9.4039233E2,5.1848576E1,4.927411E1,2.7771814E2,6.586301E1,1.1363545E2,5.78043E2,9.809585E1,7.134038E1,1.2327063E1,3.1220434E1,3.9497433E1,1.5326955E2,1.651259E2,7.399997E1,4.6594928E2,6.749843E2,5.4481087E1,1.4819669E2,1.4248749E2,2.176748E1,5.4055566E2,3.9983667E2,1.9819876E1,3.2028698E1,3.753473E1,1.1739383E1,1.2834386E2,1.4937428E2,2.53693E1,4.0493706E1,5.639409E1,5.7241364E1,2.0163145E1,5.578799E2,2.3735626E1,7.436022E1,1.8895962E1,5.2444416E1,1.8186222E1,1.3034211E1],"tree_param":{"num_deleted":"0","num_feature":"75","num_nodes":"61","size_leaf_vector":"1"}},{"base_weights":[-1.0892001E-3,1.797942E-2,-4.9095485E-2,-9.55533E-3,3.5006493E-2,-8.42442E-2,3.5608698E-2,-2.12148E-2,6.1796054E-2,-1.49477115E-2,4.230975E-2,2.2647435E-2,-1.0656076E-1,7.496205E-2,-0E0,2.9229244E-2,-3.3652432E-2,9.645792E-2,-2.3883846E-2,4.4040576E-2,-4.644249E-2,4.6609763E-2,-6.487271E-2,-3.46474E-3,5.1771026E-2,-1.0179075E-2,-1.1850948E-1,2.9847331E-2,1.8983643E-1,-2.503319E-2,5.4060314E-3,4.99591E-3,-0E0,-5.14011E-4,-2.8080677E-3,-0E0,4.0229606E-3,7.33644E-4,-3.022766E-3,-1.5167904E-3,3.9339554E-3,-3.8578553E-4,-4.3088123E-3,1.5125825E-3,-2.3769916E-3,-3.8776037E-3,2.126024E-3,2.7879737E-3,-8.409798E-4,1.2984471E-3,-2.5041031E-3,-0E0,-3.6595832E-3,3.8115503E-3,-1.7502155E-4,7.626695E-3,-0E0,2.1594179E-4,-3.519687E-3],"categories":[],"categories_nodes":[],"categories_segments":[],"categories_sizes":[],"default_left":[0,0,0,0,0,0,0,0,0,0,0,0,0,0,0,0,0,0,0,0,0,0,0,0,0,0,0,0,0,0,0,0,0,0,0,0,0,0,0,0,0,0,0,0,0,0,0,0,0,0,0,0,0,0,0,0,0,0,0],"id":6,"left_children":[1,3,5,7,9,11,13,15,17,19,21,23,25,27,29,31,33,35,37,39,41,43,45,-1,47,49,51,53,55,57,-1,-1,-1,-1,-1,-1,-1,-1,-1,-1,-1,-1,-1,-1,-1,-1,-1,-1,-1,-1,-1,-1,-1,-1,-1,-1,-1,-1,-1],"loss_changes":[3.86107E0,1.4230667E0,3.64018E0,8.918248E-1,7.0865536E-1,2.1403975E0,5.498111E-1,6.1760336E-1,5.0912714E-1,4.1849133E-1,7.45574E-1,5.213661E-1,6.976299E-1,6.809669E-1,6.5241635E-1,6.0413903E-1,6.7664427E-1,4.8667657E-1,2.1198316E-1,6.471955E-1,3.5091963E-1,7.4189115E-1,5.5984455E-1,0E0,4.807608E-1,4.0315077E-1,2.5968266E-1,5.908432E-1,4.6261024E-1,5.794728E-1,0E0,0E0,0E0,0E0,0E0,0E0,0E0,0E0,0E0,0E0,0E0,0E0,0E0,0E0,0E0,0E0,0E0,0E0,0E0,0E0,0E0,0E0,0E0,0E0,0E0,0E0,0E0,0E0,0E0],"parents":[2147483647,0,0,1,1,2,2,3,3,4,4,5,5,6,6,7,7,8,8,9,9,10,10,11,11,12,12,13,13,14,14,15,15,16,16,17,17,18,18,19,19,20,20,21,21,22,22,24,24,25,25,26,26,27,27,28,28,29,29],"right_children":[2,4,6,8,10,12,14,16,18,20,22,24,26,28,30,32,34,36,38,40,42,44,46,-1,48,50,52,54,56,58,-1,-1,-1,-1,-1,-1,-1,-1,-1,-1,-1,-1,-1,-1,-1,-1,-1,-1,-1,-1,-1,-1,-1,-1,-1,-1,-1,-1,-1],"split_conditions":[4.472533E-3,-4.0869266E-1,8.73888E-3,2.4964944E-1,-1.1886591E0,-4.889563E-1,3.0639398E-1,-1.0570722E0,-2.8904158E-1,-3.9185965E-1,1.1537107E0,6.389829E-1,-5.55046E-1,6.581674E-1,6.792177E-1,-6.6851103E-1,2.7130656E-3,-7.8870785E-1,-6.499139E-1,3.7006956E-1,-7.9779744E-2,6.636499E-1,1.3109969E0,-3.46474E-3,9.0730286E-1,4.1114506E-1,-4.3325338E-1,-4.0833378E-1,4.7749516E-1,1.7108551E0,5.4060314E-3,4.99591E-3,-0E0,-5.14011E-4,-2.8080677E-3,-0E0,4.0229606E-3,7.33644E-4,-3.022766E-3,-1.5167904E-3,3.9339554E-3,-3.8578553E-4,-4.3088123E-3,1.5125825E-3,-2.3769916E-3,-3.8776037E-3,2.126024E-3,2.7879737E-3,-8.409798E-4,1.2984471E-3,-2.5041031E-3,-0E0,-3.6595832E-3,3.8115503E-3,-1.7502155E-4,7.626695E-3,-0E0,2.1594179E-4,-3.519687E-3],"split_indices":[7,2,72,18,63,4,51,6,64,62,53,74,16,6,31,64,71,35,58,30,18,64,40,0,50,67,11,60,56,7,0,0,0,0,0,0,0,0,0,0,0,0,0,0,0,0,0,0,0,0,0,0,0,0,0,0,0,0,0],"split_type":[0,0,0,0,0,0,0,0,0,0,0,0,0,0,0,0,0,0,0,0,0,0,0,0,0,0,0,0,0,0,0,0,0,0,0,0,0,0,0,0,0,0,0,0,0,0,0,0,0,0,0,0,0,0,0,0,0,0,0],"sum_hessian":[4.179922E3,2.977605E3,1.2023169E3,1.1156373E3,1.8619675E3,8.580701E2,3.442468E2,9.721927E2,1.434447E2,2.1976425E2,1.6422034E3,1.4045943E2,7.1761066E2,1.7397269E2,1.7027411E2,1.7585715E2,7.963355E2,1.1025907E2,3.318563E1,6.516506E1,1.5459918E2,1.5889183E3,5.3285027E1,1.7445333E1,1.230141E2,8.879119E1,6.2881946E2,1.3297435E2,4.099833E1,1.5521672E2,1.5057392E1,2.526386E1,1.5059329E2,6.3940454E2,1.5693097E2,2.711223E1,8.314684E1,1.3225286E1,1.9960344E1,2.6134249E1,3.903081E1,1.2422612E2,3.0373068E1,1.5511066E3,3.7811768E1,4.1204548E1,1.2080479E1,8.920522E1,3.3808876E1,4.3925392E1,4.48658E1,1.7993378E1,6.108261E2,4.185527E1,9.111908E1,2.9134094E1,1.1864236E1,1.0837605E2,4.684067E1],"tree_param":{"num_deleted":"0","num_feature":"75","num_nodes":"59","size_leaf_vector":"1"}},{"base_weights":[8.0736727E-4,2.0809364E-2,-5.0734837E-2,-3.3307513E-3,5.4502096E-2,-8.423079E-2,2.4880692E-2,-3.826932E-2,1.2722878E-2,3.827506E-2,1.14878945E-1,3.7839804E-2,-1.13151126E-1,4.0322866E-2,-9.764696E-2,1.7540043E-2,-6.7759655E-2,-0E0,7.0528366E-2,1.4930172E-2,8.3710805E-2,-0E0,1.4268841E-1,-1.358769E-3,1.16011605E-1,-1.1565165E-2,-1.2553494E-1,-3.0295279E-2,6.45212E-2,-0E0,-5.5448217E-3,-4.3672663E-3,1.3335784E-3,-2.6066913E-3,8.1520603E-4,1.0249064E-3,-7.709493E-4,4.244356E-3,3.250805E-4,1.2955024E-3,-9.4933837E-4,3.5834122E-3,-0E0,1.8990638E-3,-3.5631233E-3,-1.0135634E-3,4.8223655E-3,1.0697978E-3,-5.957336E-3,-0E0,4.625373E-3,2.8579484E-3,-2.2708916E-3,-0E0,-3.8525448E-3,-3.0557774E-3,2.2554016E-3,-0E0,3.1664304E-3],"categories":[],"categories_nodes":[],"categories_segments":[],"categories_sizes":[],"default_left":[0,0,0,0,0,0,0,0,0,0,0,0,0,0,0,0,0,0,0,0,0,0,0,0,0,0,0,0,0,0,0,0,0,0,0,0,0,0,0,0,0,0,0,0,0,0,0,0,0,0,0,0,0,0,0,0,0,0,0],"id":7,"left_children":[1,3,5,7,9,11,13,15,17,19,21,23,25,27,29,31,33,35,37,39,41,43,45,47,49,51,53,55,57,-1,-1,-1,-1,-1,-1,-1,-1,-1,-1,-1,-1,-1,-1,-1,-1,-1,-1,-1,-1,-1,-1,-1,-1,-1,-1,-1,-1,-1,-1],"loss_changes":[4.2856545E0,2.5156837E0,2.9923453E0,1.0078702E0,1.0940897E0,2.9469E0,6.077941E-1,9.922651E-1,8.790836E-1,9.8765874E-1,7.9648495E-1,5.752409E-1,6.9377804E-1,5.8009124E-1,2.9174817E-1,7.3383445E-1,7.6486945E-1,8.499156E-1,7.558137E-1,9.289028E-1,1.032901E0,4.0690696E-1,7.943897E-1,8.597032E-1,3.6465567E-1,5.634522E-1,1.718893E-1,5.836137E-1,5.909885E-1,0E0,0E0,0E0,0E0,0E0,0E0,0E0,0E0,0E0,0E0,0E0,0E0,0E0,0E0,0E0,0E0,0E0,0E0,0E0,0E0,0E0,0E0,0E0,0E0,0E0,0E0,0E0,0E0,0E0,0E0],"parents":[2147483647,0,0,1,1,2,2,3,3,4,4,5,5,6,6,7,7,8,8,9,9,10,10,11,11,12,12,13,13,14,14,15,15,16,16,17,17,18,18,19,19,20,20,21,21,22,22,23,23,24,24,25,25,26,26,27,27,28,28],"right_children":[2,4,6,8,10,12,14,16,18,20,22,24,26,28,30,32,34,36,38,40,42,44,46,48,50,52,54,56,58,-1,-1,-1,-1,-1,-1,-1,-1,-1,-1,-1,-1,-1,-1,-1,-1,-1,-1,-1,-1,-1,-1,-1,-1,-1,-1,-1,-1,-1,-1],"split_conditions":[4.472533E-3,1.4E1,8.73888E-3,-4.2084646E-1,1.2382494E0,-4.889563E-1,1.4E1,-9.074085E-1,8.4680307E-1,8.740072E-3,-1.5177536E0,-1.6897856E-1,-9.370525E-2,-8.6584225E-2,-9.119893E-1,-1.6700012E-3,2.746595E-1,-1.8406112E-1,1.8909376E-2,2.7865082E-1,2.0871097E-1,-1.0371945E0,-1.2656496E0,1.0919112E0,3.1135105E-2,2.5727475E-1,-2.4165751E-1,8.475916E-2,-8.8060176E-1,-0E0,-5.5448217E-3,-4.3672663E-3,1.3335784E-3,-2.6066913E-3,8.1520603E-4,1.0249064E-3,-7.709493E-4,4.244356E-3,3.250805E-4,1.2955024E-3,-9.4933837E-4,3.5834122E-3,-0E0,1.8990638E-3,-3.5631233E-3,-1.0135634E-3,4.8223655E-3,1.0697978E-3,-5.957336E-3,-0E0,4.625373E-3,2.8579484E-3,-2.2708916E-3,-0E0,-3.8525448E-3,-3.0557774E-3,2.2554016E-3,-0E0,3.1664304E-3],"split_indices":[7,46,72,2,65,4,46,50,45,73,13,66,8,18,22,71,18,33,27,45,50,8,19,35,5,4,39,54,41,0,0,0,0,0,0,0,0,0,0,0,0,0,0,0,0,0,0,0,0,0,0,0,0,0,0,0,0,0,0],"split_type":[0,0,0,0,0,0,0,0,0,0,0,0,0,0,0,0,0,0,0,0,0,0,0,0,0,0,0,0,0,0,0,0,0,0,0,0,0,0,0,0,0,0,0,0,0,0,0,0,0,0,0,0,0,0,0,0,0,0,0],"sum_hessian":[4.1819863E3,3.0276426E3,1.1543439E3,1.7476274E3,1.280015E3,8.0898083E2,3.4536307E2,5.689367E2,1.1786907E3,1.0244987E3,2.5551636E2,1.4820866E2,6.6077216E2,3.1514816E2,3.021492E1,1.852531E2,3.836836E2,9.65542E2,2.1314876E2,6.930671E2,3.3143164E2,5.14763E1,2.0404005E2,9.149979E1,5.6708878E1,8.0993164E1,5.79779E2,6.9754395E1,2.4539375E2,1.4682874E1,1.5532046E1,1.972503E1,1.6552808E2,3.282424E2,5.5441185E1,4.1167383E2,5.5386816E2,8.848404E1,1.2466472E2,4.4483643E2,2.4823065E2,2.3415895E2,9.7272675E1,3.5197414E1,1.6278883E1,1.3637493E1,1.9040257E2,7.4149536E1,1.735025E1,1.0129061E1,4.6579815E1,2.4168758E1,5.682441E1,1.5407774E1,5.643712E2,4.7247135E1,2.2507257E1,1.0189649E2,1.4349725E2],"tree_param":{"num_deleted":"0","num_feature":"75","num_nodes":"59","size_leaf_vector":"1"}},{"base_weights":[1.3523498E-3,2.3255192E-2,-4.492793E-2,3.6158536E-3,4.8335582E-2,-7.1424864E-2,2.029164E-2,5.7387523E-2,-1.5856372E-2,7.935645E-2,1.8590035E-2,2.2637146E-2,-9.622659E-2,4.2326257E-2,-1.0565321E-1,9.551465E-2,-3.0600237E-2,-6.379663E-2,1.6103635E-2,5.7768576E-2,1.5925889E-1,-5.5375826E-2,4.4171516E-2,1.3494223E-1,-2.2892803E-2,-0E0,-1.2151037E-1,1.11503355E-1,7.975075E-3,-2.3563635E-1,9.292899E-3,3.832089E-3,6.213064E-5,-2.494381E-3,1.5825034E-3,4.588548E-3,-2.1382547E-3,-2.0206787E-3,1.3396502E-3,9.661628E-4,3.8731808E-3,5.7279035E-3,-0E0,-2.4119848E-3,4.7650724E-3,1.7871568E-3,-8.356119E-4,-0E0,5.420505E-3,-1.532976E-3,4.3694247E-3,1.1514194E-3,-3.6321962E-3,-0E0,-3.7907588E-3,-1.4533733E-3,4.732188E-3,-7.750429E-4,1.9839287E-3,-1.9457021E-3,-1.0213637E-2,5.062747E-3,-1.8655297E-3],"categories":[],"categories_nodes":[],"categories_segments":[],"categories_sizes":[],"default_left":[0,0,0,0,0,0,0,0,0,0,0,0,0,0,0,0,0,0,0,0,0,0,0,0,0,0,0,0,0,0,0,0,0,0,0,0,0,0,0,0,0,0,0,0,0,0,0,0,0,0,0,0,0,0,0,0,0,0,0,0,0,0,0],"id":8,"left_children":[1,3,5,7,9,11,13,15,17,19,21,23,25,27,29,31,33,35,37,39,41,43,45,47,49,51,53,55,57,59,61,-1,-1,-1,-1,-1,-1,-1,-1,-1,-1,-1,-1,-1,-1,-1,-1,-1,-1,-1,-1,-1,-1,-1,-1,-1,-1,-1,-1,-1,-1,-1,-1],"loss_changes":[4.1837115E0,1.3419249E0,2.3317883E0,1.7312009E0,1.0253522E0,2.290967E0,9.764199E-1,1.5557045E0,1.8444648E0,7.657225E-1,1.2087466E0,1.0955775E0,1.7964787E0,6.494245E-1,9.646743E-1,8.248372E-1,5.971676E-1,7.2055316E-1,1.6320246E0,6.8735576E-1,6.1606836E-1,7.825802E-1,5.766599E-1,4.4848704E-1,5.4489404E-1,8.0399156E-1,3.796215E-1,8.478296E-1,4.9304038E-1,3.7650228E-2,4.0010053E-1,0E0,0E0,0E0,0E0,0E0,0E0,0E0,0E0,0E0,0E0,0E0,0E0,0E0,0E0,0E0,0E0,0E0,0E0,0E0,0E0,0E0,0E0,0E0,0E0,0E0,0E0,0E0,0E0,0E0,0E0,0E0,0E0],"parents":[2147483647,0,0,1,1,2,2,3,3,4,4,5,5,6,6,7,7,8,8,9,9,10,10,11,11,12,12,13,13,14,14,15,15,16,16,17,17,18,18,19,19,20,20,21,21,22,22,23,23,24,24,25,25,26,26,27,27,28,28,29,29,30,30],"right_children":[2,4,6,8,10,12,14,16,18,20,22,24,26,28,30,32,34,36,38,40,42,44,46,48,50,52,54,56,58,60,62,-1,-1,-1,-1,-1,-1,-1,-1,-1,-1,-1,-1,-1,-1,-1,-1,-1,-1,-1,-1,-1,-1,-1,-1,-1,-1,-1,-1,-1,-1,-1,-1],"split_conditions":[-7.380169E-2,1.4E1,9.073209E-3,-1.0341998E0,-6.34802E-1,-4.889563E-1,1.0132228E0,-3.663744E-1,-4.7090435E-1,1.1007111E-2,-8.517202E-1,-3.9439682E-2,-7.9847544E-2,-2.5903183E-1,8.514846E-2,1.17069945E-1,6.985772E-1,-2.6674707E0,-3.7192285E-1,-2.2070505E-1,2.4011675E-1,1.556972E0,4.8790398E-1,-8.850261E-1,2.2673562E0,6.3137716E-1,-2.4165751E-1,-8.3889383E-1,4.6346647E-1,1.7194712E0,1.2592287E-1,3.832089E-3,6.213064E-5,-2.494381E-3,1.5825034E-3,4.588548E-3,-2.1382547E-3,-2.0206787E-3,1.3396502E-3,9.661628E-4,3.8731808E-3,5.7279035E-3,-0E0,-2.4119848E-3,4.7650724E-3,1.7871568E-3,-8.356119E-4,-0E0,5.420505E-3,-1.532976E-3,4.3694247E-3,1.1514194E-3,-3.6321962E-3,-0E0,-3.7907588E-3,-1.4533733E-3,4.732188E-3,-7.750429E-4,1.9839287E-3,-1.9457021E-3,-1.0213637E-2,5.062747E-3,-1.8655297E-3],"split_indices":[7,46,72,50,51,4,56,64,51,73,38,51,8,43,31,62,2,3,2,15,50,44,52,27,65,9,39,56,39,9,61,0,0,0,0,0,0,0,0,0,0,0,0,0,0,0,0,0,0,0,0,0,0,0,0,0,0,0,0,0,0,0,0],"split_type":[0,0,0,0,0,0,0,0,0,0,0,0,0,0,0,0,0,0,0,0,0,0,0,0,0,0,0,0,0,0,0,0,0,0,0,0,0,0,0,0,0,0,0,0,0,0,0,0,0,0,0,0,0,0,0,0,0,0,0,0,0,0,0],"sum_hessian":[4.1446123E3,2.8285574E3,1.316055E3,1.6099989E3,1.2185585E3,9.46614E2,3.6944098E2,4.406433E2,1.1693556E3,5.7840283E2,6.401556E2,1.8914081E2,7.574732E2,3.2231787E2,4.712311E1,3.1523767E2,1.2540563E2,4.794595E2,6.898961E2,4.6793768E2,1.10465164E2,1.5386188E2,4.8629373E2,5.9763325E1,1.2937749E2,1.6150508E2,5.9596814E2,9.579697E1,2.265209E2,2.5212334E1,2.1910778E1,2.2590463E2,8.933306E1,8.427768E1,4.112795E1,1.0233873E1,4.6922565E2,1.6623259E2,5.236635E2,3.5694894E2,1.10988716E2,9.314832E1,1.7316837E1,1.4306679E2,1.0795084E1,4.123543E2,7.393942E1,1.3575649E1,4.6187675E1,1.1710591E2,1.227157E1,1.21020226E2,4.0484863E1,2.1230408E1,5.7473773E2,1.6610645E1,7.9186325E1,1.3307312E2,9.3447784E1,1.4448814E1,1.076352E1,1.0269046E1,1.1641732E1],"tree_param":{"num_deleted":"0","num_feature":"75","num_nodes":"63","size_leaf_vector":"1"}},{"base_weights":[-1.4321556E-3,1.5273486E-2,-4.630762E-2,-7.991148E-3,4.5756094E-2,-8.271543E-2,2.5456896E-2,-1.5359347E-2,6.488811E-2,7.0891365E-2,1.2072049E-2,4.1497536E-2,-1.1449724E-1,-6.718271E-2,4.0929146E-2,-5.0512166E-3,-7.1880944E-2,-3.1622585E-2,1.059527E-1,3.9595526E-2,1.2325226E-1,-9.4556585E-2,2.8997147E-2,6.512593E-2,-2.531998E-3,-0E0,-1.31655E-1,-1.4286807E-1,1.7344279E-3,1.1463107E-1,1.3316711E-2,3.4391714E-4,-1.0591535E-3,-0E0,-3.4245977E-3,-4.5874855E-3,5.771038E-4,-0E0,3.8990548E-3,-2.8899047E-4,2.0512743E-3,4.1662217E-3,-2.8043415E-3,1.0583911E-3,-4.311575E-3,4.374807E-3,4.5716355E-4,-1.494173E-3,2.684334E-3,1.4825768E-3,-1.9473494E-3,-0E0,-4.013262E-3,-0E0,-6.1187414E-3,7.564243E-4,6.096082E-3,1.646602E-3,-1.0401749E-3],"categories":[],"categories_nodes":[],"categories_segments":[],"categories_sizes":[],"default_left":[0,0,0,0,0,0,0,0,0,0,0,0,0,0,0,0,0,0,0,0,0,0,0,0,0,0,0,0,0,0,0,0,0,0,0,0,0,0,0,0,0,0,0,0,0,0,0,0,0,0,0,0,0,0,0,0,0,0,0],"id":9,"left_children":[1,3,5,7,9,11,13,15,17,19,21,23,25,27,29,31,33,35,37,39,41,43,45,47,-1,49,51,53,-1,55,57,-1,-1,-1,-1,-1,-1,-1,-1,-1,-1,-1,-1,-1,-1,-1,-1,-1,-1,-1,-1,-1,-1,-1,-1,-1,-1,-1,-1],"loss_changes":[3.122986E0,2.1584988E0,3.0272057E0,8.538235E-1,1.0268884E0,3.0936656E0,5.1577896E-1,8.1872106E-1,6.4397043E-1,1.0308981E0,9.8745656E-1,4.393001E-1,1.1528339E0,5.280318E-1,5.4311174E-1,6.833398E-1,7.2859585E-1,3.6577412E-1,3.7719738E-1,7.3245883E-1,9.5791507E-1,5.774517E-1,6.551537E-1,4.250254E-1,0E0,2.8598782E-1,6.825733E-2,2.7850968E-1,0E0,3.960687E-1,5.2893203E-1,0E0,0E0,0E0,0E0,0E0,0E0,0E0,0E0,0E0,0E0,0E0,0E0,0E0,0E0,0E0,0E0,0E0,0E0,0E0,0E0,0E0,0E0,0E0,0E0,0E0,0E0,0E0,0E0],"parents":[2147483647,0,0,1,1,2,2,3,3,4,4,5,5,6,6,7,7,8,8,9,9,10,10,11,11,12,12,13,13,14,14,15,15,16,16,17,17,18,18,19,19,20,20,21,21,22,22,23,23,25,25,26,26,27,27,29,29,30,30],"right_children":[2,4,6,8,10,12,14,16,18,20,22,24,26,28,30,32,34,36,38,40,42,44,46,48,-1,50,52,54,-1,56,58,-1,-1,-1,-1,-1,-1,-1,-1,-1,-1,-1,-1,-1,-1,-1,-1,-1,-1,-1,-1,-1,-1,-1,-1,-1,-1,-1,-1],"split_conditions":[4.472533E-3,1.4E1,8.73888E-3,7.737457E-1,-2.6754403E-1,-4.889563E-1,-7.3287624E-1,6.389417E-1,-7.096586E-1,2.4213997E-1,-1.2348146E0,1.1468107E0,-9.370525E-2,5.721378E-1,-6.245611E-1,-4.889563E-1,8.435974E-3,-5.1323384E-1,-7.668929E-1,-4.5648852E-1,2.221008E0,-1.1512004E0,-1.5503559E0,-8.496955E-1,-2.531998E-3,-3.286475E-1,-7.951181E-3,-2.3703402E-1,1.7344279E-3,6.0267466E-1,1.3231052E-1,3.4391714E-4,-1.0591535E-3,-0E0,-3.4245977E-3,-4.5874855E-3,5.771038E-4,-0E0,3.8990548E-3,-2.8899047E-4,2.0512743E-3,4.1662217E-3,-2.8043415E-3,1.0583911E-3,-4.311575E-3,4.374807E-3,4.5716355E-4,-1.494173E-3,2.684334E-3,1.4825768E-3,-1.9473494E-3,-0E0,-4.013262E-3,-0E0,-6.1187414E-3,7.564243E-4,6.096082E-3,1.646602E-3,-1.0401749E-3],"split_indices":[7,46,72,0,32,4,35,62,62,34,20,45,8,53,63,4,73,35,44,44,74,51,0,43,0,34,72,32,0,32,52,0,0,0,0,0,0,0,0,0,0,0,0,0,0,0,0,0,0,0,0,0,0,0,0,0,0,0,0],"split_type":[0,0,0,0,0,0,0,0,0,0,0,0,0,0,0,0,0,0,0,0,0,0,0,0,0,0,0,0,0,0,0,0,0,0,0,0,0,0,0,0,0,0,0,0,0,0,0,0,0,0,0,0,0,0,0,0,0,0,0],"sum_hessian":[4.120511E3,2.9874272E3,1.1330842E3,1.6765428E3,1.3108843E3,7.6076154E2,3.7232275E2,1.5365002E3,1.4004259E2,7.324375E2,5.784468E2,1.4845973E2,6.1230176E2,4.307807E1,3.292447E2,1.3163093E3,2.2019093E2,3.466956E1,1.05373024E2,4.7258594E2,2.598516E2,6.9888664E1,5.085581E2,1.3250047E2,1.5959258E1,8.317175E1,5.2913E2,3.16365E1,1.1441572E1,7.8145004E1,2.5109969E2,8.309148E2,4.8539456E2,7.817802E1,1.4201292E2,1.4865607E1,1.9803953E1,1.368477E1,9.1688255E1,1.6202592E2,3.1056003E2,2.4735487E2,1.2496705E1,1.3763621E1,5.6125042E1,4.389978E1,4.6465833E2,1.5620851E1,1.1687963E2,4.3906425E1,3.9265327E1,1.2889954E1,5.1624005E2,1.0436988E1,2.1199512E1,4.578386E1,3.2361145E1,1.4556044E2,1.0553926E2],"tree_param":{"num_deleted":"0","num_feature":"75","num_nodes":"59","size_leaf_vector":"1"}},{"base_weights":[3.047091E-3,3.3808365E-2,-2.3148393E-2,8.401099E-2,2.1024985E-2,1.0286115E-2,-6.374869E-2,1.4321658E-1,2.8433165E-2,-1.9037402E-3,5.2985035E-2,-4.1304846E-4,8.377983E-2,-1.18842304E-1,2.601937E-2,-1.0221862E-3,1.7121138E-1,5.5816945E-2,-4.8261885E-2,6.472574E-2,-1.6463308E-2,2.916692E-2,9.892952E-2,-3.6947124E-2,3.3113714E-2,1.3188493E-1,-1.7734133E-2,2.4235451E-4,-1.24402285E-1,-1.3658461E-1,4.143709E-2,-2.4490592E-3,7.220587E-5,7.5516384E-3,1.4395762E-3,-1.8030789E-5,2.952567E-3,-4.285113E-3,1.8346767E-4,3.0257753E-3,-2.1064517E-3,-8.918572E-4,1.50636E-3,2.2591758E-3,-7.2777046E-5,4.700246E-3,4.828732E-4,-2.512251E-5,-2.3259015E-3,1.664057E-3,-8.1329246E-4,5.5740657E-3,-1.0460765E-3,1.3942552E-3,-4.559114E-3,-0E0,-3.8154875E-3,-0E0,-6.1417203E-3,2.066661E-3,-5.0520065E-4],"categories":[],"categories_nodes":[],"categories_segments":[],"categories_sizes":[],"default_left":[0,0,0,0,0,0,0,0,0,0,0,0,0,0,0,0,0,0,0,0,0,0,0,0,0,0,0,0,0,0,0,0,0,0,0,0,0,0,0,0,0,0,0,0,0,0,0,0,0,0,0,0,0,0,0,0,0,0,0,0,0],"id":10,"left_children":[1,3,5,7,9,11,13,15,17,19,21,23,25,27,29,31,33,35,37,39,41,43,45,47,49,51,53,-1,55,57,59,-1,-1,-1,-1,-1,-1,-1,-1,-1,-1,-1,-1,-1,-1,-1,-1,-1,-1,-1,-1,-1,-1,-1,-1,-1,-1,-1,-1,-1,-1],"loss_changes":[3.3116617E0,1.1117642E0,3.0344253E0,1.0356746E0,1.1755189E0,1.0206995E0,5.069748E0,8.5556626E-1,4.366315E-1,8.046482E-1,5.874505E-1,1.2686297E0,9.16574E-1,5.62973E-1,8.612694E-1,8.6188346E-2,1.1433454E0,4.805628E-1,3.675417E-1,7.5357103E-1,6.3138485E-1,7.310543E-1,8.260746E-1,6.665304E-1,7.3708975E-1,1.2226443E0,5.299182E-1,0E0,1.802969E-1,9.343171E-2,6.166805E-1,0E0,0E0,0E0,0E0,0E0,0E0,0E0,0E0,0E0,0E0,0E0,0E0,0E0,0E0,0E0,0E0,0E0,0E0,0E0,0E0,0E0,0E0,0E0,0E0,0E0,0E0,0E0,0E0,0E0,0E0],"parents":[2147483647,0,0,1,1,2,2,3,3,4,4,5,5,6,6,7,7,8,8,9,9,10,10,11,11,12,12,13,13,14,14,15,15,16,16,17,17,18,18,19,19,20,20,21,21,22,22,23,23,24,24,25,25,26,26,28,28,29,29,30,30],"right_children":[2,4,6,8,10,12,14,16,18,20,22,24,26,28,30,32,34,36,38,40,42,44,46,48,50,52,54,-1,56,58,60,-1,-1,-1,-1,-1,-1,-1,-1,-1,-1,-1,-1,-1,-1,-1,-1,-1,-1,-1,-1,-1,-1,-1,-1,-1,-1,-1,-1,-1,-1],"split_conditions":[-4.889563E-1,-1.1211184E0,-9.370525E-2,-3.061309E-1,9.256315E-2,1.3556619E0,8.73888E-3,-1.1581559E0,8.121855E-1,-1.2827289E0,-9.370525E-2,1.4E1,1.4779321E0,-4.6088275E-1,-1.6704038E-1,-7.794236E-1,-7.5939083E-1,-4.0575984E-1,-1.0086983E0,8.121855E-1,6.5317714E-1,-1.1570458E0,1.0163333E0,-3.7093875E-1,3.171848E-1,9.324434E-1,-5.952071E-1,2.4235451E-4,-1.0724131E0,-1.5511818E-1,8.741067E-1,-2.4490592E-3,7.220587E-5,7.5516384E-3,1.4395762E-3,-1.8030789E-5,2.952567E-3,-4.285113E-3,1.8346767E-4,3.0257753E-3,-2.1064517E-3,-8.918572E-4,1.50636E-3,2.2591758E-3,-7.2777046E-5,4.700246E-3,4.828732E-4,-2.512251E-5,-2.3259015E-3,1.664057E-3,-8.1329246E-4,5.5740657E-3,-1.0460765E-3,1.3942552E-3,-4.559114E-3,-0E0,-3.8154875E-3,-0E0,-6.1417203E-3,2.066661E-3,-5.0520065E-4],"split_indices":[4,50,8,49,2,74,72,60,58,4,8,46,0,39,11,15,7,58,66,58,24,7,61,64,0,54,6,0,66,24,51,0,0,0,0,0,0,0,0,0,0,0,0,0,0,0,0,0,0,0,0,0,0,0,0,0,0,0,0,0,0],"split_type":[0,0,0,0,0,0,0,0,0,0,0,0,0,0,0,0,0,0,0,0,0,0,0,0,0,0,0,0,0,0,0,0,0,0,0,0,0,0,0,0,0,0,0,0,0,0,0,0,0,0,0,0,0,0,0,0,0,0,0,0,0],"sum_hessian":[4.092577E3,1.899543E3,2.193034E3,3.6738513E2,1.5321578E3,1.18996E3,1.003074E3,1.6764783E2,1.9973732E2,8.75005E2,6.5715283E2,1.0285994E3,1.6136064E2,6.280878E2,3.749861E2,2.175657E1,1.4589125E2,1.571945E2,4.2542816E1,1.4336124E2,7.316438E2,4.4927756E2,2.0787529E2,5.063994E2,5.2219995E2,1.1575807E2,4.560257E1,1.8773449E1,6.093144E2,2.549743E1,3.4948868E2,1.0925371E1,1.0831201E1,8.2069824E1,6.3821426E1,5.838013E1,9.881438E1,2.1056696E1,2.148612E1,1.1932506E2,2.4036184E1,6.236691E2,1.0797466E2,1.9434166E2,2.549359E2,1.14322876E2,9.3552414E1,2.8208725E2,2.2431218E2,3.9305957E2,1.2914037E2,9.183357E1,2.3924496E1,2.669267E1,1.8909897E1,1.5292153E1,5.940222E2,1.3028849E1,1.2468583E1,2.4899435E2,1.0049433E2],"tree_param":{"num_deleted":"0","num_feature":"75","num_nodes":"61","size_leaf_vector":"1"}},{"base_weights":[1.3791076E-4,1.7729502E-2,-4.61159E-2,-0E0,5.0750863E-2,-7.106879E-2,2.7749259E-2,1.7651731E-2,-2.0784177E-2,6.674104E-2,-2.9605064E-3,1.2543653E-2,-1.1006265E-1,-5.2586156E-3,4.202959E-2,4.2022116E-2,-1.9967208E-2,-7.0364095E-2,-5.0768844E-4,2.6325673E-2,9.1121055E-2,-3.498402E-2,1.272102E-1,-0E0,1.3444762E-1,-2.2608439E-2,-1.328108E-1,8.4634386E-2,-6.7521124E-3,1.8168571E-3,-1.3572512E-4,1.0554442E-3,-1.5209309E-3,-3.6053932E-3,-4.9399223E-5,4.5871147E-4,-1.8120712E-3,3.8339947E-3,1.7343063E-4,-4.6629112E-4,3.061394E-3,-2.3520822E-3,6.760057E-4,-0E0,6.590235E-3,-2.7526694E-3,5.139365E-4,6.227602E-3,-0E0,-2.212575E-3,1.4556451E-3,-4.065389E-3,-5.1402876E-5,-8.7600853E-4,3.7765119E-3,-2.417209E-3,1.6947708E-3],"categories":[],"categories_nodes":[],"categories_segments":[],"categories_sizes":[],"default_left":[0,0,0,0,0,0,0,0,0,0,0,0,0,0,0,0,0,0,0,0,0,0,0,0,0,0,0,0,0,0,0,0,0,0,0,0,0,0,0,0,0,0,0,0,0,0,0,0,0,0,0,0,0,0,0,0,0],"id":11,"left_children":[1,3,5,7,9,11,13,15,17,19,21,23,25,-1,27,29,31,33,35,37,39,41,43,45,47,49,51,53,55,-1,-1,-1,-1,-1,-1,-1,-1,-1,-1,-1,-1,-1,-1,-1,-1,-1,-1,-1,-1,-1,-1,-1,-1,-1,-1,-1,-1],"loss_changes":[3.307637E0,1.7497625E0,2.1005497E0,7.141024E-1,9.6060634E-1,2.8500395E0,6.719224E-1,9.8776793E-1,8.284278E-1,6.8447995E-1,8.6298937E-1,4.982008E-1,9.9943686E-1,0E0,6.2130725E-1,6.2174773E-1,6.94648E-1,7.176391E-1,6.6321385E-1,5.4520684E-1,6.658611E-1,5.337145E-1,6.2822086E-1,4.2527893E-1,8.974141E-2,5.1235133E-1,2.2987366E-2,8.1010866E-1,5.586702E-1,0E0,0E0,0E0,0E0,0E0,0E0,0E0,0E0,0E0,0E0,0E0,0E0,0E0,0E0,0E0,0E0,0E0,0E0,0E0,0E0,0E0,0E0,0E0,0E0,0E0,0E0,0E0,0E0],"parents":[2147483647,0,0,1,1,2,2,3,3,4,4,5,5,6,6,7,7,8,8,9,9,10,10,11,11,12,12,14,14,15,15,16,16,17,17,18,18,19,19,20,20,21,21,22,22,23,23,24,24,25,25,26,26,27,27,28,28],"right_children":[2,4,6,8,10,12,14,16,18,20,22,24,26,-1,28,30,32,34,36,38,40,42,44,46,48,50,52,54,56,-1,-1,-1,-1,-1,-1,-1,-1,-1,-1,-1,-1,-1,-1,-1,-1,-1,-1,-1,-1,-1,-1,-1,-1,-1,-1,-1,-1],"split_conditions":[8.053094E-2,1.1396133E0,8.73888E-3,-9.937392E-2,4.02236E-1,-4.8030546E-1,1.9576044E-1,-3.4045637E-1,-7.4442214E-1,1.3860877E0,4.7276163E-1,1.1358393E0,-6.561324E-2,-5.2586156E-3,-5.6303788E-2,-2.894038E-1,-5.4799676E-1,-3.262403E-1,1.6409523E-3,-5.9918326E-1,-6.512188E-1,-1.9545866E-2,-4.7799185E-1,-1.5825371E-1,-9.964239E-2,1.1762107E-1,2.070283E0,-3.7861755E-1,-2.713971E-1,1.8168571E-3,-1.3572512E-4,1.0554442E-3,-1.5209309E-3,-3.6053932E-3,-4.9399223E-5,4.5871147E-4,-1.8120712E-3,3.8339947E-3,1.7343063E-4,-4.6629112E-4,3.061394E-3,-2.3520822E-3,6.760057E-4,-0E0,6.590235E-3,-2.7526694E-3,5.139365E-4,6.227602E-3,-0E0,-2.212575E-3,1.4556451E-3,-4.065389E-3,-5.1402876E-5,-8.7600853E-4,3.7765119E-3,-2.417209E-3,1.6947708E-3],"split_indices":[39,74,72,50,51,4,9,64,35,74,58,60,8,0,24,14,60,53,71,30,30,37,14,31,58,10,24,59,19,0,0,0,0,0,0,0,0,0,0,0,0,0,0,0,0,0,0,0,0,0,0,0,0,0,0,0,0],"split_type":[0,0,0,0,0,0,0,0,0,0,0,0,0,0,0,0,0,0,0,0,0,0,0,0,0,0,0,0,0,0,0,0,0,0,0,0,0,0,0,0,0,0,0,0,0,0,0,0,0,0,0,0,0,0,0,0,0],"sum_hessian":[4.0959202E3,2.9839106E3,1.1120096E3,1.9421588E3,1.0417518E3,8.413884E2,2.7062122E2,1.0495352E3,8.926236E2,8.1673737E2,2.2501443E2,2.5987146E2,5.8151697E2,1.1699726E1,2.5892148E2,6.5291235E2,3.9662283E2,2.433434E2,6.4928015E2,3.2430527E2,4.924321E2,1.8792693E2,3.7087505E1,2.3203082E2,2.7840656E1,1.2993506E2,4.515819E2,1.4836902E2,1.1055247E2,4.8186365E2,1.7104869E2,1.3017722E2,2.6644562E2,1.3176918E2,1.1157423E2,5.0173413E2,1.4754602E2,4.465073E1,2.7965454E2,3.7169865E1,4.5526224E2,1.16581726E2,7.134521E1,1.2961662E1,2.4125843E1,4.1813137E1,1.9021768E2,1.2599979E1,1.5240678E1,8.372203E1,4.621303E1,4.349221E2,1.6659822E1,3.317055E1,1.1519847E2,5.8053596E1,5.2498875E1],"tree_param":{"num_deleted":"0","num_feature":"75","num_nodes":"57","size_leaf_vector":"1"}},{"base_weights":[1.1562167E-3,1.8339228E-2,-4.501661E-2,4.325312E-2,1.7425432E-3,-7.132877E-2,3.0208765E-2,-1.9450665E-2,5.4412805E-2,-1.1030638E-2,3.850268E-2,-5.708699E-3,-1.188111E-1,-2.3183396E-2,7.778252E-2,-5.1356528E-2,8.9915246E-2,4.590566E-2,2.0263578E-1,-3.230498E-2,1.6212193E-2,7.893305E-3,1.0185147E-1,-2.6426587E-2,1.0507042E-1,-1.7814985E-2,-1.3709386E-1,3.1757865E-2,-1.5697645E-1,-2.2569628E-2,1.15834184E-1,-3.901579E-5,-5.593522E-3,-0E0,5.0562182E-3,1.7113345E-3,-7.5934496E-4,-0E0,8.031413E-3,7.999879E-4,-1.3996173E-3,1.1225389E-3,-2.8003978E-3,1.1130382E-3,-2.9113856E-3,2.9401554E-4,5.248499E-3,3.365611E-5,-2.0142356E-3,6.262315E-3,-0E0,-1.8467027E-3,6.059822E-4,-0E0,-4.1979887E-3,-3.890946E-3,2.5900882E-3,-8.75163E-3,-0E0,1.0179385E-3,-6.255244E-3,7.5565097E-3,1.8100042E-3],"categories":[],"categories_nodes":[],"categories_segments":[],"categories_sizes":[],"default_left":[0,0,0,0,0,0,0,0,0,0,0,0,0,0,0,0,0,0,0,0,0,0,0,0,0,0,0,0,0,0,0,0,0,0,0,0,0,0,0,0,0,0,0,0,0,0,0,0,0,0,0,0,0,0,0,0,0,0,0,0,0,0,0],"id":12,"left_children":[1,3,5,7,9,11,13,15,17,19,21,23,25,27,29,31,33,35,37,39,41,43,45,47,49,51,53,55,57,59,61,-1,-1,-1,-1,-1,-1,-1,-1,-1,-1,-1,-1,-1,-1,-1,-1,-1,-1,-1,-1,-1,-1,-1,-1,-1,-1,-1,-1,-1,-1,-1,-1],"loss_changes":[3.2194915E0,1.1942979E0,2.2106538E0,8.587966E-1,8.853514E-1,2.4318228E0,7.5679874E-1,5.476634E-1,1.0076051E0,7.9140985E-1,8.4132874E-1,7.429649E-1,7.0310545E-1,1.0262965E0,6.9343716E-1,7.338699E-1,2.882167E-1,8.001592E-1,5.288023E-1,6.752286E-1,1.2672267E0,1.0018339E0,8.160647E-1,4.1246623E-1,7.1336794E-1,1.8071376E-1,1.0653353E-1,7.0428073E-1,7.506652E-1,5.804197E-1,5.674095E-1,0E0,0E0,0E0,0E0,0E0,0E0,0E0,0E0,0E0,0E0,0E0,0E0,0E0,0E0,0E0,0E0,0E0,0E0,0E0,0E0,0E0,0E0,0E0,0E0,0E0,0E0,0E0,0E0,0E0,0E0,0E0,0E0],"parents":[2147483647,0,0,1,1,2,2,3,3,4,4,5,5,6,6,7,7,8,8,9,9,10,10,11,11,12,12,13,13,14,14,15,15,16,16,17,17,18,18,19,19,20,20,21,21,22,22,23,23,24,24,25,25,26,26,27,27,28,28,29,29,30,30],"right_children":[2,4,6,8,10,12,14,16,18,20,22,24,26,28,30,32,34,36,38,40,42,44,46,48,50,52,54,56,58,60,62,-1,-1,-1,-1,-1,-1,-1,-1,-1,-1,-1,-1,-1,-1,-1,-1,-1,-1,-1,-1,-1,-1,-1,-1,-1,-1,-1,-1,-1,-1,-1,-1],"split_conditions":[8.053094E-2,-6.181643E-1,9.073209E-3,-1.1647274E0,7.731987E-1,-1.399861E-1,1.0813183E0,6.043721E-2,2.0282211E0,1.4E1,1.8767832E-3,1.2311039E0,-9.370525E-2,1.744313E-1,-1.8807176E-1,3.1090528E-1,2E0,3.4700745E-1,-1.0658666E0,-2.1017998E-1,4.088474E-1,1.5849143E-1,9.582029E-1,6.8783667E-4,-8.473508E-2,1.4E1,-2.3109543E0,3.7212363E-1,-2.2255856E-1,1.8452827E-3,-3.1508705E-1,-3.901579E-5,-5.593522E-3,-0E0,5.0562182E-3,1.7113345E-3,-7.5934496E-4,-0E0,8.031413E-3,7.999879E-4,-1.3996173E-3,1.1225389E-3,-2.8003978E-3,1.1130382E-3,-2.9113856E-3,2.9401554E-4,5.248499E-3,3.365611E-5,-2.0142356E-3,6.262315E-3,-0E0,-1.8467027E-3,6.059822E-4,-0E0,-4.1979887E-3,-3.890946E-3,2.5900882E-3,-8.75163E-3,-0E0,1.0179385E-3,-6.255244E-3,7.5565097E-3,1.8100042E-3],"split_indices":[39,67,72,23,45,4,45,51,34,46,71,18,8,33,33,17,47,48,50,41,45,11,2,71,54,46,45,8,27,66,43,0,0,0,0,0,0,0,0,0,0,0,0,0,0,0,0,0,0,0,0,0,0,0,0,0,0,0,0,0,0,0,0],"split_type":[0,0,0,0,0,0,0,0,0,0,0,0,0,0,0,0,0,0,0,0,0,0,0,0,0,0,0,0,0,0,0,0,0,0,0,0,0,0,0,0,0,0,0,0,0,0,0,0,0,0,0,0,0,0,0,0,0,0,0,0,0,0,0],"sum_hessian":[4.0874456E3,2.9955342E3,1.0919114E3,1.1722946E3,1.8232396E3,8.188818E2,2.7302954E2,1.6335347E2,1.0089411E3,1.3339304E3,4.8930927E2,3.535628E2,4.6531897E2,1.1922659E2,1.5380295E2,1.3436032E2,2.8993158E1,9.630345E2,4.590663E1,7.694165E2,5.6451385E2,3.4206326E2,1.4724602E2,3.0674524E2,4.6817562E1,8.0311874E1,3.850071E2,8.0302086E1,3.89245E1,3.5283867E1,1.1851908E2,1.04909904E2,2.9450417E1,1.2025692E1,1.6967466E1,8.4526855E2,1.177659E2,1.3081932E1,3.28247E1,1.3660184E2,6.328147E2,4.817187E2,8.279515E1,2.760516E2,6.601166E1,7.223312E1,7.501289E1,1.6946495E2,1.3728029E2,2.6739706E1,2.0077854E1,4.8998413E1,3.1313461E1,1.0104131E1,3.7490295E2,1.4962985E1,6.53391E1,1.8670822E1,2.025368E1,2.4190142E1,1.1093726E1,2.7069288E1,9.14498E1],"tree_param":{"num_deleted":"0","num_feature":"75","num_nodes":"63","size_leaf_vector":"1"}},{"base_weights":[2.5804492E-3,1.8075371E-2,-4.060134E-2,-5.8023597E-4,4.395919E-2,-7.067861E-2,3.9943475E-2,-2.3004731E-2,4.5990344E-2,6.1165668E-2,-1.828687E-2,-6.4478363E-3,-1.1513363E-1,-2.1905303E-2,9.795083E-2,1.993186E-2,-4.3704692E-2,1.0710886E-1,2.2133732E-2,4.6834473E-2,1.15496375E-1,-5.391574E-2,7.5684756E-2,2.4607608E-2,-6.186642E-2,-0E0,-1.2304527E-1,-1.4588046E-1,1.2363636E-2,1.7567709E-1,2.34569E-2,1.7880226E-3,-2.767123E-3,-2.89132E-3,-4.0426556E-4,5.37526E-3,1.311317E-4,-0E0,3.118426E-3,1.995492E-3,1.13751776E-4,5.330245E-3,1.5216281E-3,1.4059333E-3,-2.6207322E-3,-5.526546E-4,3.5318611E-3,-8.210857E-4,1.8844829E-3,-3.7948142E-3,-0E0,-5.080904E-4,2.256229E-3,-3.97224E-3,-1.3104299E-3,-8.178885E-3,-1.2318803E-4,3.195766E-3,-2.4812794E-3,-0E0,6.430702E-3,1.7045682E-3,-3.0672096E-3],"categories":[],"categories_nodes":[],"categories_segments":[],"categories_sizes":[],"default_left":[0,0,0,0,0,0,0,0,0,0,0,0,0,0,0,0,0,0,0,0,0,0,0,0,0,0,0,0,0,0,0,0,0,0,0,0,0,0,0,0,0,0,0,0,0,0,0,0,0,0,0,0,0,0,0,0,0,0,0,0,0,0,0],"id":13,"left_children":[1,3,5,7,9,11,13,15,17,19,21,23,25,27,29,31,33,35,37,39,41,43,45,47,49,51,53,55,57,59,61,-1,-1,-1,-1,-1,-1,-1,-1,-1,-1,-1,-1,-1,-1,-1,-1,-1,-1,-1,-1,-1,-1,-1,-1,-1,-1,-1,-1,-1,-1,-1,-1],"loss_changes":[2.690285E0,1.4923427E0,2.5889404E0,1.778798E0,1.415278E0,2.0953896E0,1.0802941E0,1.0734105E0,6.625203E-1,6.1737776E-1,8.769868E-1,6.067104E-1,5.107393E-1,6.817147E-1,6.758231E-1,1.6210538E0,1.180208E0,8.593998E-1,7.820825E-1,6.2496686E-1,5.4293156E-1,7.286612E-1,3.6574167E-1,4.376286E-1,5.3688776E-1,8.126528E-2,1.3006401E-1,3.3621728E-1,9.0040076E-1,5.0949144E-1,3.3004597E-1,0E0,0E0,0E0,0E0,0E0,0E0,0E0,0E0,0E0,0E0,0E0,0E0,0E0,0E0,0E0,0E0,0E0,0E0,0E0,0E0,0E0,0E0,0E0,0E0,0E0,0E0,0E0,0E0,0E0,0E0,0E0,0E0],"parents":[2147483647,0,0,1,1,2,2,3,3,4,4,5,5,6,6,7,7,8,8,9,9,10,10,11,11,12,12,13,13,14,14,15,15,16,16,17,17,18,18,19,19,20,20,21,21,22,22,23,23,24,24,25,25,26,26,27,27,28,28,29,29,30,30],"right_children":[2,4,6,8,10,12,14,16,18,20,22,24,26,28,30,32,34,36,38,40,42,44,46,48,50,52,54,56,58,60,62,-1,-1,-1,-1,-1,-1,-1,-1,-1,-1,-1,-1,-1,-1,-1,-1,-1,-1,-1,-1,-1,-1,-1,-1,-1,-1,-1,-1,-1,-1,-1,-1],"split_conditions":[8.053094E-2,1.4E1,8.73888E-3,1.3282079E0,-2.462224E-1,-4.0638623E-1,4.4919368E-2,-9.873612E-1,-9.3622786E-1,-3.293672E-1,5.023836E-1,9.690802E-4,-7.9454577E-1,-3.0574453E-1,1.8281414E-1,-3.7093875E-1,8.0839336E-1,-9.316957E-2,2.610375E-1,2.0871097E-1,-3.3903015E-1,-5.5672616E-1,-5.5055624E-1,1.3E1,-7.207196E-1,-2.507249E-1,-1.0681472E-2,-2.0454188E-1,1.5600227E-3,-8.713439E-2,2.0678504E0,1.7880226E-3,-2.767123E-3,-2.89132E-3,-4.0426556E-4,5.37526E-3,1.311317E-4,-0E0,3.118426E-3,1.995492E-3,1.13751776E-4,5.330245E-3,1.5216281E-3,1.4059333E-3,-2.6207322E-3,-5.526546E-4,3.5318611E-3,-8.210857E-4,1.8844829E-3,-3.7948142E-3,-0E0,-5.080904E-4,2.256229E-3,-3.97224E-3,-1.3104299E-3,-8.178885E-3,-1.2318803E-4,3.195766E-3,-2.4812794E-3,-0E0,6.430702E-3,1.7045682E-3,-3.0672096E-3],"split_indices":[39,46,72,74,26,1,31,50,50,38,53,71,66,15,61,64,74,31,48,50,7,45,64,46,45,33,28,24,66,23,66,0,0,0,0,0,0,0,0,0,0,0,0,0,0,0,0,0,0,0,0,0,0,0,0,0,0,0,0,0,0,0,0],"split_type":[0,0,0,0,0,0,0,0,0,0,0,0,0,0,0,0,0,0,0,0,0,0,0,0,0,0,0,0,0,0,0,0,0,0,0,0,0,0,0,0,0,0,0,0,0,0,0,0,0,0,0,0,0,0,0,0,0,0,0,0,0,0,0],"sum_hessian":[4.050234E3,2.9985757E3,1.0516582E3,1.7212883E3,1.2772872E3,7.7493884E2,2.767194E2,1.1770192E3,5.442691E2,1.0132875E3,2.6399982E2,3.271056E2,4.4783328E2,1.2618431E2,1.5053506E2,3.671756E2,8.098436E2,1.3907497E2,4.0519418E2,8.193038E2,1.9398369E2,1.9975697E2,6.424283E1,1.987805E2,1.2832509E2,2.225353E1,4.2557974E2,3.223488E1,9.394943E1,6.57704E1,8.476466E1,2.7852652E2,8.864906E1,2.816417E2,5.282019E2,7.514336E1,6.3931602E1,3.1635107E2,8.88431E1,5.455291E2,2.7377466E2,8.932046E1,1.0466322E2,4.2119934E1,1.5763704E2,1.2840692E1,5.1402138E1,7.336846E1,1.2541204E2,6.2728554E1,6.5596535E1,1.0521006E1,1.1732524E1,3.6820517E2,5.7374565E1,1.2320585E1,1.9914295E1,5.236427E1,4.158516E1,1.1162809E1,5.4607594E1,7.413866E1,1.0626013E1],"tree_param":{"num_deleted":"0","num_feature":"75","num_nodes":"63","size_leaf_vector":"1"}},{"base_weights":[-5.4568583E-3,-5.8761302E-2,5.343361E-3,-9.491578E-2,-0E0,1.3714554E-2,-3.7181906E-2,-1.7250962E-4,-1.22984685E-1,6.369438E-3,-1.0911879E-2,4.3782957E-2,3.1074951E-3,-8.730863E-2,-6.652202E-3,4.2027994E-3,-4.116051E-2,-0E0,-1.3417372E-1,5.968547E-2,-4.830188E-2,-7.882636E-2,5.55642E-2,6.476744E-2,-3.8760689E-3,9.544279E-3,-1.0700876E-1,5.2585874E-2,-5.1600903E-2,2.2561194E-3,-2.4890609E-3,1.4463218E-3,-2.360989E-3,-0E0,-4.2429194E-3,-0E0,4.4061225E-3,-2.7900946E-3,7.9348823E-4,-0E0,-5.911173E-3,2.4736652E-3,1.9729724E-4,-2.3943889E-4,3.1956283E-3,-7.6165766E-4,5.2167056E-4,-2.3748862E-4,3.003343E-3,-0E0,-3.6700664E-3,4.272817E-3,1.000218E-4,-0E0,-2.7448267E-3],"categories":[],"categories_nodes":[],"categories_segments":[],"categories_sizes":[],"default_left":[0,0,0,0,0,0,0,0,0,0,0,0,0,0,0,0,0,0,0,0,0,0,0,0,0,0,0,0,0,0,0,0,0,0,0,0,0,0,0,0,0,0,0,0,0,0,0,0,0,0,0,0,0,0,0],"id":14,"left_children":[1,3,5,7,9,11,13,15,17,-1,19,21,23,25,27,-1,29,31,33,35,37,39,41,43,45,47,49,51,53,-1,-1,-1,-1,-1,-1,-1,-1,-1,-1,-1,-1,-1,-1,-1,-1,-1,-1,-1,-1,-1,-1,-1,-1,-1,-1],"loss_changes":[2.3806262E0,1.4566884E0,1.1689248E0,1.0168424E0,5.8057207E-1,8.5139126E-1,7.1800786E-1,5.3422725E-1,3.5666943E-1,0E0,6.800293E-1,1.0110097E0,9.697096E-1,4.5927346E-1,9.2247784E-1,0E0,4.616741E-1,1.5543729E-1,2.7567387E-1,3.4716338E-1,6.7353994E-1,5.7280314E-1,7.744868E-1,7.966911E-1,8.698814E-1,1.3351421E-1,3.3516634E-1,4.733816E-1,4.4463593E-1,0E0,0E0,0E0,0E0,0E0,0E0,0E0,0E0,0E0,0E0,0E0,0E0,0E0,0E0,0E0,0E0,0E0,0E0,0E0,0E0,0E0,0E0,0E0,0E0,0E0,0E0],"parents":[2147483647,0,0,1,1,2,2,3,3,4,4,5,5,6,6,7,7,8,8,10,10,11,11,12,12,13,13,14,14,16,16,17,17,18,18,19,19,20,20,21,21,22,22,23,23,24,24,25,25,26,26,27,27,28,28],"right_children":[2,4,6,8,10,12,14,16,18,-1,20,22,24,26,28,-1,30,32,34,36,38,40,42,44,46,48,50,52,54,-1,-1,-1,-1,-1,-1,-1,-1,-1,-1,-1,-1,-1,-1,-1,-1,-1,-1,-1,-1,-1,-1,-1,-1,-1,-1],"split_conditions":[-6.1752E-1,8.73888E-3,8.723611E-2,-5.0044703E-1,-5.9359926E-1,-1.0341998E0,7.955766E-1,-5.1576304E-1,-8.807761E-1,6.369438E-3,1.2897189E-2,6.2564556E-3,-1.4594594E0,-8.667619E-1,-3.732794E-1,4.2027994E-3,6.696447E-3,2E0,-1.1284122E0,9.444708E-2,2.067971E-1,-1.6711334E-4,-5.1005684E-2,-2.2593115E-1,1.4E1,-4.3818605E-1,-1.159032E0,7.358324E-2,4.269453E-1,2.2561194E-3,-2.4890609E-3,1.4463218E-3,-2.360989E-3,-0E0,-4.2429194E-3,-0E0,4.4061225E-3,-2.7900946E-3,7.9348823E-4,-0E0,-5.911173E-3,2.4736652E-3,1.9729724E-4,-2.3943889E-4,3.1956283E-3,-7.6165766E-4,5.2167056E-4,-2.3748862E-4,3.003343E-3,-0E0,-3.6700664E-3,4.272817E-3,1.000218E-4,-0E0,-2.7448267E-3],"split_indices":[25,72,39,0,48,50,74,17,52,0,51,73,3,52,54,0,73,47,17,15,58,72,31,50,46,49,41,6,13,0,0,0,0,0,0,0,0,0,0,0,0,0,0,0,0,0,0,0,0,0,0,0,0,0,0],"split_type":[0,0,0,0,0,0,0,0,0,0,0,0,0,0,0,0,0,0,0,0,0,0,0,0,0,0,0,0,0,0,0,0,0,0,0,0,0,0,0,0,0,0,0,0,0,0,0,0,0,0,0,0,0,0,0],"sum_hessian":[4.039309E3,6.9463745E2,3.3446716E3,4.2669348E2,2.67944E2,2.8153367E3,5.2933484E2,1.0612387E2,3.205696E2,1.0193311E1,2.577507E2,7.0794745E2,2.1073892E3,1.8655524E2,3.427796E2,1.7387741E1,8.873613E1,3.1744223E1,2.8882538E2,7.957143E1,1.7817926E2,5.3622894E1,6.543246E2,2.2728325E2,1.8801061E3,2.312659E1,1.6342863E2,1.3813867E2,2.0464091E2,1.671025E1,7.202588E1,1.5043992E1,1.6700232E1,1.5297421E1,2.7352795E2,5.20063E1,2.7565125E1,1.19567444E2,5.861182E1,3.1967123E1,2.1655771E1,4.083725E2,2.4595206E2,7.4735794E1,1.5254745E2,9.577995E2,9.223065E2,1.1661925E1,1.1464665E1,1.6459555E1,1.4696909E2,4.0384647E1,9.775401E1,8.779895E1,1.1684197E2],"tree_param":{"num_deleted":"0","num_feature":"75","num_nodes":"55","size_leaf_vector":"1"}},{"base_weights":[-1.7135419E-3,2.0913621E-2,-2.4785504E-2,6.541674E-2,8.6707E-3,3.520753E-3,-5.805319E-2,1.066775E-1,6.8128603E-3,3.736238E-2,-2.1974888E-2,-4.67048E-2,1.5435573E-2,-1.149242E-1,1.9083664E-2,-1.7937902E-2,1.2510745E-1,6.521582E-2,-3.8534213E-2,4.4856817E-2,-1.0192151E-1,-3.0431861E-2,1.0591426E-1,3.946369E-3,-7.145936E-2,-2.7536798E-2,3.7127268E-2,4.685331E-2,-1.2378253E-1,-3.574527E-2,4.851669E-2,6.122096E-4,-3.9131097E-3,4.5603253E-3,-0E0,3.7399998E-3,-0E0,-3.5083487E-3,3.8388968E-4,4.1880263E-3,9.3299267E-4,-7.68495E-3,-0E0,-1.528317E-3,2.8327023E-4,5.6278226E-3,-1.5327896E-4,4.220879E-5,-3.1652625E-3,1.1520219E-3,-1.6511722E-3,1.5930926E-3,-8.207848E-4,-0E0,4.006704E-3,-4.04782E-3,-1.835539E-3,-3.0120078E-3,4.8531985E-4,2.0841744E-3,-1.2230207E-3],"categories":[],"categories_nodes":[],"categories_segments":[],"categories_sizes":[],"default_left":[0,0,0,0,0,0,0,0,0,0,0,0,0,0,0,0,0,0,0,0,0,0,0,0,0,0,0,0,0,0,0,0,0,0,0,0,0,0,0,0,0,0,0,0,0,0,0,0,0,0,0,0,0,0,0,0,0,0,0,0,0],"id":15,"left_children":[1,3,5,7,9,11,13,15,17,19,21,23,25,27,29,31,33,35,37,39,41,43,45,-1,47,49,51,53,55,57,59,-1,-1,-1,-1,-1,-1,-1,-1,-1,-1,-1,-1,-1,-1,-1,-1,-1,-1,-1,-1,-1,-1,-1,-1,-1,-1,-1,-1,-1,-1],"loss_changes":[2.1096678E0,1.0224676E0,1.9562243E0,8.9274037E-1,1.4238099E0,6.143812E-1,4.2437134E0,6.500046E-1,5.1989186E-1,8.329903E-1,7.508172E-1,8.00678E-1,8.390876E-1,8.787708E-1,6.538374E-1,2.2302122E-1,8.0757165E-1,4.7299343E-1,4.9104342E-1,8.7508667E-1,6.7541116E-1,6.312727E-1,5.483127E-1,0E0,5.355239E-1,5.3490174E-1,6.532024E-1,1.9808143E-1,1.5657711E-1,5.147981E-1,5.391763E-1,0E0,0E0,0E0,0E0,0E0,0E0,0E0,0E0,0E0,0E0,0E0,0E0,0E0,0E0,0E0,0E0,0E0,0E0,0E0,0E0,0E0,0E0,0E0,0E0,0E0,0E0,0E0,0E0,0E0,0E0],"parents":[2147483647,0,0,1,1,2,2,3,3,4,4,5,5,6,6,7,7,8,8,9,9,10,10,11,11,12,12,13,13,14,14,15,15,16,16,17,17,18,18,19,19,20,20,21,21,22,22,24,24,25,25,26,26,27,27,28,28,29,29,30,30],"right_children":[2,4,6,8,10,12,14,16,18,20,22,24,26,28,30,32,34,36,38,40,42,44,46,-1,48,50,52,54,56,58,60,-1,-1,-1,-1,-1,-1,-1,-1,-1,-1,-1,-1,-1,-1,-1,-1,-1,-1,-1,-1,-1,-1,-1,-1,-1,-1,-1,-1,-1,-1],"split_conditions":[-4.4333136E-1,-1.1211184E0,-9.370525E-2,-2.801351E-1,-7.071707E-1,1.1E1,8.73888E-3,-1.0522301E-2,8.793924E-3,2.298115E0,4.149617E-1,-9.6914417E-1,-1.0312881E0,-4.6088275E-1,-3.6231917E-1,-2.1935786E-1,3.4904295E-1,-6.3924104E-1,1.0657049E-2,-1.125815E0,-5.270575E-1,4.6766583E-2,7.0494795E-1,3.946369E-3,-4.7228476E-1,-1.4644552E0,7.360331E-1,8.618997E-5,-9.168099E-2,2.8555477E-1,9.973342E-1,6.122096E-4,-3.9131097E-3,4.5603253E-3,-0E0,3.7399998E-3,-0E0,-3.5083487E-3,3.8388968E-4,4.1880263E-3,9.3299267E-4,-7.68495E-3,-0E0,-1.528317E-3,2.8327023E-4,5.6278226E-3,-1.5327896E-4,4.220879E-5,-3.1652625E-3,1.1520219E-3,-1.6511722E-3,1.5930926E-3,-8.207848E-4,-0E0,4.006704E-3,-4.04782E-3,-1.835539E-3,-3.0120078E-3,4.8531985E-4,2.0841744E-3,-1.2230207E-3],"split_indices":[4,50,8,48,9,46,72,72,73,25,37,52,61,39,55,49,59,11,73,37,50,58,37,0,7,15,9,71,25,39,15,0,0,0,0,0,0,0,0,0,0,0,0,0,0,0,0,0,0,0,0,0,0,0,0,0,0,0,0,0,0],"split_type":[0,0,0,0,0,0,0,0,0,0,0,0,0,0,0,0,0,0,0,0,0,0,0,0,0,0,0,0,0,0,0,0,0,0,0,0,0,0,0,0,0,0,0,0,0,0,0,0,0,0,0,0,0,0,0,0,0,0,0,0,0],"sum_hessian":[4.0296958E3,2.0126709E3,2.0170248E3,4.1473602E2,1.5979349E3,1.0745007E3,9.4252405E2,2.324045E2,1.8233153E2,8.419029E2,7.56032E2,1.8881288E2,8.8568787E2,5.494287E2,3.9309534E2,2.2959066E1,2.0944542E2,8.894901E1,9.338251E1,8.070154E2,3.488752E1,7.1790234E2,3.812964E1,1.7045874E1,1.71767E2,2.8146048E2,6.0422736E2,2.2217096E1,5.272116E2,1.2529213E2,2.6780322E2,1.1714477E1,1.124459E1,1.7617268E2,3.3272736E1,5.332244E1,3.5626575E1,4.3641815E1,4.9740692E1,9.078681E1,7.162286E2,1.4132131E1,2.0755388E1,4.9023822E2,2.2766414E2,2.636252E1,1.17671175E1,4.596001E1,1.2580699E2,7.1907326E1,2.0955316E2,4.969693E2,1.07258064E2,1.0131897E1,1.2085199E1,4.3201135E2,9.5200294E1,6.3550274E1,6.1741856E1,2.2632632E2,4.1476894E1],"tree_param":{"num_deleted":"0","num_feature":"75","num_nodes":"61","size_leaf_vector":"1"}},{"base_weights":[1.170699E-3,1.4141013E-2,-3.439611E-2,-5.6406073E-3,3.8457517E-2,-7.411374E-2,2.2197846E-2,-7.2389305E-2,1.8376023E-2,2.2424247E-2,9.883756E-2,3.315756E-2,-1.0653447E-1,1.9429211E-1,1.0068752E-2,-3.640564E-3,-1.018359E-1,4.090487E-2,-4.0058848E-3,9.910162E-2,1.2344727E-2,3.932055E-2,1.5210873E-1,-2.6481435E-2,9.249502E-2,-0E0,-1.2663604E-1,8.293975E-3,1.3973564E-4,2.408282E-2,-1.139589E-1,6.4328284E-4,-3.5033266E-3,-0E0,-3.272035E-3,-0E0,2.0953277E-3,2.1711192E-3,-6.764877E-4,-0E0,4.304658E-3,-1.2174959E-3,8.178057E-4,-6.928424E-4,2.84705E-3,5.279598E-3,-0E0,-4.970787E-3,1.0159743E-3,4.2425846E-3,-0E0,1.6336656E-3,-1.5022559E-3,-0E0,-3.8996404E-3,1.1084478E-3,-2.9910416E-3,-6.0784933E-3,-0E0],"categories":[],"categories_nodes":[],"categories_segments":[],"categories_sizes":[],"default_left":[0,0,0,0,0,0,0,0,0,0,0,0,0,0,0,0,0,0,0,0,0,0,0,0,0,0,0,0,0,0,0,0,0,0,0,0,0,0,0,0,0,0,0,0,0,0,0,0,0,0,0,0,0,0,0,0,0,0,0],"id":16,"left_children":[1,3,5,7,9,11,13,15,17,19,21,23,25,27,29,31,33,35,37,39,41,43,45,47,49,51,53,-1,-1,55,57,-1,-1,-1,-1,-1,-1,-1,-1,-1,-1,-1,-1,-1,-1,-1,-1,-1,-1,-1,-1,-1,-1,-1,-1,-1,-1,-1,-1],"loss_changes":[1.8386942E0,1.463484E0,2.429422E0,2.651447E0,1.1877291E0,2.2767177E0,6.824806E-1,7.839403E-1,6.326859E-1,7.267747E-1,6.558149E-1,5.696467E-1,9.859233E-1,6.78311E-2,6.2160915E-1,5.093269E-1,2.5961566E-1,7.024746E-1,7.6348484E-1,5.7612467E-1,7.5872344E-1,5.6033397E-1,4.0412855E-1,6.759883E-1,4.1432625E-1,2.3345755E-1,5.1583767E-2,0E0,0E0,5.399699E-1,5.13659E-1,0E0,0E0,0E0,0E0,0E0,0E0,0E0,0E0,0E0,0E0,0E0,0E0,0E0,0E0,0E0,0E0,0E0,0E0,0E0,0E0,0E0,0E0,0E0,0E0,0E0,0E0,0E0,0E0],"parents":[2147483647,0,0,1,1,2,2,3,3,4,4,5,5,6,6,7,7,8,8,9,9,10,10,11,11,12,12,13,13,14,14,15,15,16,16,17,17,18,18,19,19,20,20,21,21,22,22,23,23,24,24,25,25,26,26,29,29,30,30],"right_children":[2,4,6,8,10,12,14,16,18,20,22,24,26,28,30,32,34,36,38,40,42,44,46,48,50,52,54,-1,-1,56,58,-1,-1,-1,-1,-1,-1,-1,-1,-1,-1,-1,-1,-1,-1,-1,-1,-1,-1,-1,-1,-1,-1,-1,-1,-1,-1,-1,-1],"split_conditions":[1.8614842E-2,1.4E1,8.73888E-3,-4.2084646E-1,1.2058824E0,-4.889563E-1,-5.85761E-1,-1.1018286E0,-8.916057E-2,-5.754862E-1,-2.4813147E-1,-4.5759782E-1,-2.8708375E-1,9.8482445E-3,1.4E1,3.2480168E-1,-7.519922E-1,-2.1615982E-1,-9.2329204E-1,-4.9931946E-1,-4.461887E-1,-3.3366665E-1,5.581962E-1,7.108069E-1,1.2917215E0,3.2065225E-1,5.796975E-3,8.293975E-3,1.3973564E-4,1.9286354E0,1.0297157E0,6.4328284E-4,-3.5033266E-3,-0E0,-3.272035E-3,-0E0,2.0953277E-3,2.1711192E-3,-6.764877E-4,-0E0,4.304658E-3,-1.2174959E-3,8.178057E-4,-6.928424E-4,2.84705E-3,5.279598E-3,-0E0,-4.970787E-3,1.0159743E-3,4.2425846E-3,-0E0,1.6336656E-3,-1.5022559E-3,-0E0,-3.8996404E-3,1.1084478E-3,-2.9910416E-3,-6.0784933E-3,-0E0],"split_indices":[7,46,72,2,65,4,48,50,31,48,58,66,6,73,46,32,22,31,63,44,48,43,48,10,74,4,73,0,0,48,32,0,0,0,0,0,0,0,0,0,0,0,0,0,0,0,0,0,0,0,0,0,0,0,0,0,0,0,0],"split_type":[0,0,0,0,0,0,0,0,0,0,0,0,0,0,0,0,0,0,0,0,0,0,0,0,0,0,0,0,0,0,0,0,0,0,0,0,0,0,0,0,0,0,0,0,0,0,0,0,0,0,0,0,0,0,0,0,0,0,0],"sum_hessian":[4.025586E3,2.971336E3,1.05425E3,1.6166187E3,1.3547173E3,6.295103E2,4.247397E2,4.3771106E2,1.1789076E3,1.0857205E3,2.689968E2,1.3893213E2,4.905782E2,2.055864E1,4.0418106E2,1.4211748E2,2.9559357E2,6.0896674E2,5.6994086E2,1.1256162E2,9.731588E2,1.3755835E2,1.3143845E2,6.1437294E1,7.749484E1,8.248818E1,4.0809E2,1.002531E1,1.053333E1,3.718406E2,3.2340454E1,1.1041888E2,3.1698599E1,1.6332424E1,2.7926114E2,2.5740558E2,3.515612E2,9.9674866E1,4.70266E2,3.19325E1,8.062913E1,1.9845381E2,7.74705E2,5.6871384E1,8.068696E1,1.1073353E2,2.0704914E1,2.253412E1,3.8903175E1,5.2722984E1,2.4771856E1,3.4224113E1,4.826407E1,1.7824293E1,3.9026572E2,3.4542108E2,2.6419538E1,2.1375046E1,1.0965406E1],"tree_param":{"num_deleted":"0","num_feature":"75","num_nodes":"59","size_leaf_vector":"1"}},{"base_weights":[2.5848362E-3,2.6550984E-2,-2.0669812E-2,-3.224432E-3,4.1994914E-2,-3.9380003E-2,3.175317E-2,1.7792812E-2,-5.7618696E-2,6.971473E-2,1.9367447E-2,-7.953801E-3,-8.496776E-2,8.777435E-2,-9.405997E-3,-3.7714522E-2,3.6086638E-2,-7.873398E-2,5.9300173E-2,2.8750373E-2,9.90232E-2,-1.1202E-2,7.8442454E-2,-9.415794E-2,5.728731E-3,-1.2514293E-1,5.466376E-3,1.05953164E-1,-1.4884264E-2,-1.1399842E-1,1.36152925E-2,1.1100834E-4,-2.5394247E-3,5.093698E-4,4.042531E-3,-3.0587928E-3,1.7659336E-3,-0E0,3.685428E-3,1.8865869E-3,-8.694748E-4,3.4390609E-3,-0E0,5.671996E-4,-1.889471E-3,-2.6205412E-4,3.120206E-3,-0E0,-3.7404639E-3,3.5278322E-3,-1.9589573E-4,-3.974987E-3,-1.7378281E-4,-2.5356938E-3,9.66266E-4,-0E0,4.202086E-3,-4.669692E-3,1.2825304E-3,-0E0,-6.0007675E-3,-1.5561763E-3,1.7312197E-3],"categories":[],"categories_nodes":[],"categories_segments":[],"categories_sizes":[],"default_left":[0,0,0,0,0,0,0,0,0,0,0,0,0,0,0,0,0,0,0,0,0,0,0,0,0,0,0,0,0,0,0,0,0,0,0,0,0,0,0,0,0,0,0,0,0,0,0,0,0,0,0,0,0,0,0,0,0,0,0,0,0,0,0],"id":17,"left_children":[1,3,5,7,9,11,13,15,17,19,21,23,25,27,29,31,33,35,37,39,41,43,45,47,49,51,53,55,57,59,61,-1,-1,-1,-1,-1,-1,-1,-1,-1,-1,-1,-1,-1,-1,-1,-1,-1,-1,-1,-1,-1,-1,-1,-1,-1,-1,-1,-1,-1,-1,-1,-1],"loss_changes":[2.2451112E0,9.5861375E-1,1.9895964E0,7.99505E-1,7.4808264E-1,2.0579247E0,1.2741358E0,4.745785E-1,5.186554E-1,5.6427E-1,1.4412074E0,1.1562815E0,2.3002949E0,5.2312076E-1,8.018984E-1,2.8179726E-1,5.323243E-1,6.1814487E-1,1.1401466E-1,5.488224E-1,5.242541E-1,8.124615E-1,6.9998276E-1,4.1048157E-1,1.1718307E0,2.3162079E-1,3.833283E-1,6.8834543E-1,3.5381776E-1,6.9723713E-1,6.8079716E-1,0E0,0E0,0E0,0E0,0E0,0E0,0E0,0E0,0E0,0E0,0E0,0E0,0E0,0E0,0E0,0E0,0E0,0E0,0E0,0E0,0E0,0E0,0E0,0E0,0E0,0E0,0E0,0E0,0E0,0E0,0E0,0E0],"parents":[2147483647,0,0,1,1,2,2,3,3,4,4,5,5,6,6,7,7,8,8,9,9,10,10,11,11,12,12,13,13,14,14,15,15,16,16,17,17,18,18,19,19,20,20,21,21,22,22,23,23,24,24,25,25,26,26,27,27,28,28,29,29,30,30],"right_children":[2,4,6,8,10,12,14,16,18,20,22,24,26,28,30,32,34,36,38,40,42,44,46,48,50,52,54,56,58,60,62,-1,-1,-1,-1,-1,-1,-1,-1,-1,-1,-1,-1,-1,-1,-1,-1,-1,-1,-1,-1,-1,-1,-1,-1,-1,-1,-1,-1,-1,-1,-1,-1],"split_conditions":[-4.4333136E-1,1.2E1,6.4158803E-1,9.573346E-2,-4.603245E-1,-7.9847544E-2,-2.5085017E-1,-4.2084646E-1,2.5233948E-1,-1.0755297E0,-5.966565E-2,1.1E1,8.73888E-3,1.5E1,-8.837832E-3,-6.340512E-1,1.8982851E-4,1.3960491E0,-3.465425E-1,-1.2348146E0,-6.027779E-2,-5.1127386E-1,-5.107769E-1,-8.019068E-1,-2.1017998E-1,9.660062E-1,6.426933E-1,-5.8024496E-1,-3.21175E-1,9.005063E-1,9.381989E-3,1.1100834E-4,-2.5394247E-3,5.093698E-4,4.042531E-3,-3.0587928E-3,1.7659336E-3,-0E0,3.685428E-3,1.8865869E-3,-8.694748E-4,3.4390609E-3,-0E0,5.671996E-4,-1.889471E-3,-2.6205412E-4,3.120206E-3,-0E0,-3.7404639E-3,3.5278322E-3,-1.9589573E-4,-3.974987E-3,-1.7378281E-4,-2.5356938E-3,9.66266E-4,-0E0,4.202086E-3,-4.669692E-3,1.2825304E-3,-0E0,-6.0007675E-3,-1.5561763E-3,1.7312197E-3],"split_indices":[4,46,2,62,32,8,16,2,14,37,59,46,72,46,16,6,67,49,59,20,14,59,2,34,41,45,4,59,38,1,72,0,0,0,0,0,0,0,0,0,0,0,0,0,0,0,0,0,0,0,0,0,0,0,0,0,0,0,0,0,0,0,0],"split_type":[0,0,0,0,0,0,0,0,0,0,0,0,0,0,0,0,0,0,0,0,0,0,0,0,0,0,0,0,0,0,0,0,0,0,0,0,0,0,0,0,0,0,0,0,0,0,0,0,0,0,0,0,0,0,0,0,0,0,0,0,0,0,0],"sum_hessian":[4.0138525E3,1.9977244E3,2.0161282E3,6.6071625E2,1.3370082E3,1.50025E3,5.1587823E2,4.6428427E2,1.9643196E2,5.7915607E2,7.578521E2,9.024353E2,5.9781464E2,2.2782268E2,2.8805554E2,1.0101054E2,3.6327374E2,1.7418134E2,2.2250626E1,2.5742947E2,3.217266E2,4.893316E2,2.685205E2,1.320161E2,7.7041925E2,4.2105295E2,1.7676166E2,2.0177003E2,2.6052639E1,5.8375042E1,2.2968051E2,4.3319595E1,5.769094E1,3.1479007E2,4.8483654E1,1.5568771E2,1.8493616E1,1.104506E1,1.1205566E1,1.7254877E2,8.4880714E1,2.794482E2,4.2278393E1,2.980072E2,1.9132442E2,5.2316154E1,2.1620435E2,3.1181398E1,1.0083471E2,8.244625E1,6.8797296E2,3.8850665E2,3.254631E1,3.093827E1,1.458234E2,5.209E1,1.4968004E2,1.1620074E1,1.4432564E1,2.333828E1,3.5036762E1,8.314957E1,1.4653094E2],"tree_param":{"num_deleted":"0","num_feature":"75","num_nodes":"63","size_leaf_vector":"1"}},{"base_weights":[1.8806359E-5,1.3763831E-2,-3.270594E-2,9.441234E-3,1.09319E-1,-6.144126E-2,1.2978064E-2,4.498829E-2,-2.2296263E-4,1.8596736E-1,2.7647108E-2,3.701073E-2,-9.348884E-2,7.436313E-2,-1.0499219E-2,-0E0,7.64797E-2,-2.17565E-2,2.07936E-2,-0E0,2.3646814E-1,-1.3931862E-3,5.3355307E-3,1.1220134E-1,-0E0,2.6942051E-3,-1.22983925E-1,1.0572762E-1,-2.7200063E-3,-1.4075132E-1,2.1470585E-3,-9.0498285E-4,2.8154436E-3,4.7068726E-3,1.3936661E-3,-3.4096718E-3,1.4879022E-4,9.918809E-4,-1.7602185E-3,8.857398E-3,3.752447E-4,-3.538982E-3,4.3223132E-3,7.3604733E-3,-0E0,-1.1794413E-3,2.3330005E-3,3.672128E-3,-3.557521E-4,-0E0,-3.7588095E-3,-0E0,4.082301E-3,-0E0,-5.7528424E-3,1.0665895E-3,-1.5192914E-3],"categories":[],"categories_nodes":[],"categories_segments":[],"categories_sizes":[],"default_left":[0,0,0,0,0,0,0,0,0,0,0,0,0,0,0,0,0,0,0,0,0,0,0,0,0,0,0,0,0,0,0,0,0,0,0,0,0,0,0,0,0,0,0,0,0,0,0,0,0,0,0,0,0,0,0,0,0],"id":18,"left_children":[1,3,5,7,9,11,13,15,17,19,21,23,25,27,29,31,33,35,37,-1,39,41,-1,43,45,47,49,51,-1,53,55,-1,-1,-1,-1,-1,-1,-1,-1,-1,-1,-1,-1,-1,-1,-1,-1,-1,-1,-1,-1,-1,-1,-1,-1,-1,-1],"loss_changes":[1.7882848E0,1.0567431E0,1.581886E0,9.8598135E-1,4.846351E-1,2.366997E0,6.9777733E-1,9.00154E-1,9.676242E-1,2.875737E-1,4.537716E-1,5.134138E-1,1.7069111E0,7.248296E-1,6.454947E-1,6.683183E-1,6.6139793E-1,2.7577667E0,1.0093015E0,0E0,1.7366672E-1,8.4874684E-1,0E0,7.3157907E-1,3.482048E-1,3.3155942E-1,1.4923096E-2,4.2466938E-1,0E0,1.90647E-1,4.7370654E-1,0E0,0E0,0E0,0E0,0E0,0E0,0E0,0E0,0E0,0E0,0E0,0E0,0E0,0E0,0E0,0E0,0E0,0E0,0E0,0E0,0E0,0E0,0E0,0E0,0E0,0E0],"parents":[2147483647,0,0,1,1,2,2,3,3,4,4,5,5,6,6,7,7,8,8,9,9,10,10,11,11,12,12,13,13,14,14,15,15,16,16,17,17,18,18,20,20,21,21,23,23,24,24,25,25,26,26,27,27,29,29,30,30],"right_children":[2,4,6,8,10,12,14,16,18,20,22,24,26,28,30,32,34,36,38,-1,40,42,-1,44,46,48,50,52,-1,54,56,-1,-1,-1,-1,-1,-1,-1,-1,-1,-1,-1,-1,-1,-1,-1,-1,-1,-1,-1,-1,-1,-1,-1,-1,-1,-1],"split_conditions":[-5.0886434E-2,6.0181314E-1,8.73888E-3,-1.1211184E0,4.02236E-1,-4.889563E-1,-9.528671E-2,-2.719349E-4,1.4E1,-4.2013738E-1,7.2901183E-1,-8.078339E-3,-7.9847544E-2,1.6238166E0,-9.0236527E-1,-4.4089967E-1,4.7995304E-4,-4.0869266E-1,-3.9044183E-2,-0E0,-4.4779662E-2,-1.4366232E-3,5.3355307E-3,-4.760186E-1,7.0975703E-1,-7.668929E-1,-9.078482E-1,-4.9396504E-2,-2.7200063E-3,-2.338281E-1,-2.9258725E-1,-9.0498285E-4,2.8154436E-3,4.7068726E-3,1.3936661E-3,-3.4096718E-3,1.4879022E-4,9.918809E-4,-1.7602185E-3,8.857398E-3,3.752447E-4,-3.538982E-3,4.3223132E-3,7.3604733E-3,-0E0,-1.1794413E-3,2.3330005E-3,3.672128E-3,-3.557521E-4,-0E0,-3.7588095E-3,-0E0,4.082301E-3,-0E0,-5.7528424E-3,1.0665895E-3,-1.5192914E-3],"split_indices":[7,26,72,50,51,4,49,71,46,14,63,51,8,21,24,51,71,2,23,0,3,72,0,34,14,44,51,10,0,64,65,0,0,0,0,0,0,0,0,0,0,0,0,0,0,0,0,0,0,0,0,0,0,0,0,0,0],"split_type":[0,0,0,0,0,0,0,0,0,0,0,0,0,0,0,0,0,0,0,0,0,0,0,0,0,0,0,0,0,0,0,0,0,0,0,0,0,0,0,0,0,0,0,0,0,0,0,0,0,0,0,0,0,0,0,0,0],"sum_hessian":[4.0138215E3,2.848932E3,1.1648895E3,2.737748E3,1.1118382E2,7.2810803E2,4.3678156E2,6.057671E2,2.131981E3,4.9722023E1,6.14618E1,1.7106705E2,5.57041E2,1.3142075E2,3.053608E2,2.4356992E2,3.6219717E2,1.076506E3,1.0554751E3,1.4589949E1,3.5132072E1,4.7585495E1,1.3876306E1,5.7613277E1,1.1345377E2,1.232002E2,4.338408E2,1.1612836E2,1.529239E1,3.222897E1,2.7313184E2,1.8947209E2,5.409783E1,8.711431E1,2.7508286E2,2.4943001E2,8.270759E2,9.2622565E2,1.2924951E2,2.3787374E1,1.1344699E1,3.0442635E1,1.714286E1,2.2620481E1,3.4992798E1,7.843414E1,3.501963E1,1.9195066E1,1.0400514E2,1.4970277E1,4.188705E2,2.3882017E1,9.224634E1,1.0603811E1,2.1625158E1,1.7927893E2,9.38529E1],"tree_param":{"num_deleted":"0","num_feature":"75","num_nodes":"57","size_leaf_vector":"1"}},{"base_weights":[1.8662658E-4,2.1354578E-2,-2.082162E-2,3.0523611E-2,-1.745777E-2,5.503049E-3,-5.328479E-2,1.7948853E-2,7.462822E-2,-1.1746568E-1,-0E0,1.1609872E-2,-9.814972E-2,-1.07177004E-1,1.3591301E-2,4.9395725E-2,-2.2183035E-3,9.656549E-2,-0E0,8.287392E-3,-2.039485E-1,-1.0369472E-1,2.4534063E-2,-1.1136522E-1,1.679807E-2,-0E0,-4.7080605E-3,-1.1364952E-1,9.2807336E-4,-6.0979553E-2,4.1061964E-2,3.913062E-3,8.150974E-4,-1.0649797E-3,1.0387395E-3,-0E0,3.627761E-3,-1.3447806E-3,4.716012E-3,1.5193636E-3,-0E0,-0E0,-7.964647E-3,-2.6216672E-4,-6.3397954E-3,-1.4815124E-4,2.5146757E-3,-6.134505E-3,-0E0,1.0188954E-3,-4.995096E-4,5.282723E-5,-6.2551285E-4,-3.5517293E-3,-0E0,-0E0,-4.30158E-3,2.5319122E-3,-5.8964314E-4],"categories":[],"categories_nodes":[],"categories_segments":[],"categories_sizes":[],"default_left":[0,0,0,0,0,0,0,0,0,0,0,0,0,0,0,0,0,0,0,0,0,0,0,0,0,0,0,0,0,0,0,0,0,0,0,0,0,0,0,0,0,0,0,0,0,0,0,0,0,0,0,0,0,0,0,0,0,0,0],"id":19,"left_children":[1,3,5,7,9,11,13,15,17,19,21,23,25,27,29,31,33,35,37,39,41,43,45,47,49,51,-1,53,-1,55,57,-1,-1,-1,-1,-1,-1,-1,-1,-1,-1,-1,-1,-1,-1,-1,-1,-1,-1,-1,-1,-1,-1,-1,-1,-1,-1,-1,-1],"loss_changes":[1.7833539E0,7.3321474E-1,1.7476225E0,8.232037E-1,7.3342323E-1,6.011503E-1,3.3675325E0,8.775109E-1,6.106316E-1,8.651671E-1,7.239435E-1,5.685479E-1,2.6015484E-1,5.4662514E-1,8.014228E-1,7.9154587E-1,9.597831E-1,7.6058173E-1,5.12135E-1,2.9324992E-2,4.7509658E-1,3.1768936E-1,5.2762616E-1,4.273611E-1,5.9326357E-1,5.298632E-3,0E0,3.6363316E-1,0E0,5.1390815E-1,8.6323786E-1,0E0,0E0,0E0,0E0,0E0,0E0,0E0,0E0,0E0,0E0,0E0,0E0,0E0,0E0,0E0,0E0,0E0,0E0,0E0,0E0,0E0,0E0,0E0,0E0,0E0,0E0,0E0,0E0],"parents":[2147483647,0,0,1,1,2,2,3,3,4,4,5,5,6,6,7,7,8,8,9,9,10,10,11,11,12,12,13,13,14,14,15,15,16,16,17,17,18,18,19,19,20,20,21,21,22,22,23,23,24,24,25,25,27,27,29,29,30,30],"right_children":[2,4,6,8,10,12,14,16,18,20,22,24,26,28,30,32,34,36,38,40,42,44,46,48,50,52,-1,54,-1,56,58,-1,-1,-1,-1,-1,-1,-1,-1,-1,-1,-1,-1,-1,-1,-1,-1,-1,-1,-1,-1,-1,-1,-1,-1,-1,-1,-1,-1],"split_conditions":[-4.4333136E-1,5.624939E-1,-9.370525E-2,6.902245E-1,-1.1691754E0,1.903144E-2,9.731129E-1,-4.031653E-1,7.273444E-1,1.0155668E0,-4.3137744E-1,-1.9634454E0,-3.60288E-1,1.1436323E0,-6.23313E-1,-1.0341998E0,-3.5314736E-1,-1.786767E0,2.027289E0,6.239822E-5,-1.1248262E0,-5.983729E-1,1.5707982E0,-6.975809E-1,1.7033002E-1,-2.5810453E-1,-4.7080605E-3,2.5933385E-2,9.2807336E-4,4.7118294E-1,2.6714662E-1,3.913062E-3,8.150974E-4,-1.0649797E-3,1.0387395E-3,-0E0,3.627761E-3,-1.3447806E-3,4.716012E-3,1.5193636E-3,-0E0,-0E0,-7.964647E-3,-2.6216672E-4,-6.3397954E-3,-1.4815124E-4,2.5146757E-3,-6.134505E-3,-0E0,1.0188954E-3,-4.995096E-4,5.282723E-5,-6.2551285E-4,-3.5517293E-3,-0E0,-0E0,-4.30158E-3,2.5319122E-3,-5.8964314E-4],"split_indices":[4,62,8,24,26,73,0,63,51,62,58,32,58,3,62,50,62,16,16,71,15,58,62,38,50,39,0,73,0,51,63,0,0,0,0,0,0,0,0,0,0,0,0,0,0,0,0,0,0,0,0,0,0,0,0,0,0,0,0],"split_type":[0,0,0,0,0,0,0,0,0,0,0,0,0,0,0,0,0,0,0,0,0,0,0,0,0,0,0,0,0,0,0,0,0,0,0,0,0,0,0,0,0,0,0,0,0,0,0,0,0,0,0,0,0,0,0,0,0,0,0],"sum_hessian":[4.0050288E3,2.0186252E3,1.9864036E3,1.6540616E3,3.645635E2,1.0808167E3,9.0558685E2,1.306928E3,3.471337E2,5.9250233E1,3.053133E2,1.03147E3,4.934667E1,5.0908646E2,3.965004E2,5.2889813E2,7.7802985E2,2.7200705E2,7.512665E1,2.0168682E1,3.9081554E1,5.0977905E1,2.5433537E2,3.229565E1,9.991744E2,2.0699657E1,2.864701E1,4.9355136E2,1.5535085E1,9.628543E1,3.0021497E2,1.0205511E2,4.2684305E2,4.2307364E2,3.5495618E2,4.726282E1,2.2474423E2,6.157159E1,1.3555055E1,1.0026516E1,1.0142165E1,1.0097449E1,2.8984104E1,3.3168785E1,1.7809124E1,1.598435E2,9.4491875E1,1.8393005E1,1.3902644E1,6.8005066E2,3.1912372E2,1.06015E1,1.0098158E1,4.8059674E2,1.2954637E1,5.5512936E1,4.07725E1,1.8433803E2,1.15876945E2],"tree_param":{"num_deleted":"0","num_feature":"75","num_nodes":"59","size_leaf_vector":"1"}},{"base_weights":[-2.1042307E-3,-2.4981625E-2,1.4731046E-2,-3.64659E-2,3.6267072E-2,-2.1508087E-3,3.1567488E-2,-6.276998E-3,-7.460365E-2,6.290262E-2,-4.51032E-2,-3.1804767E-2,2.2029614E-2,-0E0,4.439717E-2,9.3693964E-2,-1.4794831E-2,-1.0343619E-1,-1.4574759E-2,8.757998E-2,-7.644595E-2,-1.3911349E-1,3.4359053E-2,1.2583867E-2,-6.589844E-2,-7.169367E-2,3.9044507E-2,-3.0075489E-2,3.909401E-2,6.655266E-2,2.7009875E-3,5.356139E-3,-0E0,5.569642E-4,-1.1497547E-3,-1.0046192E-3,-3.7320054E-3,-2.3476838E-3,5.470031E-4,-0E0,3.5830955E-3,-5.2234484E-3,-0E0,-0E0,-6.854457E-3,5.326832E-3,-1.3053177E-3,1.3016514E-3,-2.0385548E-3,-3.1203625E-3,-4.8293016E-4,-0E0,-6.328239E-3,-3.4058045E-4,1.8697698E-3,-2.1042791E-3,1.5517925E-3,2.9619471E-3,-1.4909325E-3,-6.996903E-4,2.3361996E-3,3.2182762E-3,-5.4944184E-4],"categories":[],"categories_nodes":[],"categories_segments":[],"categories_sizes":[],"default_left":[0,0,0,0,0,0,0,0,0,0,0,0,0,0,0,0,0,0,0,0,0,0,0,0,0,0,0,0,0,0,0,0,0,0,0,0,0,0,0,0,0,0,0,0,0,0,0,0,0,0,0,0,0,0,0,0,0,0,0,0,0,0,0],"id":20,"left_children":[1,3,5,7,9,11,13,15,17,19,21,23,25,27,29,31,33,35,37,39,41,43,45,47,49,51,53,55,57,59,61,-1,-1,-1,-1,-1,-1,-1,-1,-1,-1,-1,-1,-1,-1,-1,-1,-1,-1,-1,-1,-1,-1,-1,-1,-1,-1,-1,-1,-1,-1,-1,-1],"loss_changes":[1.5398079E0,1.2047224E0,6.726997E-1,1.5918008E0,5.805843E-1,8.014139E-1,5.090991E-1,6.291062E-1,9.649396E-1,7.25173E-1,5.273989E-1,8.3345956E-1,9.132902E-1,3.6919782E-1,7.120013E-1,3.81069E-1,6.2884283E-1,4.383464E-1,5.16593E-1,5.0628364E-1,2.7472687E-1,3.0939198E-1,4.372734E-1,5.0827235E-1,4.5356762E-1,7.869506E-1,6.500601E-1,6.603584E-1,7.3114383E-1,6.043129E-1,7.7709293E-1,0E0,0E0,0E0,0E0,0E0,0E0,0E0,0E0,0E0,0E0,0E0,0E0,0E0,0E0,0E0,0E0,0E0,0E0,0E0,0E0,0E0,0E0,0E0,0E0,0E0,0E0,0E0,0E0,0E0,0E0,0E0,0E0],"parents":[2147483647,0,0,1,1,2,2,3,3,4,4,5,5,6,6,7,7,8,8,9,9,10,10,11,11,12,12,13,13,14,14,15,15,16,16,17,17,18,18,19,19,20,20,21,21,22,22,23,23,24,24,25,25,26,26,27,27,28,28,29,29,30,30],"right_children":[2,4,6,8,10,12,14,16,18,20,22,24,26,28,30,32,34,36,38,40,42,44,46,48,50,52,54,56,58,60,62,-1,-1,-1,-1,-1,-1,-1,-1,-1,-1,-1,-1,-1,-1,-1,-1,-1,-1,-1,-1,-1,-1,-1,-1,-1,-1,-1,-1,-1,-1,-1,-1],"split_conditions":[-2.3985695E-2,1.1114444E-2,-3.6484994E-2,-1.0266459E-1,1.278053E0,1.4E1,-4.5947704E-1,-1.6019385E0,4.8494303E-1,2.0662541E0,2.086454E-1,-9.074085E-1,-1.3861468E0,-6.334274E-1,3.736336E-2,-3.315573E-1,-2.9397916E-2,-5.1576304E-1,-3.5668585E-1,7.304004E-1,1.6657332E-1,3.5085732E-1,1.8441314E0,-3.663744E-1,-3.7192285E-1,-8.8030525E-2,6.6478644E-3,1.5E1,4.103064E-1,6.432327E-3,-1.0405076E0,5.356139E-3,-0E0,5.569642E-4,-1.1497547E-3,-1.0046192E-3,-3.7320054E-3,-2.3476838E-3,5.470031E-4,-0E0,3.5830955E-3,-5.2234484E-3,-0E0,-0E0,-6.854457E-3,5.326832E-3,-1.3053177E-3,1.3016514E-3,-2.0385548E-3,-3.1203625E-3,-4.8293016E-4,-0E0,-6.328239E-3,-3.4058045E-4,1.8697698E-3,-2.1042791E-3,1.5517925E-3,2.9619471E-3,-1.4909325E-3,-6.996903E-4,2.3361996E-3,3.2182762E-3,-5.4944184E-4],"split_indices":[25,72,2,4,32,46,48,0,45,21,44,50,18,14,62,5,50,17,64,5,17,24,74,64,2,59,73,46,43,73,43,0,0,0,0,0,0,0,0,0,0,0,0,0,0,0,0,0,0,0,0,0,0,0,0,0,0,0,0,0,0,0,0],"split_type":[0,0,0,0,0,0,0,0,0,0,0,0,0,0,0,0,0,0,0,0,0,0,0,0,0,0,0,0,0,0,0,0,0,0,0,0,0,0,0,0,0,0,0,0,0,0,0,0,0,0,0,0,0,0,0,0,0,0,0,0,0,0,0],"sum_hessian":[3.9674458E3,1.7066782E3,2.2607673E3,1.4516304E3,2.5504791E2,1.1000748E3,1.1606926E3,8.261893E2,6.2544104E2,2.0175073E2,5.329718E1,5.124054E2,5.876695E2,3.1660565E2,8.44087E2,5.4079224E1,7.7211005E2,4.102761E2,2.1516498E2,1.7812558E2,2.362515E1,2.9490614E1,2.3806566E1,2.104016E2,3.0200378E2,8.027743E1,5.0739203E2,1.9164523E2,1.2496042E2,5.347627E2,3.0932428E2,2.5398958E1,2.8680267E1,3.019466E2,4.7016345E2,1.06804756E2,3.034713E2,8.2581764E1,1.325832E2,4.778198E1,1.303436E2,1.2001833E1,1.1623317E1,1.3890116E1,1.5600497E1,1.2007085E1,1.1799482E1,1.6183852E2,4.856308E1,1.5846774E2,1.4353604E2,5.508738E1,2.519005E1,1.4707889E2,3.6031314E2,1.3703448E2,5.461075E1,8.1355736E1,4.3604687E1,4.970399E1,4.850587E2,5.8349518E1,2.5097476E2],"tree_param":{"num_deleted":"0","num_feature":"75","num_nodes":"63","size_leaf_vector":"1"}},{"base_weights":[-0E0,-1.12377E-2,3.8290583E-2,4.7843484E-3,-5.617025E-2,1.0917622E-1,1.5397484E-2,-1.2750813E-1,9.1644805E-3,-2.3393573E-2,-1.0081128E-1,-3.3280943E-2,1.3760684E-1,3.718227E-2,-5.379106E-2,-0E0,-1.9279416E-1,3.1868197E-2,-1.1925714E-2,-3.9324995E-2,4.231981E-2,1.0638307E-2,-1.1165918E-1,-4.7641024E-3,5.4039486E-4,-2.2394882E-4,1.5739632E-1,-0E0,8.281067E-2,1.2535037E-2,-1.3313192E-1,-6.7210495E-3,-0E0,-6.9501874E-4,1.2788558E-3,2.77781E-3,-5.109248E-4,1.3218938E-3,-1.6376161E-3,3.6423365E-3,-2.1700468E-4,-3.1818385E-5,3.0277981E-3,-3.6014162E-3,-0E0,5.2760574E-3,-0E0,-1.070284E-3,2.365094E-3,3.0418755E-3,-2.013032E-3,-1.4629096E-3,3.1345377E-3,-0E0,-4.9779196E-3],"categories":[],"categories_nodes":[],"categories_segments":[],"categories_sizes":[],"default_left":[0,0,0,0,0,0,0,0,0,0,0,0,0,0,0,0,0,0,0,0,0,0,0,0,0,0,0,0,0,0,0,0,0,0,0,0,0,0,0,0,0,0,0,0,0,0,0,0,0,0,0,0,0,0,0],"id":21,"left_children":[1,3,5,7,9,11,13,15,17,19,21,23,25,27,29,-1,31,33,35,37,39,41,43,-1,-1,-1,45,47,49,51,53,-1,-1,-1,-1,-1,-1,-1,-1,-1,-1,-1,-1,-1,-1,-1,-1,-1,-1,-1,-1,-1,-1,-1,-1],"loss_changes":[1.7305987E0,2.2723534E0,1.35642E0,1.1930073E0,1.081542E0,9.733372E-1,1.0490907E0,6.997659E-1,1.072115E0,5.1599014E-1,5.104983E-1,3.4661752E-1,6.78293E-1,9.361452E-1,9.580262E-1,0E0,8.200145E-2,6.61507E-1,5.235921E-1,5.36786E-1,4.4839263E-1,1.24920845E-1,2.9217124E-1,0E0,0E0,0E0,4.3999958E-1,8.541694E-1,7.359911E-1,5.241169E-1,4.8184168E-1,0E0,0E0,0E0,0E0,0E0,0E0,0E0,0E0,0E0,0E0,0E0,0E0,0E0,0E0,0E0,0E0,0E0,0E0,0E0,0E0,0E0,0E0,0E0,0E0],"parents":[2147483647,0,0,1,1,2,2,3,3,4,4,5,5,6,6,7,7,8,8,9,9,10,10,11,11,12,12,13,13,14,14,16,16,17,17,18,18,19,19,20,20,21,21,22,22,26,26,27,27,28,28,29,29,30,30],"right_children":[2,4,6,8,10,12,14,16,18,20,22,24,26,28,30,-1,32,34,36,38,40,42,44,-1,-1,-1,46,48,50,52,54,-1,-1,-1,-1,-1,-1,-1,-1,-1,-1,-1,-1,-1,-1,-1,-1,-1,-1,-1,-1,-1,-1,-1,-1],"split_conditions":[1.3860877E0,-9.7889975E-3,-8.4875077E-1,-5.5197924E-3,1.8146473E-1,-2.289778E0,1.0009971E0,-8.982952E-3,9.9420606E-5,1.1623403E0,-8.6615664E-1,-6.100138E-1,-1.4569857E0,4.5530024E-1,5.0546445E-2,-0E0,3.1079403E-1,6.2564556E-3,-1.6737936E0,-7.420488E-1,5.045978E-2,2.6694203E-2,9.381989E-3,-4.7641024E-3,5.4039486E-4,-2.2394882E-4,8.2453656E-1,9.278483E-1,1.5502517E0,-2.664791E-1,1.5665426E0,-6.7210495E-3,-0E0,-6.9501874E-4,1.2788558E-3,2.77781E-3,-5.109248E-4,1.3218938E-3,-1.6376161E-3,3.6423365E-3,-2.1700468E-4,-3.1818385E-5,3.0277981E-3,-3.6014162E-3,-0E0,5.2760574E-3,-0E0,-1.070284E-3,2.365094E-3,3.0418755E-3,-2.013032E-3,-1.4629096E-3,3.1345377E-3,-0E0,-4.9779196E-3],"split_indices":[74,4,32,71,66,4,33,72,71,74,29,60,63,45,51,0,35,73,35,21,30,43,72,0,0,0,55,28,43,15,74,0,0,0,0,0,0,0,0,0,0,0,0,0,0,0,0,0,0,0,0,0,0,0,0],"split_type":[0,0,0,0,0,0,0,0,0,0,0,0,0,0,0,0,0,0,0,0,0,0,0,0,0,0,0,0,0,0,0,0,0,0,0,0,0,0,0,0,0,0,0,0,0,0,0,0,0,0,0,0,0,0,0],"sum_hessian":[3.995002E3,3.082309E3,9.126927E2,2.2570293E3,8.2527997E2,2.103014E2,7.023913E2,6.3215527E1,2.1938137E3,4.9055203E2,3.347279E2,2.9079323E1,1.8122209E2,5.4589014E2,1.5650116E2,1.7863346E1,4.535218E1,1.078835E3,1.1149788E3,4.077248E2,8.282726E1,2.151731E1,3.132106E2,1.2875372E1,1.620395E1,1.5837188E1,1.653849E2,3.0092136E2,2.449688E2,7.929422E1,7.720694E1,3.470055E1,1.0651628E1,1.6085835E2,9.179766E2,4.1205334E1,1.0737734E3,5.2358456E1,3.5536633E2,3.856084E1,4.426642E1,1.0993697E1,1.0523612E1,2.909739E2,2.223667E1,1.4629494E2,1.9089962E1,2.0862114E2,9.2300224E1,2.2445947E2,2.0509321E1,4.1615093E1,3.7679127E1,1.0717671E1,6.6489265E1],"tree_param":{"num_deleted":"0","num_feature":"75","num_nodes":"55","size_leaf_vector":"1"}},{"base_weights":[5.5933597E-5,1.6324542E-2,-2.1940714E-2,6.154832E-3,6.047125E-2,1.9324604E-2,-3.2094277E-2,-1.5181412E-2,3.3076424E-2,-3.5222955E-2,8.184675E-2,-1.2877326E-1,4.4577807E-2,-4.6823986E-2,1.4779037E-2,-1.1523203E-1,-4.5284834E-3,7.067898E-2,-9.72106E-3,1.8954717E-2,-1.0955318E-1,9.1682315E-2,-3.77117E-3,-2.1581814E-1,-0E0,-3.1710926E-2,7.146524E-2,-3.0325197E-2,-1.0195544E-1,6.6381976E-2,-3.658551E-2,-0E0,-4.9533756E-3,5.4452836E-4,-1.1733037E-3,1.2177024E-3,4.9261306E-3,1.847139E-3,-1.1066595E-3,-1.745025E-3,4.695188E-3,-6.298554E-3,-0E0,-9.834116E-4,3.18362E-3,-8.362394E-3,-5.4261484E-4,2.4737648E-3,-2.3905297E-3,4.1313153E-3,4.4971725E-4,4.6943311E-4,-1.4989713E-3,-3.6144946E-3,1.6732435E-3,-0E0,4.205373E-3,-3.2791058E-3,1.0213081E-3],"categories":[],"categories_nodes":[],"categories_segments":[],"categories_sizes":[],"default_left":[0,0,0,0,0,0,0,0,0,0,0,0,0,0,0,0,0,0,0,0,0,0,0,0,0,0,0,0,0,0,0,0,0,0,0,0,0,0,0,0,0,0,0,0,0,0,0,0,0,0,0,0,0,0,0,0,0,0,0],"id":22,"left_children":[1,3,5,7,9,11,13,15,17,19,21,23,25,27,29,31,33,35,37,39,41,43,-1,45,-1,47,49,51,53,55,57,-1,-1,-1,-1,-1,-1,-1,-1,-1,-1,-1,-1,-1,-1,-1,-1,-1,-1,-1,-1,-1,-1,-1,-1,-1,-1,-1,-1],"loss_changes":[1.4223326E0,9.7418815E-1,7.138741E-1,1.1138391E0,9.0276444E-1,1.0928099E0,9.7290933E-1,9.9199665E-1,1.452997E0,3.7166306E-1,7.0140004E-1,6.3051E-1,6.05287E-1,8.185041E-1,8.5803527E-1,6.23171E-1,7.711524E-1,1.1120048E0,7.4195945E-1,4.740089E-1,5.8786905E-1,6.8937063E-1,0E0,3.9357305E-2,0E0,3.5523784E-1,6.382892E-1,7.822039E-1,7.430465E-1,9.0864825E-1,8.3902705E-1,0E0,0E0,0E0,0E0,0E0,0E0,0E0,0E0,0E0,0E0,0E0,0E0,0E0,0E0,0E0,0E0,0E0,0E0,0E0,0E0,0E0,0E0,0E0,0E0,0E0,0E0,0E0,0E0],"parents":[2147483647,0,0,1,1,2,2,3,3,4,4,5,5,6,6,7,7,8,8,9,9,10,10,11,11,12,12,13,13,14,14,15,15,16,16,17,17,18,18,19,19,20,20,21,21,23,23,25,25,26,26,27,27,28,28,29,29,30,30],"right_children":[2,4,6,8,10,12,14,16,18,20,22,24,26,28,30,32,34,36,38,40,42,44,-1,46,-1,48,50,52,54,56,58,-1,-1,-1,-1,-1,-1,-1,-1,-1,-1,-1,-1,-1,-1,-1,-1,-1,-1,-1,-1,-1,-1,-1,-1,-1,-1,-1,-1],"split_conditions":[2.0871097E-1,9.9051994E-1,-9.900168E-1,1.4E1,-5.572214E-1,-1.56145515E-2,1.0813183E0,5.410613E-1,-6.5620935E-1,-6.0839885E-1,1.4730644E0,-2.944097E-1,-4.7745544E-1,7.2459716E-1,3.5985373E-2,-8.514847E-1,-3.663744E-1,-2.822631E-1,-1.1521698E-3,-1.2758293E0,2.8301138E-1,-1.562432E0,-3.77117E-3,1.4212632E-1,-0E0,-9.2261815E-1,-3.8822323E-1,-7.473805E-1,7.514071E-3,-3.3910125E-1,8.9855987E-1,-0E0,-4.9533756E-3,5.4452836E-4,-1.1733037E-3,1.2177024E-3,4.9261306E-3,1.847139E-3,-1.1066595E-3,-1.745025E-3,4.695188E-3,-6.298554E-3,-0E0,-9.834116E-4,3.18362E-3,-8.362394E-3,-5.4261484E-4,2.4737648E-3,-2.3905297E-3,4.1313153E-3,4.4971725E-4,4.6943311E-4,-1.4989713E-3,-3.6144946E-3,1.6732435E-3,-0E0,4.205373E-3,-3.2791058E-3,1.0213081E-3],"split_indices":[50,2,1,46,65,72,45,74,51,6,51,64,51,37,43,34,64,15,71,8,53,38,0,44,0,55,42,30,71,64,50,0,0,0,0,0,0,0,0,0,0,0,0,0,0,0,0,0,0,0,0,0,0,0,0,0,0,0,0],"split_type":[0,0,0,0,0,0,0,0,0,0,0,0,0,0,0,0,0,0,0,0,0,0,0,0,0,0,0,0,0,0,0,0,0,0,0,0,0,0,0,0,0,0,0,0,0,0,0,0,0,0,0,0,0,0,0,0,0,0,0],"sum_hessian":[3.9862998E3,2.3179402E3,1.6683596E3,1.9042131E3,4.1372717E2,3.096421E2,1.3587175E3,1.0420676E3,8.6214545E2,6.676305E1,3.469641E2,3.8144646E1,2.7149744E2,1.0500734E3,3.0864417E2,8.935499E1,9.5271265E2,4.706701E2,3.9147537E2,3.1696598E1,3.506645E1,3.3693207E2,1.0032053E1,2.5829134E1,1.2315513E1,6.096584E1,2.1053162E2,8.245537E2,2.2551958E2,1.633849E2,1.4525928E2,2.4000751E1,6.535424E1,5.5848114E2,3.942315E2,3.6636407E2,1.0430604E2,9.7162704E1,2.9431265E2,1.6390844E1,1.5305753E1,2.142882E1,1.36376295E1,2.7559616E1,3.0937244E2,1.5135424E1,1.069371E1,1.1445242E1,4.9520596E1,8.741228E1,1.2311933E2,2.317E2,5.9285376E2,2.0790979E2,1.7609798E1,8.205601E1,8.13289E1,7.800774E1,6.725154E1],"tree_param":{"num_deleted":"0","num_feature":"75","num_nodes":"59","size_leaf_vector":"1"}},{"base_weights":[-2.1139774E-3,4.6229935E-3,-3.725786E-2,-7.833836E-3,2.1797447E-2,5.954746E-2,-4.9783472E-2,-5.0353095E-2,6.832417E-3,3.701732E-2,-1.8616758E-2,-3.223494E-2,1.3141672E-1,-7.54532E-2,-6.5678116E-3,-1.2313435E-2,-1.0320758E-1,-1.7239344E-1,1.1753677E-2,-1.4607719E-2,5.2976128E-2,2.6907227E-3,-1.1974909E-1,-0E0,-2.4455392E-3,1.7201485E-1,-0E0,1.4175236E-2,-8.89852E-2,-4.099625E-2,3.3095546E-2,1.9039697E-4,-2.600074E-3,-3.687904E-3,-0E0,-7.6907827E-3,-0E0,2.3305754E-3,-3.7793678E-5,9.0358336E-4,-2.3431103E-3,6.6432105E-3,1.2945669E-3,-8.9354784E-4,2.8587005E-3,-0E0,-5.320589E-3,-0E0,7.5303596E-3,-7.861809E-4,3.20592E-3,-3.012315E-3,4.5398676E-5,6.775302E-4,-2.8478783E-3,2.7400872E-3,-1.0569564E-3],"categories":[],"categories_nodes":[],"categories_segments":[],"categories_sizes":[],"default_left":[0,0,0,0,0,0,0,0,0,0,0,0,0,0,0,0,0,0,0,0,0,0,0,0,0,0,0,0,0,0,0,0,0,0,0,0,0,0,0,0,0,0,0,0,0,0,0,0,0,0,0,0,0,0,0,0,0],"id":23,"left_children":[1,3,5,7,9,11,13,15,17,19,21,23,25,27,29,31,33,35,37,39,41,43,45,-1,-1,47,-1,49,51,53,55,-1,-1,-1,-1,-1,-1,-1,-1,-1,-1,-1,-1,-1,-1,-1,-1,-1,-1,-1,-1,-1,-1,-1,-1,-1,-1],"loss_changes":[9.755286E-1,7.2426194E-1,8.0187684E-1,1.2235218E0,8.9897394E-1,5.554854E-1,5.810226E-1,8.9273643E-1,1.0697684E0,9.1072524E-1,9.244586E-1,7.302098E-2,1.7423064E-1,5.1495457E-1,3.3802894E-1,5.054573E-1,4.6909904E-1,2.8080916E-1,1.2439768E0,7.239415E-1,1.0776985E0,9.824386E-1,5.6628716E-1,0E0,0E0,2.3505718E-1,0E0,2.3358625E-1,4.336486E-1,5.661171E-1,4.5659822E-1,0E0,0E0,0E0,0E0,0E0,0E0,0E0,0E0,0E0,0E0,0E0,0E0,0E0,0E0,0E0,0E0,0E0,0E0,0E0,0E0,0E0,0E0,0E0,0E0,0E0,0E0],"parents":[2147483647,0,0,1,1,2,2,3,3,4,4,5,5,6,6,7,7,8,8,9,9,10,10,11,11,12,12,13,13,14,14,15,15,16,16,17,17,18,18,19,19,20,20,21,21,22,22,25,25,27,27,28,28,29,29,30,30],"right_children":[2,4,6,8,10,12,14,16,18,20,22,24,26,28,30,32,34,36,38,40,42,44,46,-1,-1,48,-1,50,52,54,56,-1,-1,-1,-1,-1,-1,-1,-1,-1,-1,-1,-1,-1,-1,-1,-1,-1,-1,-1,-1,-1,-1,-1,-1,-1,-1],"split_conditions":[5.184413E-1,1.4E1,-1.3138423E0,-3.7192285E-1,-2.857117E-1,1.0364279E0,1.8293503E-1,-3.7761396E-1,-2.163589E0,6.2564556E-3,1.0989956E-1,1.1E1,1.855235E0,-6.2209046E-1,5.5111486E-2,1.7793946E-1,5.393134E-1,-9.598194E-1,-1.2615453E0,-1.05002835E-1,6.4837923E-3,4.024838E-1,-8.3352035E-1,-0E0,-2.4455392E-3,1.4805015E0,-0E0,1.381873E-1,1.7190874E0,-2.5321515E-5,7.581516E-1,1.9039697E-4,-2.600074E-3,-3.687904E-3,-0E0,-7.6907827E-3,-0E0,2.3305754E-3,-3.7793678E-5,9.0358336E-4,-2.3431103E-3,6.6432105E-3,1.2945669E-3,-8.9354784E-4,2.8587005E-3,-0E0,-5.320589E-3,-0E0,7.5303596E-3,-7.861809E-4,3.20592E-3,-3.012315E-3,4.5398676E-5,6.775302E-4,-2.8478783E-3,2.7400872E-3,-1.0569564E-3],"split_indices":[13,46,25,2,26,1,27,64,29,73,67,46,13,64,33,15,39,67,5,1,73,37,17,0,0,20,0,34,66,67,15,0,0,0,0,0,0,0,0,0,0,0,0,0,0,0,0,0,0,0,0,0,0,0,0,0,0],"split_type":[0,0,0,0,0,0,0,0,0,0,0,0,0,0,0,0,0,0,0,0,0,0,0,0,0,0,0,0,0,0,0,0,0,0,0,0,0,0,0,0,0,0,0,0,0,0,0,0,0,0,0,0,0,0,0,0,0],"sum_hessian":[3.978977E3,3.3164976E3,6.624796E2,1.8891425E3,1.4273551E3,6.589094E1,5.965887E2,5.0074338E2,1.388399E3,1.0549688E3,3.7238632E2,2.33105E1,4.258044E1,3.5882062E2,2.3776805E2,3.0361548E2,1.971279E2,2.985509E1,1.3585441E3,2.3435695E2,8.2061176E2,3.0102283E2,7.136348E1,1.0364194E1,1.2946304E1,2.990873E1,1.2671712E1,3.7361916E1,3.2145868E2,1.407445E2,9.7023544E1,2.3341823E2,7.019725E1,1.6940033E2,2.7727568E1,1.667808E1,1.3177011E1,2.349721E2,1.1235719E3,1.28877E2,1.0547994E2,3.723396E1,7.833778E2,2.1587161E2,8.5151215E1,2.1913607E1,4.9449875E1,1.319323E1,1.67155E1,1.950849E1,1.7853426E1,2.9504105E2,2.6417648E1,5.6618755E1,8.412575E1,5.9915176E1,3.7108368E1],"tree_param":{"num_deleted":"0","num_feature":"75","num_nodes":"57","size_leaf_vector":"1"}},{"base_weights":[-1.7866682E-3,4.2063184E-2,-8.2881525E-3,1.0919811E-1,2.1140782E-2,2.3677675E-2,-1.7913919E-2,-9.261224E-3,1.6126698E-1,3.4669288E-2,-1.524504E-1,1.074015E-1,9.875837E-3,-3.3943545E-2,9.789544E-4,-3.035188E-3,1.3220115E-3,2.1301673E-1,-0E0,-1.1732779E-2,8.390931E-2,-0E0,-6.8394192E-3,-0E0,1.677478E-1,4.0502343E-2,-1.483585E-2,1.2201243E-2,-5.0784484E-2,6.826849E-3,-6.0223684E-2,7.7420655E-3,1.0569098E-3,-2.9166124E-4,2.5916058E-3,-1.7934999E-3,1.9201243E-3,6.9116417E-4,4.5543513E-3,1.272017E-3,-1.6427094E-3,-0E0,6.0166223E-3,1.8129578E-3,-3.4453748E-3,6.5293367E-4,-1.6002024E-3,-1.474817E-3,2.462267E-3,-2.9077067E-4,-2.1060726E-3,-1.3665961E-4,1.6712574E-3,-3.4082315E-3,-0E0],"categories":[],"categories_nodes":[],"categories_segments":[],"categories_sizes":[],"default_left":[0,0,0,0,0,0,0,0,0,0,0,0,0,0,0,0,0,0,0,0,0,0,0,0,0,0,0,0,0,0,0,0,0,0,0,0,0,0,0,0,0,0,0,0,0,0,0,0,0,0,0,0,0,0,0],"id":24,"left_children":[1,3,5,7,9,11,13,15,17,19,21,23,25,27,29,-1,-1,31,33,35,37,-1,-1,39,41,43,45,47,49,51,53,-1,-1,-1,-1,-1,-1,-1,-1,-1,-1,-1,-1,-1,-1,-1,-1,-1,-1,-1,-1,-1,-1,-1,-1],"loss_changes":[1.096471E0,5.562077E-1,1.0634117E0,8.031169E-1,8.062945E-1,7.823497E-1,8.4879404E-1,2.0381126E-1,4.6667695E-1,9.145915E-1,1.386131E-1,6.715932E-1,5.4332054E-1,1.1945821E0,3.8039002E-1,0E0,0E0,1.3340211E-1,9.225343E-2,6.6094226E-1,6.000074E-1,0E0,0E0,9.258556E-2,2.4246848E-1,9.605096E-1,5.427198E-1,1.6833282E0,8.003726E-1,6.753172E-1,3.9054772E-1,0E0,0E0,0E0,0E0,0E0,0E0,0E0,0E0,0E0,0E0,0E0,0E0,0E0,0E0,0E0,0E0,0E0,0E0,0E0,0E0,0E0,0E0,0E0,0E0],"parents":[2147483647,0,0,1,1,2,2,3,3,4,4,5,5,6,6,7,7,8,8,9,9,10,10,11,11,12,12,13,13,14,14,17,17,18,18,19,19,20,20,23,23,24,24,25,25,26,26,27,27,28,28,29,29,30,30],"right_children":[2,4,6,8,10,12,14,16,18,20,22,24,26,28,30,-1,-1,32,34,36,38,-1,-1,40,42,44,46,48,50,52,54,-1,-1,-1,-1,-1,-1,-1,-1,-1,-1,-1,-1,-1,-1,-1,-1,-1,-1,-1,-1,-1,-1,-1,-1],"split_conditions":[-1.3382503E0,-5.4690164E-1,-8.3113796E-1,-7.354496E-1,1.6005787E0,-6.741029E-1,1.028643E0,-5.9325033E-1,8.20873E-1,6.16146E-1,1.3E1,-3.673496E-1,-1.6216116E-1,7.0598586E-3,1.676181E0,-3.035188E-3,1.3220115E-3,1.0783905E0,-2.6322561E-3,4.317363E-1,-1.0164027E0,-0E0,-6.8394192E-3,2.4736989E-1,-5.916935E-1,1.0732174E0,-3.205875E-4,1.9132356E-1,-3.003649E-1,1.2211726E0,1.1668836E0,7.7420655E-3,1.0569098E-3,-2.9166124E-4,2.5916058E-3,-1.7934999E-3,1.9201243E-3,6.9116417E-4,4.5543513E-3,1.272017E-3,-1.6427094E-3,-0E0,6.0166223E-3,1.8129578E-3,-3.4453748E-3,6.5293367E-4,-1.6002024E-3,-1.474817E-3,2.462267E-3,-2.9077067E-4,-2.1060726E-3,-1.3665961E-4,1.6712574E-3,-3.4082315E-3,-0E0],"split_indices":[50,64,55,59,45,64,74,26,30,41,46,54,63,73,38,0,0,41,72,18,57,0,0,17,62,16,71,19,50,1,27,0,0,0,0,0,0,0,0,0,0,0,0,0,0,0,0,0,0,0,0,0,0,0,0],"split_type":[0,0,0,0,0,0,0,0,0,0,0,0,0,0,0,0,0,0,0,0,0,0,0,0,0,0,0,0,0,0,0,0,0,0,0,0,0,0,0,0,0,0,0,0,0,0,0,0,0,0,0,0,0,0,0],"sum_hessian":[3.96009E3,4.9006326E2,3.4700269E3,1.0307773E2,3.8698553E2,7.783679E2,2.691659E3,2.6111557E1,7.696617E1,3.65836E2,2.114952E1,9.798149E1,6.803864E2,1.483945E3,1.2077139E3,1.5813793E1,1.0297765E1,5.3543587E1,2.3422585E1,1.7867435E2,1.8716165E2,1.0131115E1,1.1018406E1,3.5129616E1,6.285187E1,3.213317E2,3.5905472E2,3.8104355E2,1.1029015E3,1.1189177E3,8.87962E1,3.751038E1,1.6033209E1,1.3253826E1,1.0168757E1,1.1765449E2,6.1019855E1,1.0786903E2,7.9292625E1,1.8605936E1,1.652368E1,1.3453154E1,4.939872E1,2.9158362E2,2.9748068E1,1.7120944E2,1.8784529E2,1.955756E2,1.8546793E2,3.714142E2,7.3148724E2,8.9246277E2,2.2645494E2,5.377374E1,3.502246E1],"tree_param":{"num_deleted":"0","num_feature":"75","num_nodes":"55","size_leaf_vector":"1"}},{"base_weights":[-2.0434332E-4,3.3528365E-2,-9.365026E-3,7.126821E-2,5.219441E-4,4.637496E-2,-1.47065325E-2,1.7059892E-2,1.03588514E-1,-4.5384727E-2,2.5046494E-2,1.2425884E-2,1.3165782E-1,-1.212398E-3,-3.9750993E-2,-1.8786343E-2,1.3844618E-1,1.471495E-1,4.6380023E-3,2.649244E-2,-9.026014E-2,7.417884E-2,-1.0046547E-2,-1.7980995E-2,7.79367E-2,-0E0,1.7336434E-1,1.6522892E-2,-3.299238E-2,1.3479296E-2,-6.931032E-2,-4.6405136E-3,5.23165E-5,6.111423E-3,-0E0,2.48419E-4,5.555572E-3,-9.922899E-4,4.666822E-3,3.700131E-3,-5.1909254E-4,-3.5229735E-3,-0E0,5.2258994E-5,4.87573E-3,-5.0992467E-3,-0E0,9.67702E-4,-1.9252761E-3,-1.2931118E-6,4.6250876E-3,7.6370947E-3,-0E0,-3.701827E-4,1.3405245E-3,-1.3095106E-3,2.4183777E-3,1.0202398E-3,-1.6369843E-3,-2.99757E-3,-4.041439E-4],"categories":[],"categories_nodes":[],"categories_segments":[],"categories_sizes":[],"default_left":[0,0,0,0,0,0,0,0,0,0,0,0,0,0,0,0,0,0,0,0,0,0,0,0,0,0,0,0,0,0,0,0,0,0,0,0,0,0,0,0,0,0,0,0,0,0,0,0,0,0,0,0,0,0,0,0,0,0,0,0,0],"id":25,"left_children":[1,3,5,7,9,11,13,15,17,19,21,23,25,27,29,31,33,35,37,39,41,43,45,47,49,-1,51,53,55,57,59,-1,-1,-1,-1,-1,-1,-1,-1,-1,-1,-1,-1,-1,-1,-1,-1,-1,-1,-1,-1,-1,-1,-1,-1,-1,-1,-1,-1,-1,-1],"loss_changes":[1.1996542E0,9.526931E-1,9.0394557E-1,5.233432E-1,4.940995E-1,6.011062E-1,9.326988E-1,7.862488E-1,7.9335E-1,5.359849E-1,6.035734E-1,4.521917E-1,2.9360497E-1,1.0887115E0,1.6042122E0,4.680453E-1,4.739294E-1,5.7139397E-1,5.665152E-1,3.167827E-1,3.448223E-1,7.445838E-1,4.4244474E-1,3.2551047E-1,5.86767E-1,0E0,4.6350777E-1,1.0095334E0,8.195318E-1,4.5882598E-1,9.8521876E-1,0E0,0E0,0E0,0E0,0E0,0E0,0E0,0E0,0E0,0E0,0E0,0E0,0E0,0E0,0E0,0E0,0E0,0E0,0E0,0E0,0E0,0E0,0E0,0E0,0E0,0E0,0E0,0E0,0E0,0E0],"parents":[2147483647,0,0,1,1,2,2,3,3,4,4,5,5,6,6,7,7,8,8,9,9,10,10,11,11,12,12,13,13,14,14,15,15,16,16,17,17,18,18,19,19,20,20,21,21,22,22,23,23,24,24,26,26,27,27,28,28,29,29,30,30],"right_children":[2,4,6,8,10,12,14,16,18,20,22,24,26,28,30,32,34,36,38,40,42,44,46,48,50,-1,52,54,56,58,60,-1,-1,-1,-1,-1,-1,-1,-1,-1,-1,-1,-1,-1,-1,-1,-1,-1,-1,-1,-1,-1,-1,-1,-1,-1,-1,-1,-1,-1,-1],"split_conditions":[-8.807761E-1,-2.5903183E-1,-5.8931595E-1,-3.7922466E-1,-1.5497133E0,3.352451E-1,-1.5686872E-5,7.688136E-1,1.9148704E-1,-1.3184184E0,-2.42407E-1,8.76265E-4,-5.7296646E-1,7.3147035E-4,-3.6075476E-1,-5.6912965E-1,